0.26531288 0.207215 0.17433976 0.11457512 0.042659614 0.28961164 0.3374304 0.07645991 -0.098606125 -0.20465101 0.35366783 0.3257077 -0.10066841 -0.20978363 -0.21531874 0.2520438 0.15571918 -0.12762989 -0.16887833 -0.21117158 0.21687913 0.13299924 -0.095287286 -0.13023911 -0.11247962 -0.0480474 -0.050587777 -0.08360061 -0.15080528 -0.14853415 -0.031869113 -0.12012626 -0.041868366 0.0056364266 -0.15770002 -0.116601154 -0.07333923 0.0006532031 -0.22436464 -0.009342711 -0.16834737 -0.01788926 -0.088594206 -0.093044266 -0.01835505 -0.065015696 -0.12369007 -0.1238852 -0.059478458 0.0126859695 -0.100446165 -0.12723607 -0.13078128 0.10837071 0.2252088 -0.06751455 -0.17393944 -0.19115798 0.18549709 0.38594443 -0.21427812 -0.19664463 -0.0692107 0.39025337 0.38330647 -0.09276802 -0.0038168384 0.19747709 0.4530611 0.22411816 0.02536133 0.16584194 0.25429633 0.27275455 0.07516357 0.047378212 0.013095364 -0.079018585 -0.23181328 -0.2411322 0.17249951 0.23908016 0.20904425 0.07100238 -0.0035494545 0.20180531 0.37270695 0.43264288 0.31352946 0.17838013 0.027434602 0.15476824 0.2529113 0.24044284 0.12450271 -0.26911703 -0.26784697 -0.039139215 0.028046517 0.04773739 -0.5083533 0.6457346 -0.92047125 -0.84581655 -0.09749058 -0.20728643 0.0066089076 0.19868577 -0.07666204 0.13937151 0.1400759 0.101528004 0.33036953 0.26028675 -0.04147839 -0.10494807 -0.47847635 -0.033476636 0.036308333 0.035584867 -0.069883294 -0.34292156 -0.24367858 -0.00052422576 -0.2423236 -0.17963691 -0.1799136 -0.04098955 0.07370836 0.060371384 -0.09520111 0.019699614 -0.036174104 0.16012326 0.10954415 -0.12047092 0.16853933 -1.0971048 -0.0128748985 0.047161825 -0.1545634 -0.051050723 -1.3573554 0.25461072 -0.077900805 0.053603414 -0.25705254 -1.1853739 -0.49919066 0.10330733 0.368523 0.1565233 -0.22928339 -0.16086572 0.0007858067 0.07370291 -0.16787596 0.031142632 -0.028034724 -0.057441138 0.013994292 0.061318435 0.06816851 -0.21974182 -0.2962262 0.039784074 0.20580846 -0.2766462 -0.11498183 -0.1998544 -0.16253188 0.10106396 -0.20530315 -0.15349391 0.016822148 -0.093752034 -0.042726517 0.016409049 -0.18058339 0.23088305 0.06714251 0.11260494 -0.109399185 -0.0066517047 -0.15053543 0.08036222 -0.031489998 0.14136146 -0.091229975 -0.16148953 -0.24868973 -0.0048006126 0.15902439 0.115522124 -0.19819678 -0.31905013 -0.07227982 0.1704044 0.30508044 -0.13653691 -0.1550975 -0.21977338 -0.0062170615 0.20412757 -0.1294298 0.06346437 0.19919655 0.13422589 0.06763577 0.10148845 -0.2044253 -0.39556846 -0.27054894 0.03534356 -0.18595389 -0.34460384 -0.19617438 -0.2880304 -0.044290625 0.035298992 -0.08073427 0.026340714 -0.036628455 -0.027912628 -0.06451822 0.018247202 0.10135214 0.041402508 -0.04649839 0.23798613 -0.04959431 -0.062028926 -0.121286266 -0.11144288 0.40064612 0.22454065 -9.3088194e-05 0.2946309 0.092965096 -0.052902225 -0.23518434 -0.021683069 0.20600832 0.29939017 -0.16198654 -0.37463403 -0.39254788 0.17775287 -0.039724354 -0.08313258 -0.19587363 -0.46843618 -0.061756283 0.092717655 0.11255871 -0.0781688 0.23420964 0.13738002 0.098630905 -0.37308908 -0.5701394 -0.41736907 -0.18770634 -0.14422044 -0.2503389 -0.2645501 -0.26801547 -0.10172593 -0.11091148 -0.03481399 -0.01191735 -0.027566817 0.087732315 0.10869519 0.048617482 0.079984345 0.02056523 -0.11875288 -0.14954789 -0.13368107 -0.097115315 0.042599283 0.04396793 0.23942539 -0.0703662 -0.2761803 -0.25719115 0.06019191 0.056570247 0.42992255 0.23230481 0.08448936 -0.043013092 -0.27371547 0.41020122 0.20018834 0.22766495 0.2481361 0.0030686487 0.006217983 0.0017523185 0.17771327 0.14189485 0.14136198 -0.022086112 -0.089888506 0.26428258 0.08189803 -0.011966581 -0.14135757 -0.1929777 0.2027985 0.146868 0.18904574 -0.8680598 -0.0073381243 0.15709311 -0.046571366 -0.1863635 -0.053775854 0.29640695 0.099275745 -0.1398678 -0.30725297 0.2830945 -0.020775365 -0.0097274585 -0.08356802 0.0030839683 -0.17433085 -0.19040518 -0.43732482 -0.051695123 0.25500327 -0.13678204 0.06812628 -0.24533898 -0.011494855 -0.16260971 -0.16833706 -0.22070166 -0.21997677 -0.29078084 0.11291284 0.14658469 -0.75282156 -0.043368172 0.24497564 -0.18540189 0.03193715 -0.84487015 0.118149936 0.19104269 0.10343607 0.011794464 -0.025756488 0.10353341 -0.017118115 0.06901607 -0.09408681 0.0006875003 0.27661434 0.12259538 -0.27235448 0.025841149 0.25887135 0.086787455 -0.81393534 -0.26856172 0.1075142 0.11580789 -0.11852202 -0.30147865 -0.10059249 -0.008810699 0.14901091 0.098533414 -0.025178017 -0.09894255 0.26677486 0.09555064 0.1776249 -0.0550039 0.11011299 -0.12090169 -0.17448328 0.06099271 -0.045629743 -0.2736145 -0.38311175 -0.1463227 -0.07824798 -0.2944276 -0.353033 -0.36337826 -0.09042411 0.0584676 -0.124238156 0.06962321 -0.09994863 0.005137208 -0.030772394 0.056148857 0.099303894 0.1272682 0.08948469 0.115798615 0.017631985 -0.033811584 0.0025538022 -0.036048662 -0.24773079 -0.24101585 -0.25238463 0.08234102 -0.17569745 -0.50894326 -0.13245907 0.06720915 -0.044885043 -0.008981531 0.34749514 0.14703456 -0.044675868 0.21281521 0.17294106 0.004708839 -0.16199273 -0.13360602 0.13317838 -0.02292893 -0.1371767 -0.06529741 0.3193808 0.098642424 0.1404868 0.13212469 -0.2550293 -0.28636745 0.09325209 -0.10657801 -0.26720178 -0.63366556 -0.30679497 0.005942626 0.07323487 -0.9206935 -0.20530844 0.19170517 -0.06912703 -0.223118 -0.61262417 -0.23792455 0.068092264 0.1760329 0.06177431 0.08562158 -0.3958158 -0.35483015 0.14749812 -0.14197643 -0.19987117 0.23517957 0.37399468 -0.0059374636 0.025577106 0.28416494 0.17547348 -0.21790582 0.19032057 0.20965157 0.027356556 -0.26838616 0.28741196 -0.24121627 -0.25671324 -0.06746427 -0.17883334 -0.061724752 -0.052424252 -0.09984306 0.05108075 0.059405286 0.050562453 -0.054557245 -0.17084499 -0.13717997 -0.18062387 0.16720442 -0.085872285 -0.09442903 -0.112049304 0.03427625 0.08904474 0.121618606 0.10043712 0.010866321 0.011826881 -0.02818309 0.20584725 0.02847192 0.1068752 0.08674907 0.12136782 0.07425846 0.044695273 0.10719935 0.05003509 -0.0371064 -0.078321494 -0.09561876 0.038521722 -0.10214729 -0.07025385 -0.0632613 -0.023671463 0.032604393 0.1345444 0.27405068 0.015967777 -0.04780791 -0.1540353 -0.05292094 -0.10651343 -0.27815256 -0.22160186 -0.24565448 -0.34108007 -0.2471158 0.14943631 0.028990017 0.14544973 -0.018362116 0.16216154 0.18894157 -0.20351975 -0.34507242 -0.09966356 -0.025911735 0.084592655 -0.27108252 -0.15894544 -0.1601666 -0.026368355 0.0142550655 -0.15010029 0.029676301 0.01657234 0.15615575 0.02779191 0.09227545 0.03216918 0.08150343 0.2365216 0.103613675 0.061387658 0.1046311 0.022218607 0.17463641 -0.018511496 0.16828902 0.11973417 0.28415525 0.15473545 -0.212833 -0.00049506634 0.21404245 -0.33515486 -0.15768167 -0.5647748 -0.50658005 -0.77312046 -0.38069662 -0.087863505 -0.14515115 -0.2922116 -0.026462864 0.21106948 -0.14789045 -0.09523253 -0.01647329 0.00062982534 0.016941803 0.03934487 0.044924963 0.06941765 0.06740905 0.025320427 0.12198789 0.2711765 0.30381063 0.20097832 0.05574231 -0.035123914 -0.009418957 -0.058113262 -0.12925501 -0.4177391 -0.34639 -0.011426956 -0.013313633 -0.15310772 -0.20353265 -0.082098715 0.23796806 -0.12813088 0.09932805 -0.07577285 0.0029603804 0.19837716 0.025379734 0.026085993 -0.2906689 0.15984148 0.17096542 -0.051547457 -0.011087221 0.031917207 0.1174671 0.03968908 -0.0732481 -0.032611504 0.2339704 0.2232842 0.27418208 -0.2047369 0.022882832 -0.035535697 -0.040291797 0.15397672 0.11014845 -0.071652174 -0.12242159 -0.07689705 0.18087566 0.033787508 -0.15770344 -0.16040654 0.020085536 -0.057388443 -0.02741937 -0.22539808 -0.006128216 -0.040601343 0.19778316 -0.12384615 -0.020541085 0.03772031 0.19236544 0.07642456 -0.056474954 0.17260005 -0.18006264 -0.15983059 -0.055132948 -0.028813753 -0.3919357 -0.033345487 0.0945495 -0.112540804 -0.4906714 -0.050542653 0.06824238 0.3050357 -0.12488202 -0.34574133 -0.10443024 0.21640992 0.10800832 -0.072678804 0.03249118 0.096281014 0.102041714 -0.23363294 0.12207922 0.2315735 0.10058825 0.23292449 -0.49406335 0.00064506894 -0.1154232 -0.17963219 -0.1974203 -0.18111312 -0.04674834 -0.35728544 -0.42427304 -0.24570656 -0.24597289 -0.087454684 -0.40605992 -0.17273642 -0.31375802 -0.22579539 -0.12844439 -0.30099192 -0.17928262 -0.21148993 -0.025489934 0.004625906 -0.11462113 -0.17275046 -0.0024614006 0.14379548 -0.061949104 0.052103758 -0.09398347 -0.084758244 -0.2917439 -0.03859357 -0.16680823 0.10280898 0.14251962 -0.029376868 -0.058253486 -0.004422731 0.06487056 0.0799987 -0.48099336 -0.14920351 0.057560492 -0.014894873 -0.11435403 -0.28055245 0.21288545 -0.07432327 -0.06430984 -0.2233808 -0.10394177 -0.22922523 -0.07745425 0.028966524 0.1307684 0.1588097 -0.17769298 0.007687802 -0.09599887 -0.080144934 -0.05099581 -0.013595437 0.028407544 0.0022495382 -0.16136195 -0.049473826 0.01255877 -0.015302608 -0.13139026 -0.032442745 0.04327408 -0.14142789 0.015397664 0.056591477 -0.0048687053 0.107560724 -0.084927745 -0.2362646 -0.2854636 -0.2705126 0.2951239 -0.06633219 0.14637569 0.057295635 -0.39422798 0.24928741 -0.017432882 0.26287255 0.13836381 -0.1329797 0.16047357 0.14452757 0.008919317 -0.016491672 -0.07820443 0.14108469 -0.009049208 -0.0019166025 -0.17798233 0.060663287 0.24861684 0.14167894 0.11787833 0.085257314 -0.3523923 -0.32922044 -0.051775 0.11748343 -0.031392038 -0.35442278 -0.22800991 0.073346965 -0.081621535 0.012650361 -0.081073225 -0.21610405 0.21055742 -0.005571014 0.09544312 -0.057693813 0.034683008 0.08164139 -0.004843631 -0.073750444 0.22580568 0.10391963 -0.042929873 0.007525347 -0.11228267 -0.06026747 -0.49304372 0.050951794 0.088948265 -0.31905103 -0.10495401 -0.086709626 0.11826136 0.079292186 0.093390524 -0.060022287 -0.08298812 -0.039029285 -0.06944958 -0.24868357 -0.401737 0.11625292 -0.025385665 0.047422927 -0.05418398 0.19312602 0.15103085 0.15621296 0.2113487 -0.17811993 -0.3664359 -0.01062612 0.058391765 -0.31238613 -0.9623236 -1.279698 -0.861739 0.2599743 -0.15393616 -0.30221418 -0.02744971 0.009840538 0.08805817 0.064401805 0.11985555 0.32697952 0.1936751 0.05289046 0.03855983 0.09796909 0.18596534 0.06654637 0.016097529 -0.0045620743 -0.11368681 -0.04357746 0.0044326587 -0.050360594 -0.005011099 0.0021002386 -0.19036798 -0.381402 0.015337768 -0.048273534 -0.36163992 -0.08942649 0.12528472 0.009509279 -0.1574589 -0.09396817 0.13918059 0.30453163 0.033072505 0.15599844 0.07854378 -0.008011077 -0.02828377 0.015735537 -0.0038697505 -0.03695486 0.13883263 0.114546515 -0.054863613 0.25128588 0.36942267 0.38055488 0.4624457 -0.13091804 -0.09733102 -0.06919782 -0.0420293 -0.16713077 -0.046915077 0.009205101 -0.10668991 -0.10190487 -0.2373719 -0.052094836 -0.023855947 0.0013140003 -0.037725713 -0.06457005 0.07770165 -0.026732225 0.036677077 0.07491545 0.18114057 0.031451635 -0.080270395 0.11034704 -0.25746384 -0.2489018 0.22815743 0.32668483 0.04580517 0.13487877 -0.21161169 -0.2004088 -0.21237336 -0.11549455 -0.06822311 -0.25838783 -0.29533714 -0.04466863 0.15249479 0.10734131 0.2391022 -0.14567345 -0.11345358 -0.13181607 -0.5296999 -0.118556775 -0.08295776 0.36050183 0.049350966 -0.4596837 -0.2861034 -0.25176585 0.2469755 -0.15103479 -0.24811783 0.03772156 0.032337613 -0.22844855 -0.16053145 0.1575368 0.20873918 0.31230772 0.070294335 -0.0087356325 -0.09944096 -0.3433993 -0.37550947 -0.014268177 0.0992764 0.11826926 -0.19117866 0.30458325 -0.08720572 -0.20559771 -0.028810924 -0.107074045 -0.105620585 0.07260842 0.101951525 0.46979198 -0.09268862 -0.20062567 0.15386882 0.34376583 -0.008492572 0.00019805145 0.102805406 0.030359386 -0.02861002 -0.26022762 0.3442506 -0.10014238 -0.81965 -0.2212777 -0.12681557 0.03340806 -0.18645689 0.00366154 -0.07756288 -0.019949177 -0.7652724 -0.2046102 -0.23827189 0.20791008 0.5050356 0.09723012 0.13833348 -0.18540163 -0.5100768 0.28097388 0.3603449 0.025873119 -0.09492926 -0.21822362 -0.20888038 -0.35867673 0.5557011 -0.3542487 -0.0939777 0.1975043 0.36436388 0.32345605 -0.3477506 0.12479658 -0.2436324 -0.13968539 0.0016659461 -0.23374312 0.013581941 -0.07130357 0.18830869 0.09213232 -0.21336982 -0.059769455 0.011932524 0.019255158 0.11670718 -0.26105642 -0.15311186 -0.07135149 0.1911817 -0.13892063 -0.10556992 -0.270773 -0.1047349 0.013938862 0.018995862 -0.16225615 0.09480288 0.30523318 -0.018418977 0.09733033 0.31924114 0.0041366066 -0.14748728 0.13530417 -0.0229844 0.18846597 0.56684226 -0.24288493 0.02775163 -0.0102717215 -0.08229036 -0.8143885 0.46448547 0.10445323 0.13515534 -0.45483857 -0.46251455 0.14584984 -0.048156198 -0.06487082 0.61844003 -0.027212387 -0.43616182 0.096888535 0.34086436 -0.0151146855 0.2802153 0.35402942 -0.48986417 -0.6650325 0.02656544 -0.045167107 0.096392184 0.046824634 0.028574059 -0.044734202 -0.13438651 0.07772402 0.038004726 0.009844056 0.015993608 -0.15031128 -0.04311869 0.053544745 -0.4124627 -0.13529061 -0.021955978 0.2426409 0.3747708 -0.10895426 0.09221247 -0.4549194 -0.10695269 0.20406014 0.11909205 -0.009552763 -0.04703887 -0.10170849 -0.11171106 -0.6329457 0.17728543 0.07769539 -0.04076747 -0.017399054 -0.3390146 -0.054494638 0.05142797 -0.14529905 0.19848712 0.032756083 0.055277053 0.20179865 -0.12741917 0.093345955 -0.131542 0.0790716 -0.040942546 -0.14161536 -0.09276986 0.00186381 -0.1376546 0.08588485 -0.2207354 0.16740313 -0.036723077 -0.07730444 0.023363238 0.19796525 0.108012624 -0.19311294 -0.09661659 0.06505467 -0.009634366 -0.1996435 0.030272886 0.00530761 0.16138881 -0.11388723 -0.6473301 0.09233548 -0.25408736 0.034311913 0.42284954 -0.5249636 0.04577048 0.008131111 -0.07136953 -0.1912124 0.39146262 0.22275601 0.08214368 -0.39670977 -0.47638714 0.08931787 -0.014109069 -0.35756645 0.46303013 -0.029879013 -0.31478557 -0.12531398 0.26029763 0.05914821 0.19721572 0.35417336 -0.27508014 -0.28593493 0.055221055 -0.1062862 -0.16214019 -0.056306396 0.1061922 0.37183505 0.12804037 -0.2484057 0.02507548 -0.2635835 -0.033819262 0.096084796 0.08387984 -0.3165908 0.014952584 0.14361161 0.16118258 -0.10474614 -0.07863338 -0.30017474 -0.039163437 0.24124841 -0.0762835 -0.15309484 -0.37220904 0.18822487 0.39941004 -0.4185344 -0.33098605 -0.12272574 -0.21123822 -0.1499934 -0.018520946 0.13526075 0.16710593 -0.050374974 0.011061359 0.064807035 0.18357871 0.1507236 0.17301497 -0.2733102 -0.29872787 -0.18487142 -0.14693466 -0.16747332 0.055430427 0.14271306 0.03972538 0.15031555 -0.09024481 -0.038630016 -0.055894382 -0.5364208 -0.09238226 0.028139802 -0.21461332 0.17776836 0.13101187 0.07591585 0.30993178 0.33757642 -0.24404688 0.038635243 0.02179464 -0.029055275 -0.058442675 -0.21594027 0.30713248 -0.0005724842 -0.06369732 -0.15070608 0.041247338 0.27603564 0.04904529 -0.012703534 -0.1903495 -0.14412215 -0.3807543 0.0354309 0.008163046 -0.011986518 0.19420198 0.20264184 0.202283 0.34775752 -0.31351992 0.18685357 -0.051305294 0.11035866 -0.3049463 -0.13745074 -0.24203223 -0.43629304 0.14302336 -0.122093245 -0.07866563 0.12288984 0.17085423 0.1534563 -0.28713265 0.06464899 -0.072666705 -0.10246412 0.010932946 -0.07562221 0.08329452 -0.036381584 0.0498047 0.045399006 -0.11132621 -0.13148403 0.068911955 0.10209651 0.11686797 -0.03175578 -0.046650477 -0.5269571 0.094475456 -0.0040199123 0.0013664187 -0.23722139 -0.13687389 0.061356753 0.0022546507 -0.11351172 0.09471991 0.2855883 0.044866 -0.046387684 0.11124729 0.29079014 -0.022049436 -0.067974254 0.01743372 0.028397119 0.33649382 -0.24404715 0.0036818676 0.05065218 -0.106051095 -0.15606067 0.16962749 0.12659447 -0.1250382 0.13907968 -0.31297976 -0.0026099079 0.15508649 -0.16186692 0.13416612 0.18862829 -0.2486171 0.0324037 -0.028074702 0.024993159 0.1323121 0.18192756 -0.34343818 -0.3617389 0.16444738 0.01185685 -0.09799326 -0.038174547 0.20055926 0.039506204 0.15017904 0.10922677 0.06670029 0.16544195 0.1307707 -0.090027936 0.004155006 0.010678902 -0.42109877 -0.07762608 -0.034174662 0.13324602 0.11611686 0.053576246 0.03883695 0.11631738 -0.24969997 0.16338043 0.13397653 0.12277793 -0.20265187 -0.1631071 -0.0748817 -0.569646 0.1265835 -0.052797053 0.1386095 0.11573754 -0.00458732 -0.23188925 -0.17952573 -0.21991879 0.16806602 0.32845828 -0.0693171 0.12099099 -0.077948295 -0.05094345 -0.11419717 0.11371128 0.0045766546 0.0808093 -0.23827516 -0.23986967 -0.055262376 -0.03623878 -0.020855835 0.26286632 0.083097465 -0.07555513 0.06333082 0.32893354 0.12804098 -0.11597578 -0.09651364 0.16813827 0.04667756 -0.11430779 0.22926171 -0.09938155 0.26497024 0.3208702 -0.5942447 0.17373174 -0.21080554 -0.13876356 0.17178991 -0.44009003 0.017525889 0.105216354 0.2153771 -0.18008962 0.20847121 0.0634454 0.07464622 0.0017138497 -0.020221146 0.04259461 -0.18031344 -0.2877184 0.3536242 -0.047863346 -0.39464784 -0.75853646 0.043441117 0.17628706 0.14057852 0.2002338 -0.12945679 0.4345967 -0.051546033 -0.09714749 -0.02191519 0.24382244 -0.7681918 0.047539294 -0.26175943 -0.14193639 0.31586036 0.07339762 0.2790927 -0.0750887 -0.24831264 0.08941824 0.3190405 0.08097528 0.039450172 -0.19423784 -0.5738791 -0.50222003 0.16351235 0.0042207716 0.18711704 0.24076974 -0.06756623 -2.4089182e-05 0.48537233 -0.22771455 -0.24501033 0.026361722 -0.29921633 -0.09563665 -0.12531877 0.09361962 0.2635612 0.008667202 0.011213164 0.0024658698 0.06063027 -0.005272711 0.046354365 -0.17702502 -0.13511214 -0.10635839 -0.07111526 0.08569343 0.024944298 0.03927263 -0.06311755 0.17961961 -0.021279478 0.104458876 -0.039377395 -0.011608146 0.20630984 0.056479998 -0.20178062 -0.10607808 -0.20870036 0.121070884 0.24883741 0.01846089 -0.19891953 0.15194984 0.03629498 -0.064415395 -0.3613137 -0.41595677 0.332227 -0.1978115 0.09167123 -0.03802814 0.10712364 0.2015454 -0.09906039 0.20450579 -0.1439187 -0.2719955 0.11634284 0.1928793 0.028588682 -0.3409674 0.06275911 0.34117743 0.22165877 0.003351652 -0.019054716 0.1268207 0.1480918 0.050082814 0.15541689 -0.021230686 -0.5421631 0.30827793 0.0912185 -0.32004413 -0.031019764 0.2483223 0.061290607 0.08823256 -0.07365387 0.008993038 0.0937721 0.07834516 0.020289594 0.063250706 0.05967159 -0.05519879 0.06338928 -0.032918453 -0.05515565 -0.10400942 0.05652765 -0.014529987 0.121270075 0.06671261 -0.058756705 -0.10273551 0.005927593 -0.12755731 0.025337718 -0.09175665 -0.18612625 0.107769325 0.06429257 0.05112864 0.07791143 0.14992003 0.051834833 -0.21842454 0.017736245 -0.22286995 0.4369291 -0.008110322 -0.001911674 -0.20303106 -0.066302806 0.2061132 0.13406771 0.05738849 -0.009602526 -0.3141033 -0.22240217 0.1499924 0.051291108 0.32331467 0.29705447 0.23123562 0.27219397 0.1417261 -0.692521 -0.033590894 -0.18273477 -0.15469663 -0.9171381 0.05250496 0.117586315 -0.28984585 -0.31918094 -0.21466058 0.035807006 0.043852802 -0.19080782 -0.5073085 0.4201682 -0.2539346 0.20185919 0.19688295 -0.038922183 0.18608558 0.22243533 -0.09254048 -0.6381846 0.1667989 -0.5395345 0.032381695 -0.41427356 -0.5774717 0.3512588 0.1895961 0.29172963 0.18998615 -0.5695641 0.15145427 0.29656014 0.34113035 0.083729826 -0.42594168 -0.43262437 -0.15957226 0.2512246 -0.44206735 0.2517205 0.11906994 -0.19673733 -0.300105 -0.1691816 0.055344965 0.04864164 0.2681912 0.1810974 -0.027849788 -0.19699547 0.074915044 -0.14702836 -0.015663426 0.17307435 -0.05428777 -0.016575104 -0.33062583 -0.15197603 -0.16939418 -0.20042041 -0.07109539 0.08228457 -0.13254157 0.0057932613 0.11850627 0.32032105 -0.059152722 -0.14912805 0.35170832 -0.03483401 -0.017205384 0.080739796 -0.0040502837 0.46490106 0.3907534 -0.13395245 0.018222285 -0.027000137 -0.21437328 -0.11563773 -0.16991788 -0.06490962 0.05350386 0.110739 -0.101622924 0.0374059 -0.034477644 0.23655947 0.12870392 0.063247934 0.059953954 -0.02673421 -0.5540376 0.11206677 -0.039440632 -0.3691565 -1.2573525 -0.06895248 0.14318657 0.19656485 0.029053055 0.050656796 0.35930753 -0.0759051 -0.00976937 0.14807935 0.52331406 -1.2306075 0.20871386 -0.2637146 0.028445113 0.4439633 0.15164763 0.2900841 -0.36899158 -0.7027794 0.09101432 0.1835313 0.0054599615 -0.061702088 -0.15893331 -0.31882644 -0.46590438 -0.03629988 0.12200011 0.102626845 0.42338243 0.019318031 -0.15758613 0.20275518 -0.36323512 -0.07164053 0.06518184 0.1464541 0.20951883 -0.13646021 -0.29699224 0.2289247 0.2901874 -0.047721695 -0.092954636 0.052096646 -0.02887546 0.03880136 0.19596884 -0.119920574 -0.079724535 -0.02652336 -0.0055737435 -0.05805625 -0.08170352 -0.151555 0.018337106 -0.050957702 -0.023878787 0.027860144 -0.13754688 0.18870635 0.07756199 0.12810324 -0.0857798 -0.19330949 0.12034245 0.10874572 -0.0040514003 0.048351157 0.20706494 0.07255913 -0.06788017 -0.15069726 -0.13598698 -0.08404139 0.10022849 -0.09883667 0.118826695 -0.038118098 0.0597113 -0.013125752 -0.027916824 -0.13430758 0.113034 0.12356782 -0.011996742 0.17867516 -0.8392033 -0.05884678 -0.011675354 0.05148619 0.02294883 0.03920731 0.044230603 0.0017242501 0.22793616 0.4404485 -0.081246525 -0.4873322 0.17789109 0.116088666 -0.1333967 -0.046039842 0.13553423 -0.13034078 -0.16217841 0.18345842 0.25228935 0.23554307 0.11920534 -0.055479925 -0.14966162 -0.20075282 -0.13244659 0.076173455 -0.23646796 -0.22797559 -0.095860496 0.16446106 0.12220796 0.19922152 0.1931873 -0.19450977 -0.19548869 -0.5049848 -0.36599055 -0.18478227 0.28646722 -0.0603098 -0.011868381 -0.0035793504 -0.04193789 -0.006712922 0.021854343 -0.18995096 -0.2982554 -0.10234105 -0.53581524 0.4066473 -0.10163743 0.03861169 -0.4368453 -0.29144308 0.007425143 -0.2177322 0.22114836 0.20549205 -0.33083695 -0.45675367 -0.09422688 0.36905897 0.27560323 0.47300434 0.26536566 0.39872283 0.050928168 -0.89415246 -0.16032429 -0.081327565 -0.30246162 -0.7048809 0.3055141 0.32421672 -0.3217699 -0.05367217 -0.37305796 -0.14679286 0.0033877431 -0.38406813 -0.9100718 0.114308454 0.11599651 -0.07086511 0.19678481 -0.23075584 0.054216366 -0.2984854 0.11560615 -0.45754147 0.21524927 0.16284366 0.15363818 -0.4251444 -0.57870823 -0.14655635 -0.0039464324 0.116550915 0.19298945 0.07395201 0.13107102 0.15021768 0.33572713 0.5114778 -0.50930655 -0.72951686 0.20334081 0.26016054 -0.56459403 0.18476483 0.11669895 -0.09965891 0.043324325 -0.34025133 0.17051546 0.033051223 0.103482194 0.06660203 -0.06262437 0.030883702 -0.110849895 0.007616845 -0.23075397 0.08955738 0.081876956 0.16151844 -0.3636869 -0.07535841 -0.11293171 -0.19363318 0.11310018 0.17727312 -0.13784121 -0.30993682 0.119653255 0.38658884 0.046021223 -0.21126483 0.22668809 0.07183633 0.0018100011 -0.11897782 -0.06426473 0.22441329 -0.12673362 0.22195633 0.13030103 0.17009893 -0.58355385 -0.24086584 -0.03736157 0.20220241 -0.027785154 0.100150935 -0.079491585 -0.2531025 -0.16661939 0.33757606 0.18388106 0.17385685 0.024239292 -0.06566348 -0.26517448 -0.80875325 -0.07106753 -0.30490437 -0.6741473 -0.46387935 -0.12794395 0.27133855 -0.8645529 -0.039188992 -0.11468799 -0.15988909 -0.25121778 0.057367492 0.052482758 -0.025325878 0.107805446 -0.26294687 0.052267365 -0.10573498 0.0056490935 -0.33125073 0.10256131 0.28504568 0.02891668 -0.4834873 -0.2644888 0.023764124 0.10618473 0.4609643 -0.080169104 -0.09109225 -0.72739357 -0.09929729 -0.34384617 -0.048645616 -0.10846066 -0.070896916 -0.084674574 -0.034983747 -0.3718601 0.24535869 0.11425955 -0.11859462 -0.04635141 0.080689885 -0.061970204 -0.13098305 0.09419454 0.11593324 0.079408966 -0.13499056 -0.28411204 0.22388701 -0.2333584 -0.5982448 -0.16576526 0.27341127 0.15684338 0.09845415 -0.16837646 -0.6248817 -0.16113396 0.2669123 -0.036345176 -0.06290747 0.25630105 -0.32673618 0.0674122 0.20264335 -0.2056424 -0.033788383 0.11660475 -0.41091126 -0.42123282 -0.13620791 -0.05152649 -0.0849039 0.055650096 0.03455739 -0.23816781 0.015423678 0.09607934 0.20547423 0.08096006 -0.2739484 -0.12963702 -0.20655324 0.23371291 -0.9538559 -0.32176638 -0.687978 0.20178875 0.058459386 0.20204927 -0.093844675 -0.34266183 -0.1987119 0.09752557 0.50690645 0.26359773 -0.14780146 0.14566574 -0.061261572 -0.65560013 0.22226085 0.14644727 0.28750485 0.13534346 -0.044465836 0.05411352 -0.11895686 -0.49329844 0.11311282 0.0660319 0.060309764 -0.02726766 0.11949195 0.0603886 -0.013844242 0.17105345 0.06423476 -0.14872812 -0.1363928 -0.08838137 -0.13290218 0.004743732 0.25035155 -0.27575245 0.047407813 0.20670842 0.18136959 -0.038938813 0.13040473 -0.012646082 -0.0037738783 -0.027265474 0.016464792 0.03363384 0.12398061 -0.26641408 0.23139416 -0.15863375 0.1894313 0.36339277 0.017956287 0.12875012 0.034774095 -0.68855083 0.169927 0.020653822 -0.092148624 -0.2967864 0.19163132 0.4153194 0.12564492 -0.0331716 -0.26517412 -0.17669529 -0.19394153 -0.05372917 0.12994356 -0.104855485 -0.9084521 0.2608741 0.07299766 -0.0427876 0.19294441 0.15974918 -0.5397945 -0.23362884 -0.09787645 0.13685057 0.036876302 0.010872884 -0.055146296 -0.33251765 0.0040392834 0.08715355 0.11975579 -0.0071914024 0.03620126 -0.012267486 -0.08651896 0.16545412 -0.2252739 -0.04950799 -0.027028725 0.1558791 0.0055014547 0.037043676 0.19333309 -0.19939415 -0.16531858 0.24630582 0.17725983 0.098192126 -0.11463486 0.034559622 0.034935802 -0.23446067 0.15070641 0.012005452 0.04547328 -0.07457644 -0.21756266 -0.0008997153 0.01302728 0.21085441 -0.0885644 0.058797564 0.24704067 0.06367747 -0.044703767 -0.011485272 -0.023457792 -0.073819235 -0.048818972 -0.0044559077 0.06346555 -0.029934732 -0.023674546 -0.22774704 0.018572798 -0.007402109 -0.14421636 -0.14128552 0.008057821 0.16215624 0.21272674 -0.3918108 -0.1871794 -0.30226794 0.17656384 -0.061575 -0.04465312 -0.009263443 0.35241416 0.1993124 -0.14026988 0.4700186 0.0867591 0.029505722 0.056862764 -0.25645912 -0.06239687 -0.016791852 -0.030739307 -0.4665271 0.043312088 0.15713118 0.1115885 -0.12888725 -0.35656023 -0.32171577 -0.28544506 0.019971205 0.16687113 -0.09138334 -0.7070697 0.07343898 0.15148099 0.1117215 0.13374545 0.25626355 -0.3609772 0.2766524 0.037561465 -0.05531072 -0.0044837487 0.0068039526 0.09426526 0.14752677 0.02469786 -0.29600647 -0.20952787 -0.16361797 -0.38349754 0.1495463 0.2013003 0.02665294 -0.025536483 -0.03857349 0.08989116 -0.047288615 0.078150496 0.015432248 -0.2930475 0.14696996 0.066303425 -0.3455158 -0.15136607 -0.028305195 -0.043921616 -0.016735926 -0.15042807 -0.004901366 0.079190984 0.17919153 0.022646654 0.08370531 0.15580292 0.13680342 -0.09013313 0.40708172 -0.085249424 0.08007366 -0.38574487 -0.2021958 0.19613284 -0.24376568 0.044116016 -0.13907413 0.06888595 0.32260016 0.15580414 -0.023951532 0.11572733 -0.288667 -0.019265298 -0.05193765 -0.10783424 0.009847063 -0.21918449 0.10529536 0.03105519 -0.22055782 -0.121543005 -0.05675281 -0.11553273 0.2018024 -0.13313052 -0.047190927 -0.10017192 -0.08755628 0.061247293 -0.3112824 0.27028117 -0.08168988 0.06737915 0.012688211 -0.08130293 0.033596676 -0.14459178 -0.027802883 -0.14877707 -0.12311904 0.09630699 0.19483513 -0.07683053 0.18807168 0.0020238778 -0.12054327 -0.2679708 0.16357747 0.07721688 0.017197497 -0.022460695 0.059094213 0.15947297 0.16513516 -0.13287328 0.019950911 -0.09446114 0.047823012 -0.16029155 -0.08623736 -0.012929946 -0.2108609 0.1312434 -0.05775323 -0.022247327 0.013467233 0.012580215 0.15538427 -0.0036731604 0.007821191 0.109192386 -0.1848299 0.04381407 -0.2139108 -0.05833323 0.08116675 -0.08655284 -0.09605253 0.10986152 0.0011569333 0.0688438 -0.08430776 0.097998545 0.11325338 0.007890373 0.2829987 -0.101084866 -0.082960494 -0.085273504 -0.07098826 0.05025274 -0.080947354 -0.07298259 -0.069430746 0.076449856 0.1491003 -0.028967386 -0.03833952 0.1389814 0.08706016 -0.06096735 -0.10356511 0.08952793 0.11008577 -0.06031598 0.03894652 -0.30550957 0.07642999 -0.15734434 -0.012580271 0.054217782 0.04516733 -0.19298966 0.18061227 -0.05883294 0.07678035 0.24407804 0.14658472 -0.92785263 -0.17704687 0.084521174 -0.045716923 -0.10268948 -0.21335174 0.2812625 -0.007034937 0.13415822 -0.01509542 0.22289293 0.11427262 0.05298469 0.05005575 -0.036573708 -0.2459476 0.042643994 0.14220694 -0.014423041 -0.30252588 -0.106413394 0.33320412 -0.10652765 -0.03984266 0.016549472 0.10750878 -0.026648223 0.037413757 -0.13250072 0.09532678 0.22484027 0.07124476 -0.09437352 -0.2052425 -0.039098732 0.10487589 -0.11751806 -0.0046601035 -0.063336186 -0.119396776 -0.037305467 0.1910125 0.069929965 -0.23156096 0.18720405 -0.05308229 -0.4643952 0.27782664 0.11125692 0.049653124 -0.34232083 -0.14717527 -0.13981363 -0.05358034 0.35342893 -0.27515593 -0.28575078 0.22942704 0.3822321 0.24487211 0.3002823 -0.11485258 -0.1891605 -0.24201955 0.1812027 -0.20810439 -0.0032689276 -0.21008456 0.2636356 0.18863241 -0.13656485 0.18687342 0.06928387 0.043825336 0.05790634 -0.3019145 -0.026549386 0.031050539 -0.007466312 -0.07114807 0.16848247 0.025500432 0.07111228 0.16334541 -0.19936556 -0.051289525 -0.07261983 -0.18978053 0.29506308 -0.08467902 -0.20633258 -0.00017080102 -0.29154527 0.08048779 0.22239621 0.12388716 -0.14134529 0.3575876 0.044627685 -0.14639618 0.15418956 0.06429054 -0.49300247 0.10342489 0.054577753 0.17839248 0.1644061 0.09757036 0.08558541 -0.014272662 -0.1025306 0.25272352 -0.01717122 0.189723 -0.23333739 0.08971502 -0.396833 -0.14626703 0.05962221 -0.22328842 -0.03460039 0.018127535 0.069850795 0.061315686 -0.28200606 0.041844673 0.26186022 -0.010824545 -0.30338556 0.114354365 0.095655605 -0.23586771 0.15845737 -0.13484778 0.14062704 0.17305714 -0.23431233 0.037241243 -1.0673043 -0.13038318 0.24642354 -0.08849573 -0.012909334 -0.10872353 0.03189308 -0.02386802 0.27707425 0.16490938 0.2556846 0.00946904 0.21457812 0.1539561 -0.28039244 -0.01584942 -0.05292028 0.13024008 -0.015838351 -0.18757813 -0.09654277 -0.20454498 -0.0032854676 -0.23705266 -0.13101023 -0.07218092 0.10135072 -0.006618683 0.07832435 0.087721586 0.081443354 0.08436795 -0.04992296 0.106928974 0.053450257 0.03155842 0.05398247 -0.1448423 0.17336373 0.10805937 0.024316149 -0.56749403 0.0029001103 0.04143439 -0.18275116 0.01616194 0.42538646 -0.10793573 -0.11158847 -0.017312974 -0.014211502 0.16395131 0.05193289 0.18030958 -0.030816244 -0.022604572 -0.010274921 0.10887915 0.11802635 0.114000514 0.15304136 0.04205439 -0.34005913 -0.094359376 -0.46335176 0.043983925 -0.17211074 0.050302055 0.20134729 0.02794827 0.13369574 -0.20992905 0.2018659 -0.42700133 0.24468413 0.09772797 0.096463256 -0.13110077 0.18192749 -0.04803772 0.09425516 -0.26362953 0.06703251 0.09014601 -0.14784017 0.116002135 0.2957284 0.02172887 -0.06876347 0.34168762 -0.3007684 0.05212103 -0.019205693 -0.16881754 0.14179935 0.03277671 -0.07012255 0.11986107 0.017526519 0.118918955 -0.060146175 -0.08592425 0.07191704 -0.20505543 0.041019343 0.066800706 0.036491163 0.10283628 -0.54380167 0.14732385 0.010716229 -0.11906662 -0.07194997 0.028814578 0.0078072464 0.118298754 0.15475701 0.12862325 -0.2727859 -0.033392552 0.018938886 -0.06773952 0.02413012 -0.06730524 0.054558028 0.08926324 0.08593696 0.05480399 0.011684736 -0.042027254 -0.091226935 -0.15588844 -0.44674167 0.06322305 0.04989629 0.28768685 -0.070550665 -0.0755813 -0.048392557 -0.076626465 0.23323266 0.051842596 0.037321776 0.17704551 0.23302124 0.20732692 0.13374256 0.018683491 -0.078984536 -0.1644927 0.12578085 -0.07857782 0.09855466 0.05748923 0.2133855 0.0024045936 -0.1662643 -0.2117814 -0.18756725 -0.02992573 -0.048394587 -0.03146681 0.23670886 -0.09139326 0.19853954 0.07513949 0.16138135 0.12237995 0.11598048 -0.31081626 -0.06307366 -0.1839574 -0.06502051 0.06519943 0.3173715 0.20011261 -0.07443259 -0.0073185232 0.20022063 0.10620649 -0.029893707 0.22108755 -0.022729782 0.061014537 0.047155105 -0.12589483 0.2753769 0.054228056 0.06295036 0.048652377 0.31517395 0.008769987 0.075813666 -0.005122019 -0.00010902046 -0.08376948 0.012864055 -0.13542604 -0.10339643 0.046257928 0.071917 0.2222641 -0.017308062 0.1270502 -0.12623532 -0.6538523 -0.22150795 -0.013332269 -0.15119378 0.013159554 -0.5919148 0.12002847 0.18763603 -0.0668897 -0.12112176 0.19284424 0.046508823 -0.43357888 0.003111147 0.42237714 -0.6203391 -0.026947398 0.0033247056 0.05669371 0.10088532 0.275236 0.06748851 -0.38571802 -0.3529369 0.19660477 -0.12321769 -0.2049348 -0.5654349 0.15896456 -0.21602143 -0.012950531 -0.21829061 -0.25403813 -0.14663978 0.31864965 0.5277689 -0.046128217 -0.21898013 -0.13836321 0.21952604 -0.20452437 0.13376905 0.5136584 0.15051869 -0.6095149 0.112118766 -0.68706185 0.2470645 -0.17490502 -0.06959217 -0.10655038 -0.5100134 0.2087758 -0.6736276 0.03845781 0.0020317936 -0.34701198 -0.0036090168 -0.10898193 0.24984378 0.020777699 0.13942838 0.36715722 0.34842977 -0.06431039 -0.12407872 0.12699476 0.013344025 0.046645854 -0.124623485 0.16228323 0.2470806 0.15704104 -0.03478463 -0.38755584 -0.049870115 0.28834867 0.0565436 0.21728702 -0.98370093 0.13188343 0.03740136 0.14523473 0.09661567 -0.09886718 0.066612825 -0.03361577 -0.0063232053 0.032574717 0.103844285 0.07228011 0.05767545 -0.22236155 -0.12792525 -0.52805173 -0.037133925 0.06695293 0.30217254 -0.07304365 0.0257989 0.12281494 0.19562846 -0.041424982 -0.09221521 0.10794756 0.045001626 0.07976304 0.009823684 -0.18301138 0.16142172 0.04056718 -0.021703323 0.2551869 -0.65237665 -0.013939296 -0.5488485 0.14156634 -0.1345905 -0.18328346 0.05043226 -0.0064013717 0.0967101 -0.26237133 0.08381219 -0.5819608 0.25730535 -0.051601656 -0.038052578 -0.6772705 -0.10455099 -0.06905255 0.030249104 -0.07977153 0.01575655 -0.06862157 -0.38406268 0.06233361 0.46013656 0.19211705 -0.04829198 0.24224193 -0.08320767 -0.07099046 0.35065183 0.25475872 0.2851276 -0.05191029 -0.17735271 -0.25154918 -0.122080095 -0.022271857 0.4515329 -0.22675225 -0.12141703 -0.05639406 0.61644346 0.06346638 0.29411998 0.005000274 -0.4389105 0.08237994 -0.032251548 -0.41988412 -0.49950743 -0.20313624 0.09641948 0.20765632 0.088943 -0.06477078 -0.027787805 0.1028786 -0.25211552 0.13390209 -0.23453538 0.004252208 0.019975606 0.1200242 0.3276799 -0.14578992 0.00061720656 0.13745506 0.3677998 0.030891655 -0.2673712 -0.025118122 0.076148316 0.33102787 -0.4491808 -0.12020283 -0.32102913 -0.35161328 -0.07741915 0.0012220262 0.1668775 0.18751682 -0.08202224 0.10717299 -0.16701983 -0.3223245 -0.1463989 -0.29842213 -0.13593353 -0.07078803 0.1694006 0.12509568 0.30543205 0.4183231 -0.3312327 -0.022203345 -0.16313024 -0.070555985 -0.07836704 -0.16385031 -0.030223068 0.09783591 0.01294353 0.045241352 -0.012204075 -0.079111814 0.09990806 0.077261455 0.011998239 -0.21009159 0.1404814 -0.025003208 0.351986 0.11566805 0.005106955 -0.23291934 0.036087293 0.13024151 0.043782145 0.04332428 0.01793589 0.3104956 0.019452194 0.053396653 -0.14615324 -0.18668006 0.22787471 0.02273523 0.71180326 -0.19319752 0.023312753 0.040979836 0.31035873 0.039092477 0.32086942 -0.6755876 -0.38187438 -0.20125765 0.16445918 0.44952545 0.39525202 0.28536186 -0.33687723 -0.19107494 -0.6636689 -0.027330507 -0.24025963 -0.3098294 -0.4704154 0.011726556 0.21569827 -0.38765857 -0.0350037 0.17620683 -0.24649741 -0.1241232 -0.031329088 -0.03793902 0.03048828 -0.22609511 -0.2725818 -0.06954704 0.005943914 0.050075974 -0.37746152 0.012109486 -0.041179266 0.01931481 -0.45124984 -0.30214465 -0.1380265 0.09320642 0.2035324 0.043413438 0.066573955 -0.64458215 -0.14480081 0.07152395 0.21097553 -0.11200029 -0.09127248 0.06674829 -0.03726712 -0.26290342 0.30020767 0.11879899 0.022803526 -0.038917836 -0.0016263499 -0.20157717 0.17493553 -0.12179015 0.027447423 -0.049753793 -0.06547143 -0.73887277 -0.0745928 0.4413652 0.36709413 -0.0930149 0.0960419 0.12514982 0.448161 -0.0044646338 -0.009556781 0.29576412 -0.11246385 0.13071528 0.080374286 -0.43396255 -0.7659024 -0.1459154 0.081975125 0.084780894 0.25261566 0.18464912 -0.54447407 -0.28534275 -0.069232926 -0.2468579 -0.2381438 0.11888532 -0.15910523 -0.45841652 0.5584658 0.09841123 -0.013620053 0.07920208 0.06756527 -0.83056813 -0.47171393 -0.0125837345 -0.51171964 -0.9911974 -0.28794184 0.3195741 -0.07266228 -0.1769424 -0.08158909 -0.051978108 -0.61960495 0.19454417 0.1940207 0.4440295 0.04229716 -0.30893934 0.08681663 -0.41102475 0.01003791 0.27940553 0.02822241 -0.07031864 0.22784877 0.1582294 -0.2924197 0.40669054 -0.1292512 -0.09180597 -0.10554076 -0.2212388 0.20406935 -0.37767062 -0.0489339 -0.36722547 0.12925328 0.20328031 0.578827 -0.38003644 -0.02672849 -0.22311291 0.098537475 0.10969737 0.13392518 0.16822147 -0.3733335 -0.045926545 0.48740992 -0.3943516 -0.016290508 -0.112551264 -0.22737566 0.009259269 -0.32359165 0.10663177 -0.0037836032 -0.25289005 0.03380191 -0.32289588 0.11525826 0.2710989 -0.012792963 -0.6858674 -0.4629204 0.29452565 0.098054886 0.096086934 -0.04510278 0.1495791 -0.22747713 0.16167864 -0.05243837 0.002268055 0.07233844 -0.10643695 0.013414125 -0.3483497 -0.085503474 0.19192804 0.0051552323 0.10563209 0.059161916 0.012339696 -0.22958481 -0.106097035 0.1533521 -0.19363067 -0.12896383 0.12043774 -0.2432186 0.081573255 0.09243394 0.028404757 0.11352101 0.018565368 0.08537477 -0.31814608 -0.03233059 -0.39433408 -0.08670465 -0.010176973 0.19473149 -0.07159302 0.019126222 -0.14635031 -0.14558259 0.0023464432 -0.17594482 0.19221833 0.015792714 -0.0677637 0.23273183 -0.2153478 -0.21788472 -0.24334 0.12083355 0.18030307 -0.15039116 0.032454282 -0.116710514 -0.21437342 0.3035562 0.12119989 0.14307107 -0.06659163 -0.037678476 0.13996738 -0.09374996 0.10516356 0.03388456 -0.33438453 0.053652726 -0.023288032 -0.16074157 -0.16835456 0.08129814 0.24436752 -0.033108033 0.07927509 -0.04421311 -0.21288338 0.035202134 0.20655471 -0.23110062 0.065950535 -0.13248631 -0.004490408 0.04640584 -0.19229792 0.135171 0.047647867 -0.00438836 -0.13068272 -0.07681785 0.053219277 -0.19611394 0.18336698 -0.47769734 -0.682835 0.09020305 0.06556604 0.15319534 0.09351222 -0.061454568 -0.29308003 -0.017089225 -0.035761256 0.22727376 -0.24938133 0.1312796 -0.09454675 -0.11291932 -0.41848034 -0.13524461 0.086506814 0.065663874 -0.13888715 -0.0038050849 -0.1917877 0.11560663 -0.06633113 0.1106094 -0.22489731 -0.1996251 -0.108061306 0.110160835 0.034617163 0.10042964 -0.27159533 -0.08684308 -0.02982055 -0.56785804 0.10489863 0.052489318 -0.097370386 0.1742013 -0.11238985 0.10373048 -0.1145533 0.04028966 -0.046896916 -0.2840031 0.13251768 0.103173226 -0.14607008 -0.0031791765 -0.028502658 0.116437785 -0.02052407 -0.1791003 0.12706712 0.069273576 0.024450473 -0.09216979 0.063385986 -0.08872303 0.0468619 -0.06050543 -0.14163396 -0.27120584 -0.0042778105 -0.046638366 -0.34026814 0.052637663 0.14828305 0.25152054 0.1480652 0.022888599 -0.0046376293 -0.1303549 0.050645154 -0.06079109 0.18784612 -0.010373052 0.10791204 0.161542 -0.21417035 -0.18984273 -0.2233648 0.04081228 0.07412905 0.11648627 0.06908625 -0.15952663 -0.2149593 0.03484288 -0.17337497 -0.22550583 0.065985285 -0.077184945 0.07188452 0.13023475 0.0013034212 0.004051144 0.013551888 0.17085099 -0.36389914 0.06314976 -0.35552183 -0.2096216 0.11944967 0.12172106 0.057603475 0.06867805 -0.26162747 -0.50333166 0.08316558 -0.044954263 -0.04564171 -0.0083549395 -0.13589145 0.06330482 -0.38896957 -0.15120316 -0.43928796 0.028735451 0.027441889 -0.2889132 0.0880359 0.1841562 0.1280886 0.10466946 0.29869625 -0.1514149 -0.053520508 -0.11810172 0.08001153 0.0046159574 -0.24064246 -0.055953015 -0.012898755 -0.047579292 0.07585948 0.23204266 -0.5031554 0.1202365 -0.026609233 0.041972723 -0.17933367 0.06523088 0.117574506 0.04868124 -0.27407992 0.13352983 -0.024603033 -0.03022399 -0.05595613 0.12964204 0.13547446 -0.13403934 0.22248915 0.0079235565 -0.047772784 -0.18169744 -0.64228374 -0.17755221 0.0061008222 -0.16718629 -0.53331864 -0.40182185 0.4251147 0.21278256 0.20473503 0.0851454 -0.03494287 -0.15105668 0.10770422 0.028287638 -0.039781872 0.2653617 -0.1718469 0.060457665 -0.08835871 0.09770964 -0.021714183 -0.06696109 0.14565499 0.08223102 0.072146766 -0.19191585 -0.011025334 0.124257654 -0.51704615 0.032817487 -0.124855384 0.36046574 0.1509369 0.07169497 -0.0060296534 0.07209395 0.1481694 0.101177335 -0.20277761 -0.345849 -0.23773512 0.13644637 0.010871341 -0.25533542 0.15183467 -0.31076854 -0.10858219 -0.16310708 -0.0068174447 0.23684968 0.080199204 -0.35584098 0.10276948 -0.1207472 -0.037314367 -0.07226727 -0.031394027 -0.26952705 -0.06088569 -0.09486359 0.12909895 -0.0089776525 -0.064019226 -0.080490306 -0.1659982 0.0017798415 0.2849544 0.23655087 0.13140252 0.05648261 -0.28164846 -0.46241495 0.11335087 -0.049125057 0.421329 -0.63022363 0.17036298 -0.31843662 0.09937473 0.2598748 -0.1911898 -0.1725823 0.21759598 0.3718658 0.31728685 -0.29605553 -0.083224 0.08639286 -0.100006275 -0.1080727 -0.086465925 0.13691753 -0.058510665 -0.0897863 0.018792214 -0.029199114 -0.36190742 -0.30475757 0.03129412 -0.42668727 -0.24284592 -0.028933268 0.21476048 0.0013591141 0.22600372 0.11678624 -0.5342675 -0.058013503 -0.032147907 0.06715882 0.09414733 0.34132972 -0.44450307 0.08815072 -0.11670851 0.080292866 -0.048317246 0.028174859 0.2289211 0.10250133 0.07049584 -0.030427199 -0.21146241 0.10950382 -0.3689647 -0.13359857 -0.18881106 0.054485887 -0.051206015 -0.0079556955 -0.0084856115 -0.065224245 -0.28905034 -0.56841016 0.12980135 0.056701317 0.06537288 -0.005600038 -0.23543781 -0.11555086 -0.037133954 -0.021461064 -0.045314774 -0.23744757 -0.13575196 -0.012536613 -0.32119945 -0.06287013 0.092040494 0.0026187217 0.17413197 -0.08203291 0.08924799 -0.11166006 0.07233804 0.009863097 -0.36798564 0.0036001478 -0.111296974 0.16313395 -0.1923504 -0.31459698 -0.11911215 -0.21585447 -0.15418456 0.12258593 0.08750448 0.03281187 0.01537605 0.2312311 0.051278487 0.4191105 0.19019048 0.04893553 0.2076876 0.29347154 -0.3985228 -0.14751112 0.15304257 -0.0820306 -0.06878232 0.12933144 -0.08360955 -0.0075921924 0.069894664 -0.15889892 -0.41627106 -0.17272277 -0.1768931 0.03866226 0.019792767 -0.06770555 0.03582665 0.043659113 0.099752486 0.019573152 -0.10529888 0.08756255 0.06859564 -0.0022803023 0.09672403 -0.012461794 -0.0044393893 -0.073649205 -0.065012395 0.11121832 -0.4125127 -0.016359968 0.03330644 0.17669463 -0.12357602 -0.29015037 -0.0012438939 -0.0009905243 0.10544731 0.057834804 -0.14602049 -0.007017237 -0.00049366616 0.13582446 0.065833606 0.030628135 0.04764477 -0.08227067 0.040233307 -0.099004485 -0.1360696 0.13648148 0.05369257 -0.04215141 -0.001349639 -0.24705987 -0.025061239 0.008287384 -0.08829001 -0.030088885 -0.25440592 -0.052015565 0.13056765 -0.104999684 -0.695305 -0.07973073 0.11566684 0.1779501 -0.02710152 -0.087449014 0.0009998516 -0.014624722 -0.018323373 0.18260953 0.054220017 -0.03654208 0.0012493355 -0.0032287634 -0.06450488 -0.4515833 -0.046072613 -0.16191715 -0.013698752 -0.24160713 -0.2145751 -0.037722427 0.16426356 -0.004030868 0.14100647 0.006674394 0.25264642 -0.26648104 -0.1272054 -0.060325123 -0.23205529 -0.027395101 0.27314904 0.11695472 -0.29798856 -0.029068587 -0.037112318 -0.026948912 0.024223914 -0.0230667 0.14729095 -0.04822281 -0.03858785 0.0036158578 -0.117523104 0.23860519 0.12140989 -0.13809058 -0.07895632 0.1788438 0.025581574 -0.090060584 0.026199251 0.15476176 -0.31520146 -0.26372254 -0.12195958 0.026878834 0.19975755 -0.20909216 0.072979525 -0.42254123 -0.050026752 -0.15200569 0.09591076 -0.34487596 0.22946769 0.15119939 0.1873014 -0.41931292 -0.061435338 0.55549186 0.024345411 -0.30352303 0.08354914 0.13597019 -0.0953307 -0.005753631 0.0065533947 -0.08650933 -0.36111552 -0.15724528 -0.12794016 0.1513232 -0.07067413 0.31773272 -0.091080904 -0.18570916 0.3001641 0.079341814 0.18080005 -0.17349255 0.15871558 0.006431443 0.10728482 0.17653118 -0.06412676 -0.033257358 0.20301089 0.076754615 -0.10720068 -0.09171211 -0.08185781 0.101157844 -0.37346575 -0.30787495 -0.26085874 -0.23523867 -0.1708082 -0.07743003 -0.3317501 0.23578584 -0.029599572 -0.46806777 -0.0008962652 -0.29722416 0.12407005 -0.70218384 0.036959648 -0.01779526 -0.1435391 0.110126115 -0.42654577 0.23297346 0.024374675 0.13024877 0.23512441 -0.07526271 -0.5698405 0.0023860615 -0.19343257 -0.071483016 0.028102973 0.106015675 0.024403216 -0.07173667 0.17518523 0.0090036765 -0.17476998 -0.13163786 0.0043404764 -0.33921367 -0.14707117 0.03942693 -0.37589923 0.10581435 -0.043007195 -0.059894968 0.26477394 -0.25624335 0.1321247 0.12927303 -0.037630066 -0.10990906 -0.9609521 0.14531535 0.07344766 0.011191791 0.1773803 -0.25572008 0.038557936 -0.23321195 -0.0334504 0.04480898 -0.063208975 0.0054238234 -0.08048407 0.092614286 0.024863755 0.0929348 0.042164728 0.09421061 -0.42662978 -0.21635617 -0.27846223 0.056263838 0.04819045 -0.38656673 -0.17197572 -0.1832437 0.13662511 -0.046281025 -0.079216264 0.08277258 -0.38793397 0.117865905 -0.048098203 0.4363432 0.023361433 0.11381573 0.1091694 0.051402777 -0.24464929 0.093922004 0.031161273 -0.042574227 -0.1220893 0.20199342 -0.027159667 -0.11552547 0.20545143 -0.003830532 -0.13302967 -0.45436168 0.0014742262 0.106317356 0.096314296 -0.17434737 -0.17916624 0.04331876 -0.005485931 0.10052236 0.04728313 0.0483983 0.001927407 -0.09843451 0.011869196 0.0043400084 -0.006470168 -0.11427949 0.016224615 -0.1886114 -5.8333215e-05 -0.027847068 -0.69701904 -0.041849926 0.12836003 0.08457579 0.034182463 -0.1606393 0.061571985 0.08868247 -0.009689783 -0.110883534 -0.004714297 0.033664357 -0.25391027 -0.08521888 -0.0048881727 -0.23713107 -0.06794293 -0.31877515 0.051830277 -0.032084007 0.09898325 0.03980739 -0.16112383 -0.5187551 -0.042497996 -0.056843266 0.2592696 -0.4431934 -0.10730406 -0.10829337 -0.122179516 -0.29662547 -0.2798115 0.042532727 0.2939588 0.36059368 0.061215263 0.06254355 -0.4337252 -0.13536496 0.037232466 0.09809074 -0.39913046 0.05115727 0.21779393 -0.032428928 0.02908012 -0.476547 0.27740276 0.03345778 0.21533595 0.074417755 -0.017655222 0.08185394 -0.28036603 -0.36703998 0.048673604 0.042113055 0.13203318 -0.44771546 -0.28158888 -0.074037924 -0.25000325 -0.0055544106 0.02760863 -0.23957261 0.06194777 0.046367064 0.15096195 -0.033574235 -0.109846905 -0.03608378 0.14219533 0.103108086 -0.023842175 0.011403771 -0.16101356 -0.20355509 0.119603075 0.1398892 -0.03396706 0.22448093 -0.28985733 0.15449516 0.07184765 0.23882149 0.18087251 0.01574506 0.09729318 -0.11268685 0.03280736 -0.027907183 0.2042306 -0.04266858 0.024880756 -0.2131993 0.012668373 0.2564578 0.19923861 -0.3099545 0.0698456 -0.017276315 -0.054943476 0.10856058 -0.26329115 -0.01083576 0.13247907 0.21667866 0.2535679 0.120240144 -0.017378487 0.22473978 -0.18887454 -0.13601704 -0.08081959 -0.011187144 0.012417747 -0.05019389 0.003376135 -0.013634172 0.10158436 0.24073376 0.061149538 0.10810232 0.105549075 -0.17815404 0.13726453 0.13341637 -0.08762406 -0.15998432 0.13674843 -0.031189913 -0.030249627 -0.096472815 0.14249825 0.12256091 0.060700957 -0.1679082 -0.10383159 -0.034185264 0.0646583 -0.06785052 -0.31940734 0.023079019 0.311709 -0.17848948 0.104810186 -0.09416909 0.087252684 -0.46969867 -0.16570173 -0.06452662 -0.26517165 -0.029269293 0.23933041 0.24373193 0.14002325 0.07025884 0.14520289 0.19470668 -0.013582123 -0.49605706 0.11168704 0.06461622 0.13495553 0.025806183 -0.81227916 0.010764816 0.048614115 -0.07896417 -0.26977605 -0.16054626 -0.05072493 -0.18998998 0.115340404 -0.023852393 0.10576961 -0.13607974 -0.413279 0.086954564 0.091691636 0.064217135 -0.16787483 -0.046488997 -0.24021749 -0.1301079 -0.1694602 0.2457439 -0.033899505 0.08871007 0.062207755 -0.038647242 0.038310867 -0.18549232 0.16749217 0.07496233 -0.38525492 0.06591424 -0.35460168 -0.13721207 -0.24147068 0.18866669 0.15271108 -0.40274552 0.1252598 -0.3440268 -0.06273512 0.21508704 -0.44995394 -0.014181344 -0.049515583 -0.108629465 -0.33466223 -0.2617898 0.631222 0.30716324 0.09578698 0.13921763 -0.21423459 -0.013078591 0.02307247 -0.24975793 0.3528229 -0.1687755 0.09780847 0.1678738 -0.6479283 -0.073865816 0.12789485 0.141592 0.46536994 0.23142211 0.2680375 -0.5254525 -0.34923768 -0.101810664 -0.49022043 -0.23679149 -0.021633849 -0.8909371 0.3432846 0.44163686 0.16644049 0.18450992 -0.04276554 0.23340955 -1.0944096 -0.20161784 0.08831374 -0.269533 0.40015703 -0.20870619 -0.1733361 0.028641833 -0.7375635 0.091560915 0.43357003 0.010606701 -0.12870522 -0.061506134 0.013079405 0.2120525 -0.8120004 -0.38455334 -0.66585875 0.14769518 0.06115504 -0.10426984 -0.18537183 0.27834457 0.11777955 -0.011440113 0.28778997 -0.02250449 0.050995674 0.12874 -0.107854255 0.010920355 0.029129747 0.09596759 -0.13902259 0.12326471 0.105309226 0.14048661 -0.23307723 -0.06850038 -0.074242905 -0.24397306 0.012999391 0.08807838 -0.03288284 -0.5450428 -0.16295989 0.26240316 -0.1041195 -0.10708218 0.08179691 -0.1277835 0.05659948 -0.31957254 0.1550254 -0.0071124374 -0.07172585 0.11203445 -0.27470106 0.038527396 -0.083264194 -0.34197712 -0.06973251 0.04184906 -0.0061813043 -0.13066402 0.123869464 0.1384905 0.008041305 0.0027587174 0.0333383 -0.06008732 0.0822183 0.22598067 0.05617456 -0.037357036 0.15443061 0.05036411 0.06849385 0.030284103 0.06649429 0.1152416 -0.23466095 -0.13089582 -0.16656396 0.05381926 0.010623007 0.28085315 0.17692737 -0.33475626 0.15127046 0.04122581 0.29323006 0.030936595 0.09784962 0.061980233 -0.20244993 0.07114917 0.13999633 -0.21996413 0.09718902 -0.16513386 -0.20296383 0.21054147 -0.452507 -0.2255436 0.0604888 0.3177536 -0.16804047 -0.145203 -0.02396742 0.119545594 0.0023483702 -0.061351325 -0.15177587 0.09385988 0.18143845 0.21789171 0.18682232 -0.0030504093 -0.065016575 0.07053871 0.061541874 0.19093803 -0.0069743632 0.07789739 0.12279372 -0.038186155 0.19443418 0.061571483 -0.22012067 -0.0069937226 -0.12776193 0.042461112 0.23530358 -0.01566896 0.31011787 -0.16774258 -0.02863704 0.08550216 -0.20047055 -0.07108792 0.02397932 -0.043245405 -0.015858833 0.018309359 0.07056494 -0.015346466 -0.1641013 -0.03433641 -0.0130659165 -0.06668212 -0.072508104 0.04998332 -0.14076816 -0.42230433 0.072952665 -0.6832923 -0.3995945 -0.14731827 0.056188326 0.06715244 0.23228736 -0.039276183 -0.03506383 -0.3532814 -0.06483484 -0.009970489 -0.011569348 0.27584553 -0.122915976 -0.04557445 -0.027876375 0.18526524 0.0027422982 -0.11807203 0.21121213 0.114882216 0.049445186 0.03653774 -0.05956263 0.22155826 -0.24917908 -0.032872908 -0.10402477 0.016302647 0.16026415 0.018438222 0.043621846 0.06543546 0.16938503 -0.24507722 -0.16061108 -0.18027872 -0.105517544 -0.2554063 0.097604446 -0.13249834 -0.12712985 0.076071136 -0.059672475 -0.23126218 0.14325494 0.10969331 0.009906848 0.116154246 0.11077127 -0.0435384 -0.29922965 -0.191973 0.002187823 0.16494568 -0.11624592 0.061707664 0.05895215 -0.95767725 -0.12187037 0.21909854 -0.5115389 0.052961856 -0.525501 0.07504735 0.08452797 0.06523165 0.2642989 0.1944323 0.018894149 0.0054152724 -0.33485126 -0.036442313 0.12598175 -0.13787577 0.28468573 -0.12592877 -0.45278236 -0.00014830392 -0.15986016 -0.09581756 -0.42553324 -0.053810995 0.2515934 0.15735829 0.25779784 -0.2999354 -0.11469956 -0.4897797 -0.59753394 -0.022356573 -0.18602489 -0.027667118 -0.14408173 -0.0064591593 0.29065272 -0.012984501 -0.07013828 0.021085825 -0.26290625 -0.005979789 0.18357658 -0.16815434 0.24224798 -0.32403064 0.052680288 0.015741695 -0.28219706 0.12134683 0.01216775 0.040920872 -0.2954786 -0.1324638 0.29413655 -0.064201 0.19596821 0.12995055 -0.04451352 -0.023782054 -0.11919554 0.41412872 -0.062897995 -0.117014006 0.19724524 0.042007115 -0.06407971 0.05429489 -0.4318041 0.16995932 0.15504584 0.07577351 0.12550363 0.22023596 -0.204656 0.11029208 -0.0758232 0.12883195 -0.016717715 -0.16431355 0.09114291 -0.17844373 -0.18680656 0.024833955 0.014198441 -0.07956827 -0.46251687 0.0066874116 0.034578856 0.19543546 0.19710514 -0.23896648 0.033527378 -0.40343416 -0.13407561 -0.0045886016 -0.058387034 0.12594575 -0.23138309 -0.05947347 -0.243708 -0.14670032 0.065444484 0.08345431 0.061138224 -0.08263106 -0.054594558 0.03241934 -0.025922433 0.11507726 -0.08428061 -0.06260758 0.06051911 0.18569705 -0.08883556 -0.05546171 0.14557612 0.099161305 -0.10221939 -0.038044743 0.007072057 0.10111254 -0.19594888 -0.104634896 -0.19847535 -0.119769715 0.08179129 0.11161631 0.067883335 -0.17728138 -0.38592878 0.010950132 0.2559953 0.034503978 -0.12002554 -0.022272602 0.13566136 -0.00634795 0.19335192 0.022655282 0.19577305 -0.6584668 0.20988429 -0.12570424 -0.14604771 0.054194607 0.052394137 0.4186383 -0.71666217 -0.046330426 0.09051357 -0.089965954 0.31031185 0.20716925 0.10523642 -0.17174724 0.09753584 0.28094923 -0.1949421 0.021418242 -0.03992282 -0.045990814 -0.33703238 0.14878224 0.075659305 -0.08565398 0.095513225 -0.005672099 -0.032380354 0.20285423 0.019512437 -0.24283826 -0.13339713 -0.12860382 0.22911705 -0.051790897 -0.025723841 -0.14039409 0.18451478 -0.05316603 -0.03952256 0.032314073 -0.006588293 -0.36658767 0.17732096 0.35655734 -0.2380517 -0.025952976 0.26507127 0.22404626 -0.27668747 -0.010512299 -0.07259567 -0.06813036 0.0039190846 -0.5750737 0.13015178 -0.9415988 -0.3567864 -0.10985846 0.22397093 0.06393386 0.11294631 0.033766977 -0.06084921 -0.07478236 -0.16190712 0.043193974 -0.05628695 0.18552494 -0.3825027 -0.021390785 0.0019884112 0.09125072 0.085529454 0.10255251 0.09439038 0.053697024 0.17056906 -0.008851168 -0.07090519 0.122323476 -0.19677112 0.08970156 0.03593582 -0.02095015 -0.020881621 0.08065288 0.19841336 -0.15383825 -0.5751052 0.07333475 0.09431839 -0.10719612 0.21988957 0.016235039 -0.051876314 -0.18982942 -0.06257526 -0.06764539 -0.41496074 0.33664 0.3965061 0.245318 0.08357428 0.1502124 0.1872363 0.095420375 0.016218167 -0.042864975 -0.016762942 -0.12863357 -0.015870996 0.25026187 0.02581735 -0.6077046 0.06540008 0.01518067 -0.20653667 -0.40477642 -0.6314916 0.15016428 0.06692053 0.07411661 0.0902882 -0.113450706 -0.23055416 0.008223198 0.004543533 0.085155345 0.061116245 -0.10958694 0.17909604 -0.3067806 -0.23045509 -0.04489304 0.08959486 0.104760714 -0.5204297 -0.07128831 -0.08285873 0.13899443 0.023889469 -0.17010808 -0.006685414 -0.8091886 -0.037935786 -0.05438423 0.01255284 -0.05558933 -0.031701304 -0.00867105 0.21870941 0.042115845 -0.04051257 -0.10715786 0.22667544 0.006693305 0.11413807 0.05439526 -0.03386648 -0.19818023 0.038018283 -0.0512741 -0.1373682 0.067095496 0.05583457 0.031963695 -0.2853773 0.17354582 0.11016944 -0.021406345 0.10256662 0.14321749 0.22104806 0.008225489 -0.00072999694 0.18510304 -0.22266367 -0.6683951 0.095630124 0.06442715 -0.052955806 -0.27634516 -0.9526087 0.07090184 0.09944484 0.08528832 0.060157068 0.16159365 -0.6365674 0.04023991 -0.16363715 0.36072096 0.09446478 -0.064048305 0.12224699 -0.28938764 -0.46607995 0.048224833 0.0047580125 -0.008026579 -0.6880011 0.11362708 -0.09828041 0.0017753909 0.06417969 -0.06789307 0.15514019 -0.89966995 0.035004873 -0.09513296 -0.036113504 0.21648361 -0.24544805 0.101860106 -0.18420413 0.009638803 0.12988584 0.045527026 -0.015902925 -0.1581473 -0.15213478 0.09956302 0.04835951 -0.06375121 -0.028344672 -0.050346017 0.1681777 0.10225051 -0.044482633 -0.017165728 0.112646975 0.079630725 -0.14717783 -0.021967806 -0.009334745 -0.020768931 -0.033239275 -0.0670913 -0.16907264 -0.16846493 0.08619403 -0.15217707 -0.18001091 0.12445741 -0.32610583 0.38459626 0.092488624 0.1933111 0.12896742 0.25496817 0.2269918 0.17980292 0.096663296 0.044689033 -0.04303452 -0.2819315 0.1447249 -0.2227501 0.06524179 -0.3190599 0.63615 -0.09834234 -0.21986604 -0.14615692 0.13696355 -0.042434275 0.2656018 0.3588936 0.16457327 -0.24473806 0.1475482 -0.041017722 -0.6102251 -0.14895926 0.11639014 0.23975822 -0.047718946 -0.028925806 -0.49593484 -0.19237554 0.0020283845 -0.39863807 0.07021793 0.37629765 -0.12574917 0.012779346 -0.2908452 0.3537738 0.14590305 0.17699416 0.18751238 0.020453816 0.021167234 -0.13248906 -0.1937999 -0.13644749 -0.30708387 -0.029675247 -0.022490194 0.1284489 0.07934247 0.14865524 0.24237984 -0.29119527 0.23659645 -0.111065686 -0.05171225 -0.101232946 0.077219844 -0.45975658 -0.047886856 -0.18804999 -0.09057513 -0.046614245 -0.06122121 0.0863699 -0.1372673 0.12196237 0.08471571 0.106151186 0.06432254 -0.1064177 0.000110777604 0.016530205 -0.4176557 0.047506485 0.13162604 -0.07791704 0.049302336 0.2165221 -0.14617944 0.022428656 0.12496768 -0.085460246 -0.24281612 -0.16840573 0.04645234 0.18896462 -0.00066603767 -0.4696567 -0.024533771 -0.540567 -0.056355264 -0.4885418 -0.67654043 0.07404436 0.057953555 0.09642061 0.23914407 -0.04834837 -0.2517488 0.1715636 -0.18633106 -0.20646924 -0.5533399 0.5972831 -0.4311293 0.20372377 0.30040482 -0.10458476 -0.102369994 0.1516606 0.017279096 -0.14874198 -0.4395966 -0.26169145 0.0026699174 0.11573823 -0.26087338 0.012898992 -0.009287596 0.031911258 0.21778904 -0.3319566 -1.0343423 0.24753411 -0.36239466 0.52947336 -0.07354049 -0.102550834 -0.5348691 0.35986432 0.34257495 0.2555942 -0.09434139 -0.074126184 -0.1936265 -0.26115778 -0.054270927 -0.08158458 0.13356115 -0.49157745 -0.06659889 0.23845273 -1.1716956 -0.34691834 -0.45646313 -0.41755074 -0.6116259 -0.74158335 0.48814204 -0.13117114 -0.04795744 -0.08948194 -0.1365944 -0.047245573 0.039464362 0.13711627 0.11444821 -0.29161924 0.103214376 0.16284072 0.10854675 0.007250635 -0.65284306 -0.08591453 0.08551906 0.0037804847 -0.03111465 -0.030917052 -0.35543656 0.031199966 -0.025388138 0.1524353 0.014795186 0.073131174 0.08205415 0.0077260584 0.15745497 0.058750514 0.09640668 0.093573846 -0.36882833 -0.4953703 0.025429673 -0.220423 -0.2520694 -0.7408332 -0.9781116 0.25651598 -0.1650427 0.3887497 0.08294506 0.05452719 -0.48151633 -0.055144828 0.32587838 0.27819705 0.0028318595 -0.11035636 0.1265139 -0.7717736 -0.359283 -0.083712585 0.09716688 -0.21273889 -0.54221517 0.063491605 -0.79460275 -0.07000712 -0.056465983 -0.26215035 -0.09702841 -1.1085746 0.23129666 -0.16097721 0.044092216 0.1225846 -0.30386087 -0.0683405 -0.08450894 0.13036041 0.1916177 0.15894648 -0.036274184 -0.1906108 -0.1966293 0.1382245 0.247442 -0.107855216 0.035096373 -0.1492833 0.17064942 0.0968441 -0.2232971 0.09308019 0.19647491 0.08017797 -0.08856932 -0.004536182 -0.1380333 0.045849584 0.07477956 -0.12713104 -0.11132294 -0.20333919 0.15181518 -0.0886042 -0.082616895 0.011295985 0.271149 0.115407236 0.14533332 0.039930973 0.23045109 -0.5555516 0.1863384 0.09018469 0.10551488 -0.4521333 -0.12808233 0.008125892 0.078410394 0.11941052 -0.08925881 -0.113038294 0.061388172 -0.08188219 -0.8093232 -0.17198543 0.149369 0.015101535 0.057306677 -0.033186767 0.1742346 0.18818593 0.12337569 0.19823538 -0.10673127 -0.3782682 -0.1797846 0.20093434 -0.03056453 -0.07023605 -0.4667646 -0.11858086 -0.019878564 -0.29854962 0.08417869 0.17990926 -0.2324821 0.19183074 -0.46325028 0.48434916 -0.09760787 0.09963035 0.21278925 -0.2966585 0.07826998 0.11076555 -0.10750962 -0.11612743 -0.29170227 0.14235163 0.055119496 -0.12106247 0.0077508586 0.16417708 0.08309206 -0.3635256 0.17265867 0.07648624 -0.16740766 -0.35962254 0.43172705 -0.22811326 0.2304097 0.0004731507 -0.4329946 0.3067056 -0.5851235 -0.409061 -0.12484928 0.3347181 0.611678 -0.07284809 0.0023951933 -0.24623047 -0.30864605 0.51487577 0.009592634 0.110386044 0.3665011 -0.09507588 0.30736125 0.23857689 -0.8777347 -0.039258067 -0.13467771 -0.19467457 -0.7618894 -0.1007963 -0.064254604 0.036692087 0.23827077 0.18960151 0.3417685 0.20481415 0.11562038 0.04859254 0.49741048 0.027335104 -0.21927942 0.19195387 0.21773438 -0.24272105 -0.003963806 0.04206551 0.092199 0.32020742 0.081274524 0.1835501 0.45342803 -0.034112632 0.22343591 0.34398007 0.17080854 0.112573296 -0.010244142 -0.13170166 -0.18911612 0.627266 0.4715474 0.30109045 0.3143359 0.10318679 -0.32961425 0.26915458 0.40825433 0.15269464 0.123332635 0.30898494 0.2146901 0.13361908 0.5467982 0.22845533 -0.41562343 -0.65509874 -0.123022474 0.010895396 0.037736963 0.23086926 -0.1484393 0.19816414 0.18084428 0.36665857 -0.24864237 -0.09213625 0.3359262 0.2687089 0.23035651 0.28320065 -0.27507156 -0.6546119 -0.09288876 0.23353294 0.3602883 0.29724416 0.52030045 -0.055433847 0.24566913 0.17716011 0.14064048 0.40417382 -0.41491348 -0.20946783 -0.027660845 0.19390112 0.19580355 0.743253 0.030137302 -0.15518433 0.38959497 0.49684808 -0.031553876 -0.13845691 0.5934444 0.18633902 0.12219948 0.21255691 -0.11288416 0.14215715 0.14958586 0.64477366 0.099740036 -0.13732386 -0.07085901 -0.41514295 -0.20035769 -0.04821879 0.4394033 0.09456787 0.38054842 0.1574835 0.4758127 0.13282853 -0.3469951 0.29251367 -0.4826459 0.07992386 -0.2878753 0.18736447 -0.17608194 0.61509943 -0.10054282 -0.02874415 -0.21809779 0.19828813 0.61789834 -0.016486878 0.18858542 -0.461682 0.159396 0.7231229 -0.15537073 0.21620189 0.33125317 0.16534644 -0.25827587 0.11559483 -0.047898475 0.115059376 -0.13502581 0.20190594 -0.22086804 0.6839767 -0.3772587 -0.14700565 -0.49389684 0.04830356 -0.16695067 0.65141124 -0.2685303 -0.20127708 0.049114864 0.4237019 0.33963567 0.2590593 0.6413429 -0.524689 -0.27907506 0.41137743 -0.29269513 0.065396115 -0.25814742 -0.15955855 -0.12062916 -0.15152457 0.27565435 0.46293336 0.0020262077 0.4975867 0.21424831 0.2388819 -0.23357782 -0.33659533 -0.09768422 0.42597184 0.6620908 -0.38913453 -0.37398273 0.010990766 0.24691285 0.14854813 0.00930946 0.0058462466 0.17962591 0.46325603 0.24631503 -0.41626778 -0.2876714 -0.18170954 0.20056616 0.05794315 0.4257523 0.30137965 0.28904298 0.3341611 -0.47219265 -0.06673271 0.029550942 0.38622338 0.21409658 -0.2420357 0.22053336 0.20794837 0.034921765 0.04792122 0.4200518 -0.0029254993 0.24406977 0.5273918 0.5295541 0.017816214 -0.34438658 -0.025866264 -0.11771529 0.14763384 -0.010737489 -0.116609514 0.6052428 -0.4037517 -0.07593753 0.20188975 0.48133805 -0.024597542 0.011222536 -0.27840668 0.35618964 0.548033 0.50550663 -0.18516137 0.3960686 -0.10864425 -0.22167937 0.0123122 -0.009230431 0.0345375 -0.38935882 -0.3546455 0.1546597 0.105506465 0.20851047 0.12148874 0.10214785 -0.24363147 0.17765966 0.88379234 -0.029323103 -0.023228256 0.43207783 -0.013537528 -0.25781476 -0.027678262 -0.60391766 -0.09431592 -0.031391293 0.010855207 0.13736905 -0.2003005 -0.41111523 0.19714683 0.51339346 0.5789949 0.16838577 0.20848909 -0.09746332 0.051136862 -0.5113431 0.578453 0.17469546 0.025317669 -0.11687785 0.021784112 0.12465343 0.5731692 -0.12124214 -0.11302623 0.25337234 0.18592545 -0.0047282525 0.025487944 -0.008209527 -0.07919165 0.4817339 -0.27361727 0.27698886 0.71705043 0.25756 -0.020364193 0.26695132 0.059341803 -0.38133004 -0.092982434 0.1867722 -0.111392766 -0.47795096 -0.13296238 -0.012971013 0.39297676 0.30670637 0.38177627 0.37592334 0.32324323 0.43368304 -0.0637404 0.13065162 0.23927921 0.13729905 0.020388456 0.18519756 -0.38358036 0.10878049 0.36153036 -0.29840586 -0.11559068 0.22450556 -0.10312338 0.4015894 0.24293254 -0.30276513 0.06935425 -0.20204309 0.4264586 -0.16486198 -0.19838585 0.05314513 0.15443069 0.043379 0.23633744 0.014833371 0.27034566 0.7136413 -0.055302765 0.08844563 0.2602038 0.011226031 -0.18607847 0.29992294 0.099226184 -0.026782092 0.18423206 0.79996943 0.068271935 0.33758944 0.05453141 -0.16937527 -0.5665862 0.34327978 0.48896274 -0.24765831 -0.5148887 0.39829773 0.54668087 0.26562777 0.08943428 -0.39632335 0.05743791 -0.47478896 -0.39089176 -0.13504282 0.60264874 -0.041226417 0.15403797 -0.40385458 0.06781781 -0.37065193 -0.1556647 0.41544476 0.6727943 -0.044254135 0.27766073 0.23415165 0.4823218 0.33974808 0.2887515 -0.074495584 -0.0011386517 0.12428945 -0.117919736 0.08234613 -0.13507794 0.3966566 0.24739778 -0.33989146 0.2842354 0.20877536 -0.055529296 0.4115984 0.01160909 0.6824814 0.0044666566 0.35043952 0.06421131 -0.027369125 -0.14145766 0.14897528 -0.26678103 0.73000944 0.482429 -0.16174933 0.019752035 -0.13422689 -0.083972506 0.33199054 0.26371792 0.60081065 -0.27806985 0.32437152 -0.042513203 -0.122844964 0.20554796 -0.023716243 -0.16865906 -0.3386519 0.5641326 0.49459165 0.090692535 -0.36898538 -0.54566956 -0.119944915 0.104226604 0.1917083 0.3934327 0.442525 0.48082766 -0.18966152 -0.06106679 -0.3576926 0.40750614 -0.015559322 -0.4811255 0.11683921 0.12844585 -0.01983773 0.29200175 0.3823509 0.26484814 0.21657613 0.5162057 0.7256061 0.08432006 0.09484815 -0.002003103 -0.06786492 -0.47855067 -0.032024086 0.34607375 0.47031853 -0.17661753 0.1288566 0.35892743 0.1338116 0.5268753 0.09316386 0.36391938 -0.1725938 0.12697536 0.15597983 0.09328737 0.3822676 -0.100463316 0.4134189 0.43004107 0.10031137 0.109732 0.3909136 0.10464593 -0.017807078 0.30929422 0.23884836 0.481383 -0.38811883 -0.23255295 0.11708309 -0.028622039 0.35923308 -0.25960407 -0.2337881 0.1071554 -0.20453663 -0.18045181 -0.118598 0.41768664 -0.12825398 0.3810496 0.0042555486 0.83239913 -0.09645046 -0.22686392 -1.4928824 -0.1948391 -0.13797736 0.2736864 0.40554014 0.39572904 0.16236867 0.45012596 -0.097715326 0.062659465 0.47630197 0.08191401 0.023576688 -0.5264125 0.26038113 0.39948782 -0.588003 0.09950022 0.05514873 0.11468138 0.42775688 0.0023066935 0.47727376 0.10833084 -0.08282396 0.08105369 0.322751 0.14437567 0.14417802 0.1772506 -0.48499343 -0.37953135 -0.07786573 0.32295904 0.28591534 -0.34003872 -0.4506077 0.2343768 0.58038056 0.24206506 -0.28336337 -0.43632752 0.20205297 0.6713115 -0.20183821 0.16041248 0.08263985 0.452832 -0.19084941 -0.10289482 -0.089001685 0.6121393 0.10787281 -0.2718674 0.01958878 0.41892374 -0.23460956 0.30936995 -0.42991796 -0.26698315 0.59575945 0.08931203 0.12360683 0.3877093 0.049932975 -0.29032573 -0.16128896 0.7091113 0.7661913 0.07290525 0.3884121 0.29800457 0.22581239 0.39559793 0.6124896 0.20156074 0.037527166 0.0043650465 0.48689285 0.53265613 0.2868973 0.3718214 0.38508192 -0.1426395 0.25397936 0.3505317 -0.28392547 -0.38427526 -0.13193126 0.10133853 -0.32313806 0.7887009 -0.5428532 0.58645284 -0.5342503 -0.46277967 -0.17705557 -0.0404248 0.31033415 0.5637547 -0.0626432 0.112294115 -0.037176117 -0.15052989 -0.7811887 -0.28892654 -0.47334802 -0.06053952 0.03895801 0.14630197 0.17136638 -0.20733075 0.17088434 -0.70867467 0.100220226 -0.46427912 -0.33839107 0.13655774 -0.10295238 -0.7576317 0.46454567 0.27197245 0.32019943 0.41889152 0.59684163 0.25918385 -0.20342985 -0.45047554 -0.6829721 -0.1270029 -0.024158625 0.082626075 -0.12847981 0.26800293 0.30777425 0.3110863 -0.35112 0.14993297 0.51205045 -0.20953006 0.030116342 -0.34754395 0.0027009272 -0.9381608 -0.20396785 -0.3885202 0.50152975 -0.44562823 0.29111674 0.08819129 -0.39256862 0.37048557 -0.29191485 -0.0653763 -0.8171774 -0.22647518 0.18696788 0.3592395 -0.39813146 -0.45972458 -0.4801932 0.10805994 0.41837272 -0.5416563 -0.13262822 -0.30391008 -0.049509726 0.14876719 -0.34470785 -0.9651972 0.24145731 -0.21915084 0.36333787 -0.17657124 -0.84575975 0.47741142 -0.442104 -0.1070388 -0.4898203 0.013524288 -0.12824267 -0.46592033 -0.08174553 -0.29566476 0.0545735 0.22536752 0.42955956 -0.53655064 -0.27794063 -0.5416641 0.29131418 -0.44142598 -0.6773337 -0.24132651 0.23396166 0.07223468 -0.21238558 0.68217963 -0.38137156 0.42962086 -0.2564479 -0.09182502 -0.48339996 -0.78345734 0.86382127 -0.543096 -0.22773641 0.23386648 0.21790367 0.45856762 -0.49679518 -0.47222573 -0.23570141 -0.38653675 -0.33374584 0.103056714 0.7612388 -0.52914643 -0.12030667 -0.5957129 -0.18260135 -0.7541229 -0.5194184 0.59043205 -0.0059237597 -0.23559693 -0.45316738 -0.30748358 -0.314169 -0.066103674 0.18344021 -0.2575517 -0.7115451 0.51647156 -0.61523926 0.007052694 0.40483755 -0.47111312 0.50232524 -0.114821464 -0.5168753 -0.19785674 0.19304429 0.33011487 0.014088853 -0.08361171 -0.15929917 0.15396225 0.27505168 -0.2478902 -0.53943485 0.31430697 -0.06673411 