0.05647163 0.032218233 -0.059449963 0.03384518 -0.022026457 -0.14644738 -0.07520356 -0.15584196 -0.12571575 -0.18203576 -0.294198 -0.16673179 0.0671041 -0.08575581 -0.27357855 0.120770626 0.00049143354 -0.24790819 0.35152605 0.3867686 0.122248806 0.385262 0.42107943 0.11489494 0.12120707 0.1222895 -0.019092109 -0.058074493 0.07261913 0.14212132 0.082729936 0.34096035 0.37151778 0.14049785 0.3844171 0.3739381 0.85441804 0.3441708 0.04548222 -0.59393734 -0.13665184 -0.2630351 0.006319524 -0.28214216 -0.020304883 0.3298383 0.07867492 0.3140834 0.07903142 0.012578503 -0.0961827 -0.028949147 0.09824117 -0.06610427 -0.0628287 0.25248128 -0.29072416 -0.18165918 0.050805002 -0.04462393 0.40262824 -0.013517655 -0.5651749 0.43060657 0.29584745 0.24628805 0.07735547 0.00066707947 0.056009904 0.26808846 -0.03673032 0.2124956 -0.0048103854 0.2718072 0.12169986 0.094041355 -0.04320044 -0.52114224 0.4985959 -0.27400064 -0.023088949 0.035966493 0.19753492 0.009782227 -0.004528203 -0.09319991 -0.02892451 -0.43002632 -0.37455478 -0.19545746 -0.23079889 -0.17348029 0.0994961 0.072692856 -0.012175354 0.037822086 -0.08014359 -0.025171436 0.8303204 0.016405078 -0.077122144 0.0398598 0.0035669345 0.013683049 0.40895703 0.04276977 0.2768058 0.12376119 -0.11349008 0.09364168 -0.13548836 0.103746064 -0.08747386 -0.09234095 0.019116446 -0.024186643 0.023242338 -0.2812463 -0.118000664 0.019492954 0.07823915 -0.08079986 -0.15584216 -0.08479148 -0.12830076 0.019281553 0.15226828 0.17361827 -0.17707236 -0.2171573 -0.19535215 0.102188304 0.025675008 -0.056311194 -0.22452845 -0.034248125 0.049699496 0.16540636 -0.22929865 -0.2201095 -0.003351684 0.14901294 0.06199938 -0.2270515 -0.18835308 -0.019170111 -0.2334316 0.09053883 -0.75104725 0.6135135 -0.073048964 -0.4726647 0.010496112 -0.028165255 -0.029604446 -0.04388929 0.0010032499 0.1553236 -0.20606065 0.20176032 0.16375786 0.02994588 -0.05075119 0.10705698 0.21001916 0.069945745 0.062281452 -0.08312475 -0.104218304 0.2001573 -0.39047846 -0.20293763 0.16218774 0.351426 0.1378079 0.3213087 -0.24632226 -0.45867294 0.39910585 -0.070073046 -0.11151603 -0.04746201 0.07695316 -0.04902685 -0.044636328 0.6372055 0.49914303 0.12965727 -1.0842793 0.17234345 0.24897067 -0.004919436 -0.018339584 0.06661461 0.019672383 -0.114737615 0.07184336 -0.006837969 -0.0069887773 -0.050979007 0.022418482 -0.06988205 -0.036429387 0.0262912 0.05843949 -0.06577194 0.022704486 0.20251448 -0.05380729 0.1416378 -0.043820698 -0.01833872 -0.14606276 -0.26084587 -0.13707566 0.6070744 -0.013004623 -0.19811827 -0.0038012152 -0.02969624 -0.35138425 -0.42063287 -0.028118482 0.13540286 -0.15509695 -0.17476131 -0.40372747 0.05898622 0.21615048 0.1156541 0.152858 0.14954565 0.32228512 0.8008375 0.15773337 -0.30566698 0.224421 0.0032922789 0.12728705 0.33994263 0.2504587 -0.060351398 -0.31438816 0.027602289 -0.17382689 -0.06863131 -0.047203276 0.29489273 0.41491637 0.04912097 -0.15276936 -0.17333914 0.30723992 -0.3359674 -0.18533662 0.10850683 0.583107 0.7089282 0.2582008 -0.43066016 -0.23751545 0.38749018 -0.39250734 0.66486967 0.10753755 -0.27864274 -0.1712804 -0.05145676 -0.37555572 -0.30290693 -0.18940203 -0.12673701 -0.55814093 -0.38041297 -0.027207362 0.04860333 -0.013339734 -0.07195979 -0.14479825 -0.21954627 0.38114387 -0.08809248 -0.22296749 -0.29041108 -0.40999886 -0.11740772 0.061271463 0.020716563 -0.26718938 0.16491635 -0.18442303 -0.118727885 0.002922831 0.10086063 -0.62975705 -0.053547524 0.16779447 0.2662518 -0.43259683 0.6312754 -0.318137 -0.025656182 0.036611404 0.38389996 -0.051431984 -0.20886584 0.25135285 0.061059058 -0.34255192 0.008028339 0.10000774 -0.13119593 0.15501171 -0.11268594 0.089305714 -0.20437716 -0.029316368 -0.13268588 -0.13676772 -0.15482745 -0.38740563 -0.17156224 -0.2903775 0.15103133 -0.14979461 -0.36508805 -0.36197773 0.14056784 0.37298608 -0.34497732 -0.044893097 0.45767888 -0.14451203 0.439618 -0.3214971 0.9496058 0.25082645 0.09549382 0.30254394 0.24271247 -0.20648384 0.05406896 0.3357624 -0.0049031675 0.23688279 -0.040264346 -0.118915394 0.2977323 -0.17045593 -0.23004624 0.08219455 0.08403829 -0.19974154 0.19547142 -0.090597235 0.16979465 0.052215703 0.2033954 -0.24564539 -0.21228975 0.12137001 -0.18205586 -0.10944693 0.86374956 -0.05939002 0.29608136 -0.27162892 -0.23895667 0.09050603 -0.19756635 -0.10730572 0.6619261 0.18122397 0.24160983 -0.21494497 0.20855874 0.0882745 -0.09331188 0.184727 -0.23468919 -0.08278277 0.49366617 0.120263934 0.026918082 0.12901022 -0.15156093 -0.31199786 0.38458768 0.22313014 0.39013195 0.6212983 -0.6735681 -0.81069404 -0.3225178 0.20340839 0.096295565 -0.11862988 0.4780829 0.09521535 0.41097763 0.76323354 0.2690045 -0.14774367 -0.003374443 0.5814323 0.25841594 0.5462389 1.5605036 -0.038933147 0.05845763 0.016682692 0.26606646 -0.11253161 0.25227913 -0.08360572 0.29878387 0.36202925 0.075851195 -0.008953124 -0.16473643 -0.08179167 -0.5097519 -0.58818305 -0.22983804 -0.41455418 0.010087275 0.21786475 -0.094558895 -0.17342067 0.13684072 -0.14471474 -0.18326369 0.24813056 0.02750837 -0.11673785 -0.07263318 -0.106432326 -0.22839502 0.15813097 0.2316192 -0.0715889 0.4765329 0.5123751 0.16143103 -0.17623438 -0.40468574 -0.28917152 -0.47204337 -0.4205584 0.062238056 -0.14712608 0.17224018 0.42648908 0.11705321 0.23254804 0.08209172 -0.07506273 0.19108634 0.4996024 -0.23148681 0.14038539 0.16521937 -0.47784355 -0.04547735 0.7675287 0.086923316 0.06277262 -0.2574674 -0.12157645 -0.12467411 -0.029803552 0.6051841 1.2693051 0.97035503 1.1007559 1.1491648 0.4763577 1.3100593 0.9511774 0.23955768 0.075854205 0.14930451 -0.1356337 0.2672885 -0.076140806 -0.19717543 -0.4288047 -0.083754174 -0.111658044 -0.031866774 0.14120914 -0.10965278 -0.060230177 -0.42664367 -0.39198577 -0.502069 -0.45566177 0.43897232 -0.16241904 0.039747026 0.06341731 0.15792352 0.21003854 -0.112456605 0.16366364 -0.19256863 -0.08608954 -0.10973499 0.06436899 0.1308158 0.27706808 0.2007799 0.05615439 0.2661439 -0.09590797 0.16206855 -0.3543769 0.21215151 0.11997996 0.037914645 0.27006233 0.4488248 0.17983674 0.41227442 0.39567372 -0.1805195 0.2379241 0.16059884 -0.08029036 0.25729734 0.12710923 -0.0020096146 -0.029300606 -0.040267777 0.10377857 0.545481 0.25510448 -0.051365577 -0.41996363 -0.45620984 -0.020753793 -0.37445706 0.09493025 0.77242607 0.022910248 -0.15397367 0.5418886 -0.056088746 -0.21678787 0.34285715 -0.08118343 -1.3841295 -0.083267115 0.13325192 -0.2477075 -0.005736272 0.45952746 0.077238835 -0.2598265 0.21932085 -0.28771868 0.37660033 0.031536393 0.25948545 0.01989014 -0.031577777 -0.04036711 -0.0844677 0.04793806 0.029002938 -0.12271037 -0.07947955 -0.18262598 -0.06892411 0.14844333 -0.16146782 0.14804558 -0.113838404 -0.18709975 0.05517043 0.07633996 -0.36955315 -0.4246181 0.45074552 0.06649235 0.06822129 -0.058504324 -0.2417095 -0.2257486 0.015505846 0.1610418 0.28962818 -0.004669914 0.27844468 0.24287434 0.19627114 -0.02365554 -0.09488954 0.29552352 -0.40249103 0.1254635 0.47331357 0.14824711 -0.37753412 0.2216463 -0.42187852 -0.44390786 0.20028153 -0.335531 -0.48213744 0.42562306 -0.12539642 -0.13662346 0.06648891 -0.23621956 -1.4960169 -0.7476452 0.018065378 -1.06831 0.14781263 1.0006726 -0.39362743 0.32689762 0.1603945 -0.44788867 0.38315216 0.29158655 0.2921772 0.036752596 0.30574682 0.23718913 0.19539778 0.53967595 0.4717246 0.2387922 0.3797936 0.023752024 -0.19014674 -0.6853675 -0.3694654 -0.81721056 0.13616203 -0.47929335 -0.3960266 -0.25666168 -0.3835818 -0.6137452 0.10722709 0.72353274 0.2544052 -0.014444047 0.12455422 0.89076144 0.2217401 0.16716447 -0.21579725 -0.14179735 0.10533208 -0.29801723 -0.40925732 -0.5643277 -0.21653587 -0.68917775 -0.6117944 -0.43366143 