#ifndef EMBEDDED_DATA_H
#define EMBEDDED_DATA_H
#include <stdint.h>

#define N_INPUT    784
#define N_DENOISER 665
#define N_CLASSIF  5738
#define N_IMAGES   100

static const int16_t WEIGHTS_DENOISER[665] = {
    14, 8, -14, 9, -5, -36, -18, -39, -31, -46, -74, -42, 17, -21, -69, 31,
    0, -62, 90, 99, 31, 99, 108, 29, 31, 31, -4, -14, 19, 36, 21, 87,
    95, 36, 98, 96, 219, 88, 12, -151, -34, -66, 2, -71, -4, 84, 20, 80,
    20, 3, -24, -6, 25, -16, -15, 65, -73, -46, 13, -10, 103, -2, -144, 110,
    76, 63, 20, 0, 14, 69, -8, 54, 0, 70, 31, 24, -10, -132, 128, -69,
    -5, 9, 51, 3, 0, -23, -6, -109, -95, -49, -58, -43, 25, 19, -2, 10,
    -20, -5, 213, 4, -19, 10, 1, 4, 105, 11, 71, 32, -28, 24, -34, 27,
    -21, -23, 5, -5, 6, -71, -29, 5, 20, -20, -39, -21, -32, 5, 39, 44,
    -44, -55, -49, 26, 7, -13, -56, -8, 13, 42, -58, -55, 0, 38, 16, -57,
    -47, -4, -59, 23, -191, 157, -18, -120, 3, -6, -7, -10, 0, 40, -52, 52,
    42, 8, -12, 27, 54, 18, 16, -20, -26, 51, -99, -51, 42, 90, 35, 82,
    -62, -116, 102, -17, -28, -11, 20, -12, -10, 163, 128, 33, -277, 44, 64, 0,
    -4, 17, 5, -28, 18, -1, -1, -12, 6, -17, -8, 7, 15, -16, 6, 52,
    -13, 36, -10, -4, -36, -66, -34, 155, -2, -50, 0, -7, -89, -107, -6, 35,
    -39, -44, -102, 15, 55, 30, 39, 38, 83, 205, 40, -77, 57, 1, 33, 87,
    64, -14, -79, 7, -43, -17, -11, 75, 106, 13, -38, -43, 79, -85, -46, 28,
    149, 181, 66, -109, -60, 99, -99, 170, 28, -70, -43, -12, -95, -77, -47, -31,
    -142, -96, -6, 12, -2, -17, -36, -55, 98, -22, -56, -73, -104, -29, 16, 5,
    -67, 42, -46, -29, 1, 26, -160, -13, 43, 68, -110, 162, -80, -6, 9, 98,
    -12, -52, 64, 16, -87, 2, 26, -33, 40, -28, 23, -51, -7, -33, -34, -39,
    -98, -43, -73, 39, -37, -92, -92, 36, 95, -87, -10, 117, -36, 113, -81, 243,
    64, 24, 77, 62, -52, 14, 86, 0, 61, -9, -29, 76, -43, -58, 21, 22,
    -50, 50, -22, 43, 13, 52, -62, -53, 31, -46, -27, 221, -14, 76, -69, -60,
    23, -50, -26, 169, 46, 62, -54, 53, 23, -23, 47, -59, -20, 126, 31, 7,
    33, -38, -79, 98, 57, 100, 159, -171, -207, -82, 52, 25, -29, 122, 24, 105,
    195, 69, -37, 0, 149, 66, 140, 399, -9, 15, 4, 68, -28, 65, -20, 76,
    93, 19, -1, -41, -20, -129, -150, -58, -105, 3, 56, -23, -43, 35, -36, -46,
    64, 7, -29, -18, -26, -57, 40, 59, -17, 122, 131, 41, -44, -103, -73, -120,
    -107, 16, -37, 44, 109, 30, 60, 21, -18, 49, 128, -58, 36, 42, -121, -11,
    196, 22, 16, -65, -30, -31, -7, 155, 325, 248, 282, 294, 122, 335, 244, 61,
    19, 38, -34, 68, -18, -49, -109, -20, -28, -7, 36, -27, -14, -108, -99, -128,
    -116, 112, -41, 10, 16, 40, 54, -28, 42, -48, -21, -27, 16, 33, 71, 51,
    14, 68, -24, 41, -90, 54, 31, 10, 69, 115, 46, 106, 101, -45, 61, 41,
    -20, 66, 33, 0, -7, -9, 27, 140, 65, -12, -107, -116, -4, -95, 24, 198,
    6, -38, 139, -13, -54, 88, -20, -353, -20, 34, -62, 0, 118, 20, -66, 56,
    -73, 96, 8, 66, 5, -7, -9, -21, 12, 7, -30, -19, -46, -17, 38, -40,
    38, -28, -47, 14, 20, -94, -108, 115, 17, 17, -14, -61, -57, 4, 41, 74,
    0, 71, 62, 50, -5, -23, 76, -102, 32, 121, 38, -96, 57, -107, -113, 51,
    -85, -122, 109, -31, -34, 17, -59, -382, -190, 5, -272, 38, 256, -100, 84, 41,
    -114, 98, 75, 75, 9, 78, 61, 50, 138, 121, 61, 97, 6, -48, -174, -94,
    -208, 35, -122, -100, -65, -97, -156, 27, 185, 65, -3, 32, 228, 57, 43, -54,
    -35, 27, -75, -104, -143, -54, -175, -156, -110,
};

static const int16_t WEIGHTS_CLASSIF[5738] = {
    68, 53, 45, 29, 11, 74, 86, 20, -24, -51, 91, 83, -25, -53, -54, 65,
    40, -32, -42, -53, 56, 34, -23, -32, -28, -11, -12, -20, -38, -37, -7, -30,
    -10, 1, -39, -29, -18, 0, -56, -1, -42, -4, -22, -23, -4, -16, -31, -31,
    -14, 3, -25, -32, -32, 28, 58, -16, -44, -48, 47, 99, -54, -49, -17, 100,
    98, -23, 0, 51, 116, 57, 6, 42, 65, 70, 19, 12, 3, -19, -58, -61,
    44, 61, 54, 18, 0, 52, 95, 111, 80, 46, 7, 40, 65, 62, 32, -68,
    -68, -9, 7, 12, -129, 165, -235, -216, -24, -52, 2, 51, -19, 36, 36, 26,
    85, 67, -10, -26, -121, -8, 9, 9, -17, -87, -61, 0, -61, -45, -45, -9,
    19, 15, -23, 5, -8, 41, 28, -30, 43, -280, -2, 12, -39, -12, -346, 65,
    -19, 14, -65, -302, -127, 26, 94, 40, -58, -40, 0, 19, -42, 8, -6, -14,
    4, 16, 17, -55, -75, 10, 53, -70, -28, -50, -41, 26, -52, -38, 4, -23,
    -10, 4, -45, 59, 17, 29, -27, -1, -38, 21, -7, 36, -22, -40, -63, 0,
    41, 30, -50, -81, -18, 44, 78, -34, -39, -55, -1, 52, -32, 16, 51, 34,
    17, 26, -51, -100, -68, 9, -47, -87, -49, -73, -10, 9, -20, 7, -8, -6,
    -16, 5, 26, 11, -11, 61, -12, -15, -30, -28, 103, 57, 0, 75, 24, -13,
    -59, -5, 53, 77, -40, -95, -99, 46, -9, -20, -49, -119, -15, 24, 29, -19,
    60, 35, 25, -95, -145, -106, -47, -36, -63, -67, -68, -25, -27, -8, -2, -6,
    22, 28, 12, 20, 5, -29, -37, -33, -24, 11, 11, 61, -17, -70, -65, 15,
    14, 110, 59, 22, -10, -69, 105, 51, 58, 64, 1, 2, 0, 45, 36, 36,
    -5, -22, 68, 21, -2, -35, -48, 52, 38, 48, -221, -1, 40, -11, -47, -13,
    76, 25, -35, -78, 72, -4, -1, -20, 1, -44, -48, -111, -12, 65, -34, 17,
    -62, -2, -41, -42, -55, -55, -73, 29, 38, -192, -10, 63, -46, 8, -215, 30,
    49, 26, 3, -6, 27, -3, 18, -23, 0, 71, 31, -69, 7, 66, 22, -207,
    -68, 28, 30, -29, -76, -25, -1, 38, 25, -5, -24, 68, 24, 45, -13, 28,
    -30, -44, 16, -11, -69, -97, -36, -19, -74, -89, -92, -22, 15, -31, 18, -25,
    1, -7, 14, 25, 33, 23, 30, 5, -8, 1, -8, -62, -61, -64, 21, -44,
    -129, -33, 17, -10, -1, 89, 38, -10, 54, 44, 1, -40, -33, 34, -5, -34,
    -16, 82, 25, 36, 34, -64, -72, 24, -26, -67, -161, -78, 2, 19, -235, -52,
    49, -17, -56, -156, -60, 17, 45, 16, 22, -100, -90, 38, -35, -50, 60, 96,
    -1, 7, 73, 45, -55, 49, 54, 7, -68, 74, -61, -65, -16, -45, -15, -12,
    -25, 13, 15, 13, -13, -43, -34, -45, 43, -21, -23, -28, 9, 23, 31, 26,
    3, 3, -6, 53, 7, 27, 22, 31, 19, 11, 27, 13, -8, -19, -23, 10,
    -25, -17, -15, -5, 8, 34, 70, 4, -11, -38, -13, -26, -70, -56, -62, -86,
    -62, 38, 7, 37, -4, 42, 48, -51, -87, -25, -6, 22, -68, -40, -40, -6,
    4, -37, 8, 4, 40, 7, 24, 8, 21, 61, 27, 16, 27, 6, 45, -4,
    43, 31, 73, 40, -53, 0, 55, -85, -39, -144, -129, -197, -96, -21, -36, -74,
    -6, 54, -37, -23, -3, 0, 4, 10, 12, 18, 17, 6, 31, 69, 78, 51,
    14, -8, -1, -14, -32, -106, -88, -2, -2, -38, -51, -20, 61, -32, 25, -18,
    1, 51, 6, 7, -73, 41, 44, -12, -2, 8, 30, 10, -18, -7, 60, 57,
    70, -51, 6, -8, -9, 39, 28, -17, -30, -19, 46, 9, -39, -40, 5, -14,
    -6, -57, -1, -9, 51, -31, -4, 10, 49, 20, -13, 44, -45, -40, -13, -6,
    -99, -8, 24, -28, -125, -12, 17, 78, -31, -88, -26, 55, 28, -18, 8, 25,
    26, -59, 31, 59, 26, 60, -125, 0, -29, -45, -50, -45, -11, -90, -108, -62,
    -62, -21, -103, -43, -79, -57, -32, -76, -45, -53, -6, 1, -28, -43, 0, 37,
    -15, 13, -23, -21, -74, -9, -42, 26, 36, -7, -14, 0, 17, 20, -122, -37,
    15, -3, -28, -71, 54, -18, -15, -56, -26, -58, -19, 7, 33, 41, -44, 2,
    -24, -20, -12, -2, 7, 1, -40, -12, 3, -3, -33, -7, 11, -35, 4, 14,
    0, 28, -21, -59, -72, -68, 76, -16, 37, 15, -100, 64, -3, 67, 35, -33,
    41, 37, 2, -3, -19, 36, -1, 0, -45, 16, 64, 36, 30, 22, -89, -83,
    -12, 30, -7, -90, -57, 19, -20, 3, -20, -54, 54, 0, 24, -14, 9, 21,
    0, -18, 58, 27, -10, 2, -28, -14, -125, 13, 23, -81, -26, -21, 30, 20,
    24, -14, -20, -9, -17, -63, -102, 30, -5, 12, -13, 49, 39, 40, 54, -45,
    -93, -2, 15, -79, -245, -327, -220, 67, -38, -76, -6, 3, 23, 16, 31, 84,
    50, 14, 10, 25, 48, 17, 4, 0, -28, -10, 1, -12, 0, 1, -48, -97,
    4, -11, -92, -22, 32, 2, -39, -23, 36, 78, 8, 40, 20, -1, -6, 4,
    0, -8, 36, 29, -13, 64, 95, 97, 118, -33, -24, -17, -10, -42, -11, 2,
    -26, -25, -60, -12, -5, 0, -9, -16, 20, -6, 9, 19, 46, 8, -20, 28,
    -65, -63, 58, 84, 12, 35, -53, -50, -53, -29, -16, -65, -75, -10, 39, 27,
    61, -36, -28, -33, -135, -29, -20, 92, 13, -117, -72, -63, 63, -38, -63, 10,
    8, -57, -40, 40, 53, 80, 18, -1, -24, -87, -95, -3, 25, 30, -48, 78,
    -21, -52, -6, -26, -26, 19, 26, 120, -23, -50, 39, 88, -1, 0, 26, 8,
    -6, -66, 88, -25, -209, -56, -31, 9, -47, 1, -19, -4, -195, -51, -60, 53,
    129, 25, 35, -46, -130, 72, 92, 7, -23, -55, -52, -91, 142, -90, -23, 51,
    93, 83, -88, 32, -61, -35, 0, -59, 3, -17, 48, 24, -54, -14, 3, 5,
    30, -66, -38, -17, 49, -35, -26, -68, -26, 4, 5, -41, 24, 78, -4, 25,
    82, 1, -37, 35, -5, 48, 145, -61, 7, -2, -20, -207, 119, 27, 35, -115,
    -117, 37, -11, -16, 158, -6, -111, 25, 87, -3, 72, 91, -124, -169, 7, -11,
    25, 12, 7, -10, -33, 20, 10, 3, 4, -37, -10, 14, -105, -34, -5, 62,
    96, -27, 24, -115, -26, 52, 30, -1, -11, -25, -28, -161, 45, 20, -9, -3,
    -86, -13, 13, -36, 51, 8, 14, 52, -32, 24, -33, 20, -9, -35, -23, 0,
    -34, 22, -56, 43, -8, -19, 6, 51, 28, -48, -24, 17, -1, -50, 8, 1,
    41, -28, -165, 24, -64, 9, 108, -133, 12, 2, -17, -48, 100, 57, 21, -101,
    -121, 23, -3, -91, 119, -7, -80, -31, 67, 15, 50, 91, -69, -72, 14, -26,
    -41, -13, 27, 95, 33, -63, 6, -66, -8, 25, 21, -80, 4, 37, 41, -26,
    -19, -76, -9, 62, -19, -38, -94, 48, 102, -106, -84, -30, -53, -37, -4, 35,
    43, -12, 3, 17, 47, 39, 44, -69, -75, -46, -37, -42, 14, 37, 10, 38,
    -22, -9, -13, -136, -23, 7, -54, 46, 34, 19, 79, 86, -61, 10, 6, -6,
    -14, -54, 79, 0, -15, -38, 11, 71, 13, -2, -48, -36, -96, 9, 2, -2,
    50, 52, 52, 89, -79, 48, -12, 28, -77, -34, -61, -111, 37, -30, -19, 31,
    44, 39, -73, 17, -18, -25, 3, -18, 21, -8, 13, 12, -27, -33, 18, 26,
    30, -7, -11, -134, 24, 0, 0, -60, -34, 16, 1, -28, 24, 73, 11, -11,
    28, 74, -5, -16, 4, 7, 86, -61, 1, 13, -26, -39, 43, 32, -31, 36,
    -79, 0, 40, -40, 34, 48, -63, 8, -6, 6, 34, 47, -87, -92, 42, 3,
    -24, -9, 51, 10, 38, 28, 17, 42, 33, -22, 1, 3, -107, -19, -8, 34,
    30, 14, 10, 30, -63, 42, 34, 31, -51, -41, -18, -145, 32, -13, 35, 30,
    0, -58, -45, -55, 43, 84, -17, 31, -19, -12, -28, 29, 1, 21, -60, -60,
    -13, -8, -4, 67, 21, -18, 16, 84, 33, -29, -24, 43, 12, -28, 59, -24,
    68, 82, -151, 44, -53, -35, 44, -112, 4, 27, 55, -45, 53, 16, 19, 0,
    -4, 11, -45, -73, 91, -11, -100, -193, 11, 45, 36, 51, -32, 111, -12, -24,
    -5, 62, -196, 12, -66, -35, 81, 19, 71, -18, -63, 23, 82, 21, 10, -49,
    -146, -128, 42, 1, 48, 62, -16, 0, 124, -57, -62, 7, -76, -23, -31, 24,
    67, 2, 3, 1, 16, 0, 12, -44, -34, -26, -17, 22, 6, 10, -15, 46,
    -4, 27, -9, -2, 53, 14, -51, -26, -52, 31, 64, 5, -50, 39, 9, -15,
    -91, -105, 85, -50, 23, -9, 27, 52, -24, 52, -36, -69, 30, 49, 7, -86,
    16, 87, 57, 1, -4, 32, 38, 13, 40, -4, -138, 79, 23, -81, -7, 64,
    16, 23, -18, 2, 24, 20, 5, 16, 15, -13, 16, -7, -13, -26, 14, -3,
    31, 17, -14, -25, 2, -32, 6, -22, -47, 28, 16, 13, 20, 38, 13, -55,
    5, -56, 112, -1, 0, -51, -16, 53, 34, 15, -1, -79, -56, 38, 13, 83,
    76, 59, 70, 36, -176, -8, -46, -39, -234, 13, 30, -73, -81, -54, 9, 11,
    -48, -129, 108, -64, 52, 50, -9, 48, 57, -23, -162, 43, -137, 8, -105, -147,
    90, 49, 75, 49, -145, 39, 76, 87, 21, -108, -110, -40, 64, -112, 64, 30,
    -49, -76, -42, 14, 12, 69, 46, -6, -49, 19, -37, -3, 44, -13, -3, -84,
    -38, -42, -50, -17, 21, -33, 1, 30, 82, -14, -37, 90, -8, -3, 21, 0,
    119, 100, -33, 5, -6, -54, -29, -42, -16, 14, 28, -25, 10, -8, 61, 33,
    16, 15, -6, -141, 29, -9, -94, -321, -17, 37, 50, 7, 13, 92, -18, -2,
    38, 134, -314, 53, -67, 7, 114, 39, 74, -93, -179, 23, 47, 1, -15, -40,
    -81, -118, -8, 31, 26, 108, 5, -39, 52, -92, -17, 17, 37, 54, -34, -75,
    59, 74, -11, -23, 13, -6, 10, 50, -30, -19, -6, 0, -14, -20, -38, 5,
    -12, -5, 7, -34, 48, 20, 33, -21, -48, 31, 28, 0, 12, 53, 19, -16,
    -38, -34, -21, 26, -24, 30, -9, 15, -2, -6, -33, 29, 32, -2, 46, -214,
    -14, -2, 13, 6, 10, 11, 0, 58, 113, -20, -124, 46, 30, -33, -11, 35,
    -32, -41, 47, 65, 60, 31, -13, -37, -50, -33, 20, -60, -57, -24, 42, 31,
    51, 49, -49, -49, -128, -93, -46, 73, -14, -2, 0, -10, -1, 6, -48, -75,
    -25, -136, 104, -25, 10, -111, -74, 2, -55, 57, 53, -84, -116, -23, 94, 71,
    121, 68, 102, 13, -228, -40, -20, -76, -179, 78, 83, -81, -13, -95, -37, 1,
    -97, -232, 29, 30, -17, 50, -58, 14, -75, 30, -116, 55, 42, 39, -108, -147,
    -37, 0, 30, 49, 19, 34, 38, 86, 131, -129, -186, 52, 67, -144, 47, 30,
    -25, 11, -86, 44, 8, 26, 17, -15, 8, -27, 2, -58, 23, 21, 41, -92,
    -18, -28, -49, 29, 45, -34, -78, 31, 99, 12, -53, 58, 18, 0, -29, -15,
    57, -31, 57, 33, 44, -148, -61, -9, 52, -6, 26, -19, -64, -42, 86, 47,
    45, 6, -16, -67, -206, -17, -77, -172, -118, -32, 69, -220, -9, -28, -40, -63,
    15, 13, -5, 28, -66, 13, -26, 1, -84, 26, 73, 7, -123, -67, 6, 27,
    118, -20, -22, -185, -24, -87, -11, -27, -17, -21, -8, -94, 63, 29, -29, -11,
    21, -15, -33, 24, 30, 20, -34, -72, 57, -59, -152, -41, 70, 40, 25, -42,
    -159, -40, 68, -8, -15, 66, -83, 17, 52, -52, -8, 30, -104, -107, -34, -12,
    -21, 14, 9, -60, 4, 25, 53, 21, -69, -32, -52, 60, -243, -81, -175, 52,
    15, 52, -23, -87, -50, 25, 130, 67, -37, 37, -15, -167, 57, 37, 74, 35,
    -10, 14, -29, -125, 29, 17, 15, -6, 31, 15, -3, 44, 16, -37, -34, -22,
    -33, 1, 64, -70, 12, 53, 46, -9, 33, -2, 0, -6, 4, 9, 32, -67,
    59, -40, 48, 93, 5, 33, 9, -175, 44, 5, -23, -75, 49, 106, 32, -7,
    -67, -44, -49, -13, 33, -26, -232, 67, 19, -10, 49, 41, -137, -59, -24, 35,
    9, 3, -13, -84, 1, 22, 31, -1, 9, -2, -21, 42, -57, -12, -6, 40,
    1, 9, 49, -50, -41, 63, 45, 25, -28, 9, 9, -59, 39, 3, 12, -18,
    -55, 0, 3, 54, -22, 15, 63, 16, -10, -2, -5, -18, -11, 0, 16, -7,
    -5, -57, 5, -1, -36, -35, 2, 42, 54, -99, -47, -76, 45, -15, -10, -1,
    90, 51, -35, 120, 22, 8, 15, -65, -15, -3, -7, -118, 11, 40, 29, -32,
    -90, -81, -72, 5, 43, -22, -180, 19, 39, 29, 34, 66, -91, 71, 10, -13,
    0, 2, 24, 38, 6, -75, -53, -41, -97, 38, 52, 7, -6, -9, 23, -11,
    20, 4, -74, 38, 17, -87, -38, -6, -10, -3, -38, 0, 20, 46, 6, 21,
    40, 35, -22, 104, -21, 20, -98, -51, 50, -61, 11, -35, 18, 83, 40, -5,
    30, -73, -4, -12, -27, 3, -55, 27, 8, -55, -30, -14, -29, 52, -33, -11,
    -25, -21, 16, -79, 69, -20, 17, 3, -20, 9, -36, -6, -37, -31, 25, 50,
    -19, 48, 1, -30, -68, 42, 20, 4, -5, 15, 41, 42, -33, 5, -23, 12,
    -40, -21, -2, -53, 34, -14, -5, 3, 3, 40, 0, 2, 28, -46, 11, -54,
    -14, 21, -21, -24, 28, 0, 18, -21, 25, 29, 2, 72, -25, -20, -21, -17,
    13, -20, -18, -17, 20, 38, -6, -9, 36, 22, -15, -26, 23, 28, -14, 10,
    -77, 20, -39, -2, 14, 12, -48, 46, -14, 20, 62, 38, -237, -44, 22, -11,
    -25, -54, 72, -1, 34, -3, 57, 29, 14, 13, -8, -62, 11, 36, -3, -76,
    -26, 85, -26, -9, 4, 28, -6, 10, -33, 24, 58, 18, -23, -52, -9, 27,
    -29, 0, -15, -30, -9, 49, 18, -58, 48, -13, -118, 71, 28, 13, -87, -37,
    -35, -13, 90, -69, -72, 59, 98, 63, 77, -28, -47, -61, 46, -52, 0, -53,
    67, 48, -34, 48, 18, 11, 15, -76, -6, 8, -1, -17, 43, 7, 18, 42,
    -50, -12, -18, -48, 76, -21, -52, 0, -74, 21, 57, 32, -35, 92, 11, -36,
    39, 16, -125, 26, 14, 46, 42, 25, 22, -3, -25, 65, -3, 49, -59, 23,
    -101, -36, 15, -56, -8, 5, 18, 16, -71, 11, 67, -2, -77, 29, 24, -59,
    41, -34, 36, 44, -59, 10, -272, -32, 63, -22, -2, -27, 8, -5, 71, 42,
    65, 2, 55, 39, -71, -3, -13, 33, -3, -47, -24, -51, 0, -60, -33, -17,
    26, -1, 20, 22, 21, 22, -12, 27, 14, 8, 14, -36, 44, 28, 6, -144,
    1, 11, -46, 4, 109, -27, -28, -3, -3, 42, 13, 46, -7, -5, -2, 28,
    30, 29, 39, 11, -86, -23, -118, 11, -43, 13, 52, 7, 34, -53, 52, -108,
    63, 25, 25, -33, 47, -11, 24, -66, 17, 23, -37, 30, 76, 6, -17, 87,
    -76, 13, -4, -42, 36, 8, -17, 31, 4, 30, -14, -21, 18, -51, 11, 17,
    9, 26, -138, 38, 3, -29, -17, 7, 2, 30, 40, 33, -69, -8, 5, -16,
    6, -16, 14, 23, 22, 14, 3, -10, -22, -39, -113, 16, 13, 74, -17, -18,
    -11, -19, 60, 13, 10, 45, 60, 53, 34, 5, -19, -41, 32, -19, 25, 15,
    55, 1, -42, -53, -47, -7, -11, -7, 61, -22, 51, 19, 41, 31, 30, -79,
    -15, -46, -16, 17, 81, 51, -18, -1, 51, 27, -7, 57, -5, 16, 12, -31,
    70, 14, 16, 12, 81, 2, 19, 0, 0, -20, 3, -34, -25, 12, 18, 57,
    -3, 33, -31, -166, -56, -2, -38, 3, -151, 31, 48, -16, -30, 49, 12, -110,
    1, 108, -158, -6, 1, 15, 26, 70, 17, -98, -89, 50, -31, -51, -144, 41,
    -54, -2, -55, -64, -37, 82, 135, -11, -55, -34, 56, -51, 34, 131, 39, -155,
    29, -175, 63, -44, -17, -26, -130, 53, -171, 10, 1, -88, 0, -27, 64, 5,
    36, 94, 89, -15, -31, 33, 3, 12, -31, 42, 63, 40, -8, -98, -12, 74,
    14, 56, -251, 34, 10, 37, 25, -24, 17, -8, -1, 8, 27, 19, 15, -56,
    -32, -134, -9, 17, 77, -18, 7, 31, 50, -10, -23, 28, 12, 20, 3, -46,
    41, 10, -5, 65, -166, -3, -140, 36, -33, -46, 13, -1, 25, -66, 21, -148,
    66, -12, -9, -172, -26, -17, 8, -19, 4, -17, -97, 16, 118, 49, -11, 62,
    -20, -17, 90, 65, 73, -12, -44, -63, -30, -5, 116, -57, -30, -13, 158, 16,
    75, 1, -111, 21, -7, -106, -127, -51, 25, 53, 23, -16, -6, 26, -64, 34,
    -59, 1, 5, 31, 84, -36, 0, 35, 94, 8, -67, -5, 19, 85, -114, -30,
    -81, -89, -19, 0, 43, 48, -20, 27, -42, -82, -36, -75, -34, -17, 43, 32,
    78, 107, -84, -5, -41, -17, -19, -41, -7, 25, 3, 12, -2, -19, 26, 20,
    3, -53, 36, -5, 90, 30, 1, -59, 9, 33, 11, 11, 5, 79, 5, 14,
    -36, -47, 58, 6, 182, -48, 6, 10, 79, 10, 82, -172, -97, -51, 42, 115,
    101, 73, -85, -48, -169, -6, -61, -78, -119, 3, 55, -98, -8, 45, -62, -31,
    -7, -9, 8, -57, -69, -17, 2, 13, -96, 3, -10, 5, -115, -76, -34, 24,
    52, 11, 17, -164, -36, 18, 54, -28, -22, 17, -9, -66, 77, 30, 6, -9,
    0, -51, 45, -30, 7, -12, -16, -188, -18, 113, 94, -23, 25, 32, 115, 0,
    -1, 76, -28, 33, 21, -110, -195, -36, 21, 22, 65, 47, -138, -72, -17, -62,
    -60, 30, -40, -116, 143, 25, -2, 20, 17, -212, -120, -2, -130, -253, -73, 82,
    -18, -44, -20, -12, -158, 50, 50, 114, 11, -78, 22, -104, 3, 72, 7, -17,
    58, 41, -74, 104, -32, -23, -26, -56, 52, -96, -12, -93, 33, 52, 148, -96,
    -6, -56, 25, 28, 34, 43, -95, -11, 125, -100, -3, -28, -57, 2, -82, 27,
    0, -64, 9, -82, 30, 69, -2, -175, -118, 75, 25, 25, -11, 38, -57, 41,
    -12, 1, 19, -26, 3, -88, -21, 49, 1, 27, 15, 3, -58, -26, 39, -49,
    -32, 31, -61, 21, 24, 7, 29, 5, 22, -80, -7, -100, -21, -2, 50, -17,
    5, -36, -36, 1, -44, 49, 4, -16, 60, -54, -55, -61, 31, 46, -38, 8,
    -29, -54, 78, 31, 37, -16, -9, 36, -23, 27, 9, -85, 14, -5, -40, -42,
    21, 63, -7, 20, -10, -53, 9, 53, -58, 17, -33, 0, 12, -48, 35, 12,
    0, -32, -19, 14, -49, 47, -121, -174, 23, 17, 39, 24, -15, -74, -3, -8,
    58, -63, 34, -23, -28, -106, -34, 22, 17, -35, 0, -48, 30, -16, 28, -57,
    -50, -27, 28, 9, 26, -69, -21, -7, -144, 27, 13, -24, 45, -28, 27, -28,
    10, -11, -72, 34, 26, -36, 0, -6, 30, -4, -45, 33, 18, 6, -23, 16,
    -22, 12, -14, -35, -68, 0, -11, -86, 13, 38, 64, 38, 6, 0, -32, 13,
    -15, 48, -2, 28, 41, -54, -48, -56, 10, 19, 30, 18, -40, -54, 9, -43,
    -57, 17, -19, 18, 33, 0, 1, 3, 44, -92, 16, -90, -53, 31, 31, 15,
    18, -66, -128, 21, -11, -11, -1, -34, 16, -99, -38, -111, 7, 7, -73, 23,
    47, 33, 27, 76, -38, -13, -29, 20, 1, -61, -13, -2, -11, 19, 59, -128,
    31, -6, 11, -45, 17, 30, 12, -69, 34, -5, -7, -13, 33, 35, -33, 57,
    2, -11, -46, -163, -44, 2, -42, -136, -102, 109, 54, 52, 22, -8, -38, 28,
    7, -9, 68, -43, 15, -22, 25, -5, -16, 37, 21, 18, -48, -2, 32, -131,
    8, -31, 92, 39, 18, -1, 18, 38, 26, -51, -88, -60, 35, 3, -64, 39,
    -79, -27, -41, -1, 61, 21, -90, 26, -30, -9, -18, -7, -68, -15, -23, 33,
    -1, -15, -20, -41, 0, 73, 61, 34, 14, -71, -117, 29, -12, 108, -160, 44,
    -81, 25, 67, -48, -43, 56, 95, 81, -75, -20, 22, -25, -27, -21, 35, -14,
    -22, 5, -6, -92, -77, 8, -108, -61, -6, 55, 0, 58, 30, -136, -14, -7,
    17, 24, 87, -113, 23, -29, 21, -11, 7, 59, 26, 18, -7, -53, 28, -93,
    -33, -47, 14, -12, -1, -1, -16, -73, -145, 33, 15, 17, 0, -59, -29, -9,
    -4, -11, -60, -34, -2, -81, -15, 24, 1, 45, -20, 23, -28, 19, 3, -93,
    1, -27, 42, -48, -80, -29, -54, -38, 31, 22, 8, 4, 59, 13, 107, 49,
    13, 53, 75, -101, -37, 39, -20, -17, 33, -20, -1, 18, -40, -106, -43, -44,
    10, 5, -16, 9, 11, 26, 5, -26, 22, 18, 0, 25, -2, 0, -18, -16,
    28, -105, -3, 9, 45, -31, -73, 0, 0, 27, 15, -36, -1, 0, 35, 17,
    8, 12, -20, 10, -24, -34, 35, 14, -10, 0, -62, -5, 2, -22, -7, -64,
    -12, 33, -26, -177, -19, 30, 46, -6, -21, 0, -3, -4, 47, 14, -8, 0,
    0, -16, -115, -11, -40, -3, -61, -54, -9, 42, 0, 36, 2, 65, -67, -32,
    -14, -58, -6, 70, 30, -75, -6, -9, -6, 6, -5, 38, -11, -9, 1, -29,
    61, 31, -34, -19, 46, 7, -22, 7, 40, -80, -67, -30, 7, 51, -53, 19,
    -107, -12, -38, 25, -87, 59, 39, 48, -106, -15, 142, 6, -77, 21, 35, -23,
    0, 2, -21, -91, -39, -32, 39, -17, 81, -22, -47, 77, 20, 46, -43, 41,
    2, 27, 45, -15, -8, 52, 20, -26, -22, -20, 26, -95, -78, -66, -59, -43,
    -19, -84, 60, -7, -119, 0, -75, 32, -179, 9, -4, -36, 28, -108, 60, 6,
    33, 60, -18, -145, 1, -49, -17, 7, 27, 6, -17, 45, 2, -44, -33, 1,
    -86, -37, 10, -95, 27, -10, -14, 68, -65, 34, 33, -9, -27, -245, 37, 19,
    3, 45, -64, 10, -59, -8, 11, -15, 1, -20, 24, 6, 24, 11, 24, -108,
    -54, -70, 14, 12, -98, -43, -46, 35, -11, -19, 21, -98, 30, -11, 112, 6,
    29, 28, 13, -62, 24, 8, -10, -30, 52, -6, -29, 53, 0, -33, -115, 0,
    27, 25, -44, -45, 11, 0, 26, 12, 12, 0, -24, 3, 1, -1, -28, 4,
    -47, 0, -6, -177, -10, 33, 22, 9, -40, 16, 23, -1, -27, 0, 9, -64,
    -21, 0, -60, -16, -81, 13, -7, 25, 10, -40, -132, -10, -14, 66, -112, -26,
    -27, -30, -75, -71, 11, 75, 92, 16, 16, -110, -34, 10, 25, -101, 13, 56,
    -7, 7, -121, 71, 9, 55, 19, -4, 21, -71, -93, 12, 11, 34, -114, -71,
    -18, -63, 0, 7, -60, 16, 12, 39, -8, -27, -8, 36, 26, -5, 3, -40,
    -51, 31, 36, -8, 57, -73, 40, 18, 61, 46, 4, 25, -28, 8, -6, 52,
    -10, 6, -54, 3, 66, 51, -78, 18, -3, -13, 28, -66, -2, 34, 55, 65,
    31, -3, 58, -47, -34, -20, -2, 3, -12, 1, -2, 26, 62, 16, 28, 27,
    -45, 35, 34, -21, -40, 35, -7, -7, -24, 36, 31, 16, -42, -26, -8, 17,
    -16, -81, 6, 80, -45, 27, -23, 22, -119, -41, -16, -67, -6, 61, 62, 36,
    18, 37, 50, -2, -126, 29, 17, 35, 7, -207, 3, 12, -19, -68, -40, -12,
    -48, 30, -5, 27, -34, -105, 22, 23, 16, -42, -11, -60, -32, -42, 63, -8,
    23, 16, -9, 10, -46, 43, 19, -98, 17, -90, -34, -61, 48, 39, -102, 32,
    -87, -15, 55, -114, -3, -12, -27, -85, -66, 162, 79, 25, 36, -54, -2, 6,
    -63, 90, -42, 25, 43, -165, -18, 33, 36, 119, 59, 69, -134, -88, -25, -124,
    -60, -5, -227, 88, 113, 43, 47, -10, 60, -279, -51, 23, -68, 102, -52, -43,
    7, -188, 23, 111, 3, -32, -15, 3, 54, -207, -97, -169, 38, 16, -26, -46,
    71, 30, -2, 74, -5, 13, 33, -27, 3, 7, 25, -35, 32, 27, 36, -59,
    -17, -18, -61, 3, 23, -7, -139, -41, 67, -26, -26, 21, -32, 14, -81, 40,
    -1, -17, 29, -69, 10, -20, -87, -17, 11, -1, -32, 32, 35, 2, 1, 9,
    -14, 21, 58, 14, -9, 40, 13, 18, 8, 17, 30, -59, -33, -42, 14, 3,
    72, 45, -85, 39, 11, 75, 8, 25, 16, -51, 18, 36, -55, 25, -41, -51,
    54, -115, -57, 15, 81, -42, -36, -5, 31, 1, -15, -38, 24, 46, 56, 48,
    0, -16, 18, 16, 49, -1, 20, 31, -9, 50, 16, -55, -1, -32, 11, 60,
    -3, 79, -42, -6, 22, -50, -17, 6, -10, -3, 5, 18, -3, -41, -8, -2,
    -16, -18, 13, -35, -107, 19, -174, -101, -37, 14, 17, 59, -9, -8, -89, -16,
    -2, -2, 71, -30, -11, -6, 47, 1, -29, 54, 29, 13, 9, -14, 57, -63,
    -7, -26, 4, 41, 5, 11, 17, 43, -62, -40, -45, -26, -64, 25, -33, -32,
    19, -14, -58, 37, 28, 3, 30, 28, -10, -76, -48, 1, 42, -29, 16, 15,
    -244, -30, 56, -130, 14, -134, 19, 22, 17, 68, 50, 5, 1, -85, -8, 32,
    -34, 73, -31, -115, 0, -40, -24, -108, -13, 64, 40, 66, -76, -28, -124, -152,
    -5, -47, -6, -36, -1, 74, -2, -17, 5, -66, -1, 47, -42, 62, -82, 13,
    4, -71, 31, 3, 10, -75, -33, 75, -15, 50, 33, -10, -5, -30, 106, -15,
    -29, 50, 11, -15, 14, -110, 44, 40, 19, 32, 56, -51, 28, -18, 33, -3,
    -41, 23, -45, -47, 6, 4, -19, -117, 2, 9, 50, 50, -60, 9, -102, -33,
    0, -14, 32, -58, -14, -61, -37, 17, 21, 16, -20, -13, 8, -6, 29, -21,
    -15, 15, 48, -22, -13, 37, 25, -25, -9, 2, 26, -49, -26, -50, -30, 21,
    29, 17, -44, -98, 3, 66, 9, -30, -5, 35, -1, 49, 6, 50, -168, 54,
    -31, -36, 14, 13, 107, -182, -11, 23, -22, 79, 53, 27, -43, 25, 72, -49,
    5, -9, -11, -85, 38, 19, -21, 24, 0, -7, 52, 5, -61, -33, -32, 59,
    -12, -6, -35, 47, -13, -9, 8, -1, -93, 45, 91, -60, -6, 68, 57, -70,
    -2, -18, -16, 1, -146, 33, -240, -90, -27, 57, 16, 29, 9, -15, -18, -40,
    11, -13, 47, -97, -4, 1, 23, 22, 26, 24, 14, 44, -1, -17, 31, -49,
    23, 9, -4, -4, 21, 51, -38, -146, 19, 24, -26, 56, 4, -12, -48, -15,
    -16, -105, 86, 102, 63, 21, 38, 48, 24, 4, -10, -3, -32, -3, 64, 7,
    -155, 17, 4, -52, -103, -161, 38, 17, 19, 23, -28, -58, 2, 1, 22, 16,
    -27, 46, -78, -58, -10, 23, 27, -132, -17, -20, 36, 6, -43, -1, -206, -9,
    -13, 3, -13, -7, -1, 56, 11, -9, -26, 58, 2, 29, 14, -8, -50, 10,
    -12, -34, 17, 14, 8, -72, 44, 28, -4, 26, 37, 57, 2, 0, 47, -56,
    -170, 24, 16, -13, -70, -243, 18, 25, 22, 15, 41, -162, 10, -41, 92, 24,
    -15, 31, -73, -118, 12, 1, -1, -175, 29, -24, 0, 16, -16, 40, -229, 9,
    -23, -8, 55, -62, 26, -46, 2, 33, 12, -3, -39, -38, 25, 12, -15, -6,
    -12, 43, 26, -10, -3, 29, 20, -37, -5, -1, -4, -8, -16, -42, -42, 22,
    -38, -45, 32, -82, 98, 24, 49, 33, 65, 58, 46, 25, 11, -10, -71, 37,
    -56, 17, -81, 163, -24, -55, -36, 35, -10, 68, 92, 42, -62, 38, -10, -155,
    -37, 30, 61, -11, -6, -126, -48, 1, -101, 18, 96, -31, 3, -73, 91, 37,
    45, 48, 5, 5, -33, -49, -34, -78, -7, -5, 33, 20, 38, 62, -74, 61,
    -27, -12, -25, 20, -117, -11, -47, -22, -11, -15, 22, -34, 31, 22, 27, 16,
    -26, 0, 4, -106, 12, 34, -19, 13, 55, -36, 6, 32, -21, -61, -42, 12,
    48, 0, -119, -5, -137, -13, -124, -172, 19, 15, 25, 61, -11, -63, 44, -47,
    -52, -141, 153, -109, 52, 77, -26, -25, 39, 4, -37, -112, -66, 1, 30, -66,
    3, -1, 8, 56, -84, -264, 63, -92, 136, -18, -25, -136, 92, 88, 65, -23,
    -18, -49, -66, -13, -20, 34, -125, -16, 61, -299, -88, -116, -106, -156, -189, 125,
    -33, -11, -22, -34, -11, 10, 35, 29, -74, 26, 42, 28, 2, -166, -21, 22,
    1, -7, -7, -90, 8, -5, 39, 4, 19, 21, 2, 40, 15, 25, 24, -93,
    -126, 7, -55, -64, -189, -249, 66, -41, 100, 21, 14, -122, -13, 83, 71, 1,
    -27, 32, -197, -91, -20, 25, -53, -138, 16, -202, -17, -13, -66, -24, -283, 59,
    -40, 11, 31, -77, -16, -21, 33, 49, 41, -8, -48, -49, 35, 63, -27, 9,
    -37, 44, 25, -56, 24, 50, 21, -22, 0, -34, 12, 19, -32, -27, -51, 39,
    -22, -20, 3, 69, 30, 37, 10, 59, -141, 48, 23, 27, -115, -32, 2, 20,
    31, -22, -28, 16, -20, -206, -43, 38, 4, 15, -7, 45, 48, 32, 51, -26,
    -96, -45, 51, -7, -17, -118, -29, -4, -75, 22, 46, -59, 49, -118, 124, -24,
    26, 54, -75, 20, 28, -27, -29, -74, 36, 14, -30, 2, 42, 21, -92, 44,
    20, -42, -91, 111, -57, 59, 0, -110, 79, -149, -104, -31, 86, 157, -18, 1,
    -62, -78, 132, 2, 28, 94, -23, 79, 61, -224, -9, -33, -49, -194, -25, -15,
    9, 61, 49, 87, 52, 30, 12, 127, 7, -55, 49, 56, -61, 0, 11, 24,
    82, 21, 47, 116, -8, 57, 88, 44, 29, -2, -33, -47, 161, 121, 77, 80,
    26, -83, 69, 105, 39, 32, 79, 55, 34, 140, 58, -105, -167, -30, 3, 10,
    59, -37, 51, 46, 94, -63, -23, 86, 69, 59, 72, -69, -167, -23, 60, 92,
    76, 133, -13, 63, 45, 36, 103, -105, -53, -6, 50, 50, 190, 8, -39, 100,
    127, -7, -34, 152, 48, 31, 54, -28, 36, 38, 165, 26, -34, -17, -105, -50,
    -11, 112, 24, 97, 40, 122, 34, -88, 75, -123, 20, -73, 48, -44, 157, -25,
    -6, -55, 51, 158, -3, 48, -117, 41, 185, -39, 55, 85, 42, -65, 30, -11,
    29, -34, 52, -56, 175, -96, -37, -125, 12, -42, 167, -68, -51, 13, 108, 87,
    66, 164, -133, -70, 105, -74, 17, -65, -40, -30, -38, 71, 119, 1, 127, 55,
    61, -59, -85, -24, 109, 169, -99, -95, 3, 63, 38, 2, 1, 46, 119, 63,
    -106, -73, -46, 51, 15, 109, 77, 74, 86, -120, -16, 8, 99, 55, -61, 56,
    53, 9, 12, 108, 0, 62, 135, 136, 5, -87, -6, -29, 38, -2, -29, 155,
    -102, -18, 52, 123, -5, 3, -70, 91, 140, 129, -46, 101, -27, -56, 3, -1,
    9, -99, -90, 40, 27, 53, 31, 26, -61, 45, 226, -7, -5, 111, -2, -65,
    -6, -154, -23, -7, 3, 35, -50, -104, 50, 131, 148, 43, 53, -24, 13, -130,
    148, 45, 6, -29, 6, 32, 147, -30, -28, 65, 48, 0, 7, -1, -19, 123,
    -69, 71, 184, 66, -4, 68, 15, -97, -23, 48, -28, -121, -33, -2, 101, 79,
    98, 96, 83, 111, -15, 33, 61, 35, 5, 47, -97, 28, 93, -75, -29, 57,
    -25, 103, 62, -77, 18, -51, 109, -41, -50, 14, 40, 11, 61, 4, 69, 183,
    -13, 23, 67, 3, -47, 77, 25, -6, 47, 205, 17, 86, 14, -42, -144, 88,
    125, -62, -131, 102, 140, 68, 23, -100, 15, -121, -99, -34, 154, -10, 39, -102,
    17, -94, -39, 106, 172, -10, 71, 60, 123, 87, 74, -18, 0, 32, -29, 21,
    -34, 102, 63, -86, 73, 53, -13, 105, 3, 175, 1, 90, 16, -6, -35, 38,
    -67, 187, 124, -40, 5, -33, -20, 85, 68, 154, -70, 83, -10, -30, 53, -5,
    -42, -86, 144, 127, 23, -93, -139, -30, 27, 49, 101, 113, 123, -48, -15, -91,
    104, -3, -122, 30, 33, -4, 75, 98, 68, 55, 132, 186, 22, 24, 0, -16,
    -122, -7, 89, 120, -44, 33, 92, 34, 135, 24, 93, -43, 33, 40, 24, 98,
    -25, 106, 110, 26, 28, 100, 27, -4, 79, 61, 123, -98, -59, 30, -6, 92,
    -65, -59, 27, -51, -45, -29, 107, -32, 98, 1, 213, -24, -57, -381, -49, -34,
    70, 104, 101, 42, 115, -24, 16, 122, 21, 6, -134, 67, 102, -150, 25, 14,
    29, 110, 1, 122, 28, -20, 21, 83, 37, 37, 45, -123, -96, -19, 83, 73,
    -86, -114, 60, 149, 62, -72, -111, 52, 172, -51, 41, 21, 116, -48, -25, -22,
    157, 28, -69, 5, 107, -59, 79, -109, -67, 153, 23, 32, 99, 13, -73, -40,
    182, 196, 19, 99, 76, 58, 101, 157, 52, 10, 1, 125, 136, 73, 95, 99,
    -36, 65, 90, -72, -97, -33, 26, -82, 202, -138, 150, -136, -117, -44, -9, 79,
    144, -15, 29, -9, -38, -199, -73, -120, -14, 10, 37, 44, -52, 44, -180, 26,
    -118, -86, 35, -25, -193, 119, 70, 82, 107, 153, 66, -51, -114, -174, -32, -5,
    21, -32, 69, 79, 80, -89, 38, 131, -53, 8, -88, 1, -239, -51, -98, 128,
    -113, 75, 23, -99, 95, -74, -16, -208, -57, 48, 92, -101, -117, -122, 28, 107,
    -138, -33, -77, -12, 38, -87, -246, 62, -55, 93, -44, -216, 122, -112, -26, -124,
    3, -32, -118, -20, -75, 14, 58, 110, -136, -70, -138, 75, -112, -172, -61, 60,
    18, -53, 175, -97, 110, -65, -23, -123, -200, 221, -138, -57, 60, 56, 117, -126,
    -120, -59, -98, -84, 26, 195, -134, -30, -152, -46, -192, -132, 151, -1, -59, -115,
    -78, -79, -16, 47, -65, -181, 132, -157, 2, 104, -120, 129, -28, -131, -50, 49,
    85, 4, -20, -40, 39, 70, -62, -137, 80, -16,
};

static const int16_t TEST_IMAGES[100][784] = {
    { /* image 0 */
        64, 0, 83, 195, 0, 0, 202, 98, 0, 69, 0, 0, 31, 0, 0, 0,
        0, 40, 0, 0, 188, 0, 9, 0, 0, 14, 0, 48, 0, 0, 0, 237,
        0, 0, 105, 0, 27, 0, 0, 25, 95, 22, 0, 0, 0, 0, 0, 135,
        44, 0, 41, 0, 0, 78, 132, 119, 0, 0, 42, 125, 0, 0, 0, 0,
        104, 174, 0, 128, 46, 0, 46, 197, 0, 200, 0, 105, 11, 0, 12, 0,
        0, 46, 189, 0, 0, 0, 117, 42, 0, 66, 12, 124, 0, 0, 0, 0,
        38, 33, 1, 0, 0, 0, 0, 0, 0, 52, 241, 22, 33, 0, 0, 0,
        8, 256, 0, 39, 0, 0, 146, 96, 101, 0, 180, 0, 75, 256, 0, 0,
        13, 0, 0, 9, 0, 61, 0, 198, 0, 0, 104, 0, 29, 167, 0, 24,
        33, 100, 0, 0, 67, 38, 32, 44, 0, 30, 38, 0, 239, 61, 0, 84,
        0, 101, 148, 0, 123, 53, 105, 243, 0, 0, 0, 0, 0, 44, 35, 106,
        2, 186, 0, 256, 80, 0, 0, 62, 0, 91, 61, 0, 0, 0, 0, 110,
        27, 0, 22, 49, 0, 20, 7, 0, 46, 72, 223, 256, 0, 32, 126, 102,
        66, 256, 73, 145, 122, 83, 0, 97, 0, 0, 0, 10, 256, 0, 88, 0,
        0, 139, 8, 0, 0, 87, 129, 256, 256, 172, 256, 256, 0, 223, 114, 256,
        97, 184, 256, 256, 17, 9, 0, 0, 226, 52, 0, 117, 256, 132, 0, 0,
        162, 0, 124, 214, 0, 107, 0, 97, 223, 66, 256, 72, 199, 256, 256, 71,
        256, 142, 0, 59, 25, 0, 9, 0, 15, 85, 203, 0, 256, 0, 0, 75,
        36, 0, 0, 0, 0, 123, 113, 0, 182, 99, 125, 256, 149, 35, 96, 78,
        0, 15, 164, 0, 70, 0, 0, 141, 106, 104, 167, 3, 87, 0, 41, 0,
        12, 76, 0, 256, 0, 0, 232, 256, 256, 98, 0, 0, 10, 0, 125, 0,
        0, 0, 53, 0, 0, 31, 31, 0, 0, 30, 0, 0, 0, 0, 40, 189,
        110, 2, 231, 128, 81, 0, 41, 0, 66, 196, 0, 51, 88, 0, 29, 2,
        13, 0, 3, 64, 186, 123, 256, 0, 112, 23, 256, 0, 0, 53, 0, 172,
        0, 19, 44, 240, 122, 0, 0, 63, 0, 234, 151, 0, 0, 173, 0, 158,
        0, 0, 1, 6, 0, 80, 0, 0, 75, 256, 256, 0, 0, 164, 43, 0,
        199, 15, 151, 9, 256, 225, 0, 124, 83, 175, 0, 88, 135, 0, 0, 0,
        0, 92, 192, 9, 256, 78, 0, 0, 49, 0, 0, 0, 0, 86, 47, 0,
        0, 0, 0, 122, 0, 65, 0, 0, 0, 0, 0, 0, 251, 5, 0, 36,
        191, 221, 137, 97, 0, 0, 0, 0, 0, 175, 211, 0, 74, 40, 256, 143,
        0, 0, 0, 26, 0, 0, 0, 0, 216, 113, 0, 256, 256, 72, 195, 69,
        0, 0, 0, 0, 119, 244, 0, 72, 0, 0, 0, 0, 6, 0, 35, 0,
        0, 0, 0, 97, 64, 0, 88, 256, 27, 127, 0, 73, 0, 0, 0, 6,
        33, 0, 82, 0, 0, 0, 0, 6, 0, 0, 129, 0, 107, 0, 68, 185,
        0, 0, 256, 229, 214, 0, 11, 0, 149, 33, 43, 0, 0, 0, 50, 0,
        37, 256, 112, 0, 154, 0, 0, 0, 0, 0, 2, 215, 45, 176, 256, 0,
        65, 99, 0, 146, 43, 0, 81, 256, 23, 32, 0, 0, 106, 0, 9, 0,
        61, 43, 133, 0, 0, 0, 0, 48, 135, 137, 256, 251, 53, 240, 0, 0,
        0, 191, 84, 0, 36, 0, 256, 17, 14, 93, 62, 29, 0, 60, 241, 172,
        204, 0, 0, 15, 232, 256, 0, 197, 0, 0, 0, 0, 105, 9, 0, 0,
        0, 214, 0, 0, 0, 0, 0, 0, 0, 89, 237, 144, 0, 0, 256, 141,
        256, 252, 78, 0, 0, 0, 0, 0, 0, 14, 0, 193, 0, 140, 159, 0,
        0, 0, 0, 0, 0, 224, 120, 163, 92, 0, 0, 256, 99, 256, 21, 0,
        91, 57, 0, 148, 0, 79, 76, 0, 42, 0, 118, 0, 0, 134, 0, 0,
        0, 78, 0, 225, 0, 217, 148, 243, 185, 256, 35, 141, 15, 19, 0, 0,
        39, 0, 0, 95, 22, 0, 2, 44, 0, 0, 25, 0, 52, 0, 132, 60,
        33, 126, 256, 256, 0, 0, 0, 3, 66, 0, 24, 0, 0, 0, 0, 0,
        0, 135, 0, 256, 63, 24, 0, 90, 0, 16, 256, 0, 147, 0, 0, 227,
        0, 232, 91, 0, 81, 124, 80, 0, 0, 0, 0, 79, 23, 0, 49, 78,
    },
    { /* image 1 */
        72, 138, 107, 59, 0, 0, 55, 27, 35, 0, 0, 135, 0, 87, 4, 4,
        120, 0, 12, 0, 0, 0, 28, 0, 161, 0, 0, 0, 185, 25, 132, 0,
        34, 114, 11, 136, 0, 180, 256, 0, 0, 186, 202, 0, 0, 0, 0, 0,
        0, 0, 0, 30, 198, 0, 126, 0, 0, 86, 0, 49, 21, 63, 37, 256,
        0, 0, 0, 0, 0, 152, 182, 0, 0, 60, 0, 81, 26, 0, 198, 230,
        0, 0, 37, 43, 84, 256, 0, 0, 0, 0, 0, 230, 0, 29, 114, 256,
        256, 188, 193, 256, 181, 236, 75, 0, 76, 142, 105, 65, 137, 150, 177, 83,
        0, 19, 154, 0, 47, 0, 4, 164, 24, 176, 80, 256, 256, 256, 215, 256,
        251, 232, 0, 36, 78, 24, 0, 25, 137, 0, 17, 0, 153, 0, 0, 48,
        200, 0, 0, 241, 0, 0, 256, 190, 83, 233, 208, 182, 90, 234, 83, 0,
        236, 0, 0, 0, 0, 31, 0, 45, 0, 185, 0, 143, 44, 58, 73, 110,
        256, 256, 236, 123, 1, 184, 0, 256, 249, 0, 16, 0, 108, 0, 0, 0,
        0, 0, 0, 97, 101, 54, 0, 0, 0, 0, 192, 190, 224, 214, 52, 0,
        0, 0, 0, 213, 256, 147, 0, 73, 179, 118, 8, 0, 89, 50, 115, 81,
        134, 0, 169, 25, 256, 0, 222, 25, 0, 0, 0, 54, 67, 0, 207, 256,
        256, 121, 5, 15, 79, 0, 0, 0, 51, 83, 0, 201, 0, 0, 29, 134,
        216, 0, 138, 0, 0, 113, 83, 0, 189, 256, 168, 256, 256, 43, 0, 0,
        0, 150, 70, 0, 99, 0, 147, 0, 0, 0, 0, 149, 0, 44, 0, 61,
        10, 0, 128, 0, 0, 193, 256, 256, 19, 0, 0, 256, 49, 55, 132, 31,
        0, 0, 0, 0, 93, 7, 94, 0, 10, 0, 117, 44, 128, 0, 256, 0,
        256, 121, 256, 10, 0, 245, 0, 28, 111, 63, 19, 47, 256, 0, 26, 134,
        142, 152, 82, 0, 209, 0, 39, 0, 0, 42, 41, 231, 256, 256, 128, 135,
        152, 0, 76, 90, 0, 176, 0, 16, 0, 2, 0, 0, 204, 0, 0, 0,
        0, 0, 210, 129, 0, 256, 151, 193, 0, 256, 0, 0, 131, 256, 177, 72,
        76, 109, 97, 36, 13, 0, 0, 0, 0, 0, 0, 0, 23, 178, 118, 0,
        0, 120, 73, 225, 256, 18, 13, 0, 0, 41, 0, 56, 0, 71, 29, 175,
        16, 0, 16, 70, 6, 5, 0, 0, 0, 224, 0, 0, 0, 193, 211, 256,
        104, 48, 0, 256, 0, 40, 81, 53, 0, 0, 6, 0, 123, 256, 0, 0,
        0, 256, 0, 210, 215, 0, 73, 208, 0, 175, 180, 124, 58, 0, 4, 0,
        30, 0, 42, 107, 0, 48, 157, 0, 214, 54, 0, 0, 71, 10, 69, 0,
        22, 0, 0, 0, 40, 256, 256, 252, 0, 0, 155, 18, 256, 50, 25, 0,
        17, 0, 91, 122, 0, 0, 0, 65, 0, 0, 50, 256, 0, 107, 10, 0,
        256, 217, 256, 66, 0, 127, 0, 0, 69, 0, 4, 0, 139, 61, 0, 105,
        178, 71, 1, 0, 0, 0, 0, 0, 7, 68, 0, 62, 256, 1, 134, 25,
        0, 97, 216, 176, 0, 191, 24, 0, 0, 0, 101, 172, 171, 148, 66, 152,
        122, 0, 0, 120, 0, 0, 0, 0, 256, 256, 180, 0, 184, 256, 65, 256,
        167, 218, 182, 129, 256, 234, 250, 135, 197, 141, 101, 219, 0, 0, 188, 0,
        0, 133, 0, 234, 256, 192, 256, 176, 256, 256, 256, 256, 256, 158, 256, 167,
        256, 256, 201, 193, 0, 0, 211, 0, 0, 69, 152, 92, 127, 0, 0, 192,
        0, 86, 256, 195, 182, 256, 172, 256, 256, 190, 256, 188, 110, 137, 0, 0,
        0, 0, 256, 0, 0, 0, 39, 104, 110, 0, 0, 36, 0, 206, 63, 94,
        85, 150, 23, 0, 51, 0, 0, 75, 159, 3, 40, 218, 31, 256, 72, 0,
        96, 49, 165, 86, 0, 0, 0, 0, 0, 75, 214, 51, 0, 57, 153, 0,
        0, 2, 0, 83, 0, 54, 0, 0, 92, 0, 221, 0, 29, 119, 0, 0,
        0, 162, 0, 256, 0, 24, 197, 256, 256, 155, 131, 76, 100, 0, 0, 0,
        0, 0, 89, 122, 11, 189, 0, 0, 0, 0, 0, 0, 194, 81, 0, 237,
        156, 75, 0, 0, 0, 139, 241, 198, 0, 0, 18, 0, 41, 0, 0, 0,
        66, 0, 0, 0, 0, 227, 213, 0, 0, 60, 0, 39, 98, 157, 0, 0,
        0, 0, 0, 47, 117, 0, 191, 0, 0, 0, 0, 113, 94, 0, 9, 66,
    },
    { /* image 2 */
        0, 0, 102, 0, 38, 0, 60, 0, 0, 149, 0, 0, 26, 147, 0, 8,
        55, 89, 23, 0, 0, 11, 0, 0, 56, 116, 0, 0, 79, 256, 3, 0,
        0, 176, 0, 0, 0, 0, 16, 208, 41, 0, 0, 0, 113, 0, 0, 256,
        38, 0, 0, 147, 14, 0, 118, 0, 240, 138, 0, 164, 9, 109, 62, 0,
        0, 132, 0, 0, 0, 54, 256, 0, 3, 181, 0, 58, 0, 55, 0, 126,
        152, 256, 74, 42, 25, 0, 43, 0, 22, 169, 0, 146, 169, 0, 0, 0,
        166, 0, 0, 0, 108, 70, 0, 0, 0, 0, 207, 0, 156, 195, 128, 0,
        52, 0, 0, 42, 0, 152, 0, 26, 36, 0, 75, 0, 112, 0, 16, 248,
        0, 168, 175, 23, 45, 63, 81, 142, 52, 0, 86, 243, 0, 0, 142, 0,
        0, 108, 0, 0, 42, 24, 91, 0, 66, 0, 95, 79, 0, 256, 14, 103,
        47, 235, 0, 0, 0, 0, 102, 0, 0, 0, 122, 219, 0, 0, 9, 149,
        0, 31, 125, 64, 24, 128, 0, 87, 52, 8, 65, 176, 0, 122, 206, 168,
        210, 95, 10, 0, 0, 0, 256, 0, 16, 71, 6, 217, 0, 25, 0, 0,
        0, 0, 0, 0, 65, 140, 0, 97, 11, 0, 0, 0, 41, 172, 0, 15,
        0, 86, 27, 0, 0, 0, 138, 3, 243, 0, 0, 0, 0, 0, 34, 149,
        53, 178, 0, 19, 206, 115, 0, 0, 0, 0, 0, 0, 0, 10, 0, 0,
        22, 57, 0, 181, 0, 2, 91, 30, 122, 37, 0, 249, 77, 25, 0, 0,
        0, 0, 0, 12, 20, 0, 162, 0, 124, 55, 0, 227, 0, 118, 128, 0,
        178, 0, 37, 33, 0, 104, 134, 31, 256, 0, 132, 144, 0, 0, 0, 0,
        0, 100, 168, 179, 0, 0, 0, 0, 124, 207, 0, 0, 0, 36, 0, 54,
        0, 0, 165, 256, 140, 0, 0, 0, 0, 205, 72, 0, 89, 0, 150, 47,
        0, 57, 0, 0, 0, 18, 222, 256, 82, 64, 0, 0, 0, 0, 119, 195,
        0, 96, 0, 31, 256, 0, 0, 0, 141, 251, 0, 64, 0, 0, 256, 0,
        32, 60, 139, 13, 39, 0, 34, 0, 80, 10, 256, 202, 152, 0, 0, 162,
        0, 0, 0, 176, 0, 256, 135, 29, 0, 37, 67, 83, 71, 11, 0, 0,
        0, 145, 76, 0, 84, 149, 254, 116, 144, 121, 0, 52, 0, 0, 0, 110,
        122, 66, 93, 66, 0, 55, 102, 97, 152, 91, 45, 137, 0, 0, 0, 0,
        0, 153, 154, 42, 0, 27, 0, 0, 84, 120, 0, 0, 0, 0, 106, 0,
        0, 0, 81, 0, 8, 36, 174, 0, 0, 24, 230, 159, 51, 170, 256, 0,
        61, 65, 136, 256, 50, 0, 0, 0, 0, 0, 0, 20, 0, 143, 0, 0,
        0, 20, 106, 0, 0, 0, 0, 0, 60, 256, 193, 25, 109, 0, 50, 0,
        34, 0, 0, 0, 182, 119, 124, 158, 11, 25, 0, 0, 79, 154, 0, 0,
        0, 77, 0, 0, 81, 99, 78, 0, 0, 186, 42, 38, 80, 0, 133, 0,
        86, 0, 0, 105, 48, 0, 0, 144, 0, 210, 0, 82, 0, 77, 0, 0,
        234, 127, 161, 0, 0, 0, 0, 0, 256, 100, 0, 0, 3, 70, 0, 143,
        92, 92, 56, 3, 86, 76, 0, 0, 13, 198, 0, 0, 256, 256, 88, 31,
        0, 191, 0, 0, 0, 0, 0, 213, 3, 30, 0, 0, 0, 0, 164, 71,
        0, 32, 64, 146, 202, 0, 0, 0, 225, 256, 129, 0, 0, 19, 0, 256,
        0, 24, 256, 1, 0, 0, 0, 176, 0, 196, 0, 0, 0, 75, 0, 59,
        256, 0, 34, 131, 256, 124, 0, 62, 231, 0, 92, 0, 0, 60, 190, 46,
        0, 0, 0, 77, 113, 0, 0, 34, 0, 0, 256, 0, 0, 0, 100, 176,
        94, 179, 182, 0, 0, 129, 0, 101, 0, 114, 0, 94, 2, 0, 0, 88,
        14, 75, 253, 0, 207, 13, 0, 0, 0, 118, 0, 193, 0, 0, 0, 47,
        114, 0, 0, 25, 56, 52, 158, 0, 87, 153, 0, 41, 0, 0, 45, 0,
        0, 4, 0, 0, 87, 0, 85, 59, 0, 0, 153, 0, 0, 59, 100, 0,
        0, 182, 223, 125, 11, 0, 0, 67, 54, 179, 83, 0, 135, 0, 0, 32,
        255, 256, 78, 0, 68, 114, 0, 230, 29, 64, 85, 54, 107, 0, 0, 0,
        56, 100, 59, 214, 0, 86, 0, 0, 89, 109, 0, 0, 0, 0, 114, 74,
        64, 6, 1, 0, 89, 54, 63, 0, 0, 140, 0, 0, 89, 0, 136, 79,
    },
    { /* image 3 */
        87, 0, 155, 33, 0, 18, 0, 52, 0, 0, 0, 142, 0, 196, 0, 0,
        0, 158, 0, 0, 20, 64, 143, 185, 0, 0, 0, 33, 0, 0, 44, 0,
        4, 0, 0, 0, 114, 133, 0, 0, 0, 0, 0, 0, 0, 0, 27, 9,
        0, 23, 0, 0, 214, 172, 0, 106, 104, 0, 105, 197, 0, 0, 130, 35,
        71, 44, 50, 0, 134, 150, 0, 0, 0, 66, 73, 0, 144, 0, 72, 0,
        0, 0, 29, 0, 0, 106, 0, 0, 224, 177, 0, 88, 0, 34, 38, 0,
        0, 0, 0, 0, 0, 0, 87, 190, 0, 31, 64, 60, 10, 95, 62, 0,
        111, 114, 0, 5, 87, 0, 137, 256, 0, 0, 39, 92, 0, 256, 83, 256,
        0, 220, 255, 0, 0, 110, 0, 0, 3, 0, 0, 0, 0, 185, 0, 104,
        0, 0, 101, 44, 73, 124, 0, 0, 0, 146, 256, 256, 0, 0, 62, 70,
        70, 0, 0, 42, 11, 0, 0, 0, 22, 256, 47, 0, 118, 62, 54, 78,
        256, 0, 61, 0, 256, 134, 199, 216, 232, 118, 0, 7, 0, 0, 0, 0,
        256, 55, 0, 0, 131, 256, 0, 0, 239, 50, 0, 68, 0, 0, 152, 256,
        122, 256, 134, 256, 55, 57, 0, 83, 110, 0, 5, 0, 0, 0, 256, 0,
        187, 128, 36, 225, 48, 50, 0, 157, 140, 0, 85, 226, 150, 244, 256, 195,
        247, 256, 256, 0, 0, 27, 154, 0, 0, 79, 0, 0, 0, 0, 0, 0,
        115, 163, 83, 0, 0, 182, 256, 256, 160, 256, 256, 256, 256, 256, 256, 256,
        52, 0, 180, 89, 0, 0, 38, 59, 25, 40, 218, 137, 24, 120, 0, 51,
        256, 194, 145, 169, 113, 152, 100, 0, 64, 244, 136, 256, 171, 132, 0, 109,
        0, 114, 22, 71, 0, 0, 76, 0, 59, 0, 109, 0, 256, 256, 165, 256,
        254, 69, 0, 0, 45, 0, 243, 218, 256, 75, 0, 94, 43, 40, 60, 0,
        97, 78, 0, 0, 0, 0, 43, 220, 256, 84, 256, 256, 70, 140, 256, 131,
        32, 134, 128, 255, 209, 256, 0, 196, 64, 0, 47, 0, 80, 113, 0, 16,
        250, 0, 0, 227, 256, 252, 256, 202, 0, 0, 158, 216, 72, 0, 256, 133,
        211, 256, 234, 109, 53, 59, 6, 71, 0, 0, 31, 0, 49, 0, 225, 238,
        194, 235, 0, 0, 25, 0, 0, 80, 81, 0, 147, 122, 256, 256, 160, 58,
        0, 0, 0, 0, 0, 0, 0, 0, 0, 0, 0, 202, 256, 169, 0, 0,
        0, 0, 0, 0, 0, 23, 186, 181, 201, 133, 31, 0, 73, 0, 0, 39,
        24, 256, 45, 0, 0, 0, 0, 111, 256, 182, 0, 0, 223, 0, 235, 104,
        83, 110, 256, 5, 218, 256, 24, 0, 0, 218, 160, 0, 122, 0, 0, 0,
        200, 0, 0, 179, 256, 256, 256, 0, 38, 0, 189, 0, 172, 112, 177, 145,
        144, 0, 0, 107, 0, 28, 156, 0, 0, 0, 151, 25, 0, 62, 0, 256,
        256, 213, 0, 0, 68, 157, 0, 241, 0, 177, 248, 136, 61, 0, 37, 0,
        0, 0, 0, 59, 0, 0, 0, 178, 0, 49, 18, 0, 256, 256, 138, 256,
        0, 256, 217, 256, 248, 200, 181, 256, 0, 96, 0, 0, 0, 161, 0, 46,
        0, 97, 88, 237, 0, 86, 13, 256, 160, 256, 229, 244, 256, 256, 237, 256,
        256, 256, 256, 89, 0, 122, 112, 189, 0, 0, 0, 0, 128, 0, 82, 0,
        41, 0, 11, 0, 207, 43, 256, 256, 256, 256, 131, 256, 256, 159, 180, 0,
        0, 0, 0, 0, 157, 0, 45, 0, 0, 35, 0, 0, 0, 254, 117, 14,
        224, 34, 256, 256, 256, 256, 256, 256, 0, 0, 0, 12, 0, 256, 194, 77,
        9, 0, 0, 10, 33, 0, 43, 0, 0, 0, 0, 242, 71, 0, 134, 0,
        256, 113, 59, 242, 0, 0, 0, 133, 0, 0, 0, 71, 154, 0, 0, 148,
        0, 0, 24, 57, 0, 4, 0, 0, 58, 0, 8, 57, 0, 22, 0, 0,
        78, 20, 0, 29, 91, 0, 148, 0, 54, 153, 0, 0, 0, 0, 222, 0,
        0, 26, 0, 0, 41, 0, 0, 0, 0, 41, 225, 2, 29, 89, 0, 218,
        26, 209, 0, 233, 99, 71, 30, 0, 154, 18, 0, 0, 0, 40, 0, 156,
        0, 18, 0, 97, 0, 54, 0, 164, 133, 75, 0, 74, 0, 110, 211, 137,
        0, 46, 0, 73, 58, 0, 0, 0, 0, 0, 50, 32, 0, 0, 134, 212,
        0, 0, 63, 0, 0, 95, 0, 169, 9, 0, 0, 0, 0, 191, 5, 57,
    },
    { /* image 4 */
        122, 0, 61, 0, 108, 0, 0, 0, 55, 60, 0, 0, 0, 0, 108, 0,
        0, 0, 0, 0, 0, 14, 170, 40, 0, 58, 0, 0, 0, 0, 0, 20,
        0, 0, 0, 78, 0, 99, 0, 0, 0, 0, 125, 66, 125, 67, 0, 0,
        0, 170, 0, 114, 114, 234, 0, 91, 256, 0, 0, 0, 91, 0, 0, 56,
        24, 54, 28, 164, 0, 0, 0, 106, 115, 58, 151, 0, 213, 195, 94, 228,
        0, 0, 0, 92, 0, 97, 175, 89, 36, 0, 0, 160, 100, 0, 0, 0,
        0, 245, 0, 24, 129, 0, 24, 120, 2, 256, 0, 136, 0, 99, 56, 0,
        29, 0, 77, 38, 82, 135, 47, 19, 0, 0, 152, 184, 0, 6, 0, 150,
        85, 248, 0, 0, 30, 83, 0, 0, 113, 92, 0, 173, 150, 17, 10, 71,
        0, 4, 0, 112, 0, 192, 8, 198, 0, 0, 182, 0, 163, 43, 0, 0,
        244, 0, 0, 146, 43, 0, 28, 0, 141, 136, 68, 46, 225, 0, 0, 58,
        256, 0, 75, 256, 0, 0, 144, 256, 25, 0, 0, 182, 256, 61, 0, 0,
        0, 107, 117, 0, 203, 73, 179, 0, 0, 0, 64, 230, 90, 0, 64, 256,
        0, 208, 0, 204, 87, 0, 0, 53, 256, 21, 0, 0, 10, 0, 59, 0,
        0, 0, 0, 0, 0, 250, 0, 23, 51, 86, 243, 0, 186, 231, 0, 0,
        0, 0, 65, 21, 256, 173, 27, 131, 142, 0, 0, 10, 110, 18, 0, 0,
        0, 0, 252, 0, 110, 256, 256, 0, 63, 73, 25, 0, 56, 0, 87, 209,
        225, 256, 0, 0, 255, 0, 0, 0, 108, 27, 0, 0, 0, 0, 55, 54,
        0, 256, 86, 177, 57, 141, 60, 172, 67, 0, 256, 256, 256, 0, 0, 37,
        19, 0, 18, 203, 89, 0, 0, 0, 0, 0, 0, 0, 227, 140, 0, 256,
        139, 0, 2, 0, 217, 243, 162, 256, 212, 0, 0, 17, 0, 0, 0, 0,
        7, 0, 0, 0, 125, 0, 148, 256, 214, 0, 0, 0, 0, 0, 196, 85,
        0, 0, 191, 224, 130, 0, 65, 248, 104, 0, 0, 0, 151, 0, 6, 7,
        0, 0, 56, 218, 256, 0, 156, 0, 219, 0, 56, 61, 0, 189, 256, 0,
        64, 0, 0, 209, 0, 0, 0, 256, 0, 0, 192, 238, 0, 0, 256, 256,
        252, 0, 0, 0, 42, 186, 113, 0, 176, 210, 256, 256, 0, 0, 0, 0,
        44, 256, 0, 0, 82, 16, 0, 0, 30, 0, 0, 256, 256, 25, 29, 138,
        29, 116, 0, 168, 63, 256, 91, 144, 0, 0, 0, 0, 256, 170, 246, 0,
        9, 0, 0, 0, 159, 0, 137, 247, 256, 10, 247, 232, 0, 214, 173, 136,
        90, 161, 256, 107, 100, 0, 0, 138, 0, 0, 4, 14, 0, 51, 89, 94,
        0, 0, 153, 156, 0, 256, 0, 256, 256, 132, 126, 256, 55, 172, 256, 0,
        0, 95, 54, 34, 0, 47, 0, 59, 0, 0, 0, 0, 0, 0, 33, 27,
        100, 0, 137, 155, 141, 0, 19, 47, 163, 0, 256, 256, 0, 0, 48, 40,
        153, 0, 94, 76, 0, 43, 132, 112, 0, 105, 0, 9, 9, 0, 153, 0,
        0, 0, 23, 157, 205, 144, 256, 79, 163, 0, 68, 107, 156, 135, 112, 0,
        0, 43, 119, 0, 136, 186, 0, 0, 0, 39, 0, 173, 54, 5, 0, 0,
        164, 0, 256, 0, 256, 256, 0, 0, 127, 218, 0, 0, 0, 75, 64, 137,
        0, 0, 110, 0, 0, 19, 102, 0, 0, 0, 0, 0, 36, 256, 256, 22,
        0, 0, 0, 23, 183, 0, 0, 42, 160, 0, 0, 0, 13, 256, 36, 0,
        41, 0, 0, 105, 29, 2, 0, 167, 221, 182, 256, 0, 0, 0, 0, 60,
        0, 0, 0, 0, 0, 0, 0, 0, 59, 0, 40, 0, 23, 167, 75, 0,
        33, 0, 1, 0, 212, 256, 0, 0, 0, 0, 0, 20, 0, 66, 4, 0,
        84, 104, 0, 54, 0, 13, 0, 0, 0, 0, 0, 0, 0, 34, 0, 23,
        94, 216, 0, 62, 151, 62, 0, 0, 133, 0, 0, 0, 158, 49, 0, 0,
        0, 0, 125, 0, 206, 106, 140, 0, 0, 0, 0, 63, 166, 0, 0, 0,
        0, 76, 0, 0, 0, 0, 0, 0, 0, 0, 41, 212, 18, 128, 0, 20,
        0, 0, 0, 153, 122, 31, 0, 0, 39, 22, 0, 0, 0, 69, 0, 0,
        18, 109, 89, 75, 0, 0, 0, 128, 178, 91, 55, 49, 0, 0, 214, 0,
        207, 0, 170, 0, 75, 0, 0, 28, 129, 0, 0, 0, 0, 70, 122, 0,
    },
    { /* image 5 */
        238, 29, 0, 0, 0, 0, 123, 59, 0, 22, 86, 196, 114, 97, 8, 50,
        160, 0, 0, 0, 49, 157, 0, 0, 0, 117, 69, 55, 0, 0, 66, 0,
        256, 73, 0, 0, 0, 0, 143, 24, 0, 242, 6, 98, 0, 46, 40, 0,
        256, 165, 0, 0, 44, 11, 46, 25, 65, 185, 73, 0, 174, 210, 256, 0,
        31, 0, 71, 0, 246, 0, 0, 0, 0, 96, 0, 4, 0, 0, 210, 46,
        0, 0, 2, 60, 0, 76, 0, 0, 0, 81, 3, 0, 0, 25, 0, 0,
        0, 89, 0, 0, 256, 0, 0, 100, 0, 0, 0, 0, 205, 103, 110, 0,
        0, 0, 0, 122, 66, 0, 0, 0, 26, 98, 0, 38, 119, 0, 90, 256,
        0, 50, 0, 23, 59, 25, 0, 26, 187, 57, 123, 0, 96, 36, 0, 41,
        0, 0, 24, 38, 0, 135, 73, 0, 0, 0, 0, 14, 31, 0, 58, 0,
        81, 0, 215, 0, 168, 0, 110, 10, 146, 0, 0, 182, 0, 28, 158, 0,
        76, 0, 0, 9, 0, 0, 173, 133, 220, 256, 217, 183, 0, 30, 147, 0,
        200, 0, 209, 0, 0, 0, 0, 0, 0, 0, 123, 27, 39, 0, 0, 230,
        0, 212, 0, 82, 256, 256, 151, 0, 0, 43, 114, 1, 79, 210, 49, 40,
        0, 0, 50, 0, 0, 31, 0, 144, 11, 0, 127, 0, 67, 0, 0, 215,
        256, 256, 39, 0, 0, 102, 0, 0, 126, 0, 0, 0, 0, 0, 0, 63,
        0, 39, 232, 0, 36, 0, 0, 0, 0, 46, 256, 163, 202, 243, 51, 34,
        164, 0, 0, 0, 140, 0, 0, 73, 31, 0, 0, 0, 14, 0, 63, 0,
        0, 0, 0, 0, 102, 0, 140, 256, 256, 119, 42, 0, 0, 108, 0, 151,
        0, 67, 239, 54, 35, 1, 0, 174, 0, 65, 0, 0, 184, 0, 186, 0,
        0, 114, 121, 256, 252, 0, 21, 256, 63, 0, 138, 27, 27, 0, 30, 133,
        0, 182, 0, 0, 128, 0, 97, 0, 0, 63, 37, 0, 0, 177, 238, 188,
        64, 0, 0, 0, 0, 0, 0, 47, 256, 0, 148, 125, 0, 26, 0, 24,
        193, 78, 65, 0, 0, 0, 154, 0, 0, 128, 129, 154, 78, 0, 0, 90,
        0, 0, 0, 94, 0, 0, 6, 0, 63, 49, 0, 129, 0, 144, 20, 0,
        0, 0, 156, 0, 0, 256, 179, 256, 246, 0, 87, 0, 97, 26, 61, 0,
        0, 64, 0, 0, 120, 25, 249, 131, 0, 3, 0, 0, 0, 0, 0, 6,
        28, 39, 256, 256, 29, 0, 76, 87, 39, 0, 35, 153, 0, 256, 0, 4,
        0, 29, 0, 0, 0, 17, 127, 83, 0, 256, 38, 0, 99, 256, 170, 180,
        0, 0, 0, 0, 19, 75, 66, 105, 42, 0, 107, 0, 0, 0, 138, 121,
        62, 137, 0, 45, 0, 108, 0, 0, 233, 256, 153, 45, 0, 0, 26, 78,
        34, 0, 0, 0, 175, 0, 161, 121, 0, 0, 45, 0, 13, 0, 0, 0,
        29, 0, 0, 117, 256, 220, 167, 64, 0, 29, 71, 87, 0, 0, 0, 13,
        62, 192, 0, 0, 147, 38, 162, 37, 0, 0, 0, 85, 152, 237, 108, 235,
        181, 107, 240, 53, 14, 50, 41, 164, 166, 70, 108, 66, 0, 97, 0, 135,
        0, 37, 0, 71, 0, 0, 54, 0, 113, 0, 51, 0, 180, 176, 130, 215,
        0, 138, 0, 0, 0, 0, 0, 53, 0, 49, 88, 34, 84, 0, 0, 135,
        0, 0, 0, 0, 0, 44, 45, 61, 193, 256, 69, 256, 151, 146, 0, 98,
        0, 0, 22, 121, 64, 0, 95, 0, 28, 0, 0, 98, 0, 249, 0, 0,
        47, 75, 0, 204, 256, 167, 178, 107, 112, 0, 0, 0, 0, 46, 0, 84,
        0, 220, 0, 28, 101, 0, 109, 0, 186, 2, 0, 0, 104, 0, 0, 130,
        104, 256, 0, 106, 27, 0, 0, 100, 0, 153, 131, 118, 0, 0, 0, 25,
        70, 0, 0, 20, 0, 165, 54, 168, 0, 120, 209, 194, 18, 75, 0, 63,
        88, 0, 9, 0, 185, 0, 7, 0, 147, 0, 0, 0, 0, 221, 0, 99,
        46, 161, 0, 0, 140, 54, 0, 0, 49, 107, 0, 0, 67, 0, 0, 0,
        104, 16, 0, 178, 82, 207, 0, 0, 0, 0, 0, 80, 6, 80, 90, 256,
        0, 0, 31, 0, 190, 0, 0, 0, 92, 0, 0, 213, 0, 5, 83, 0,
        61, 0, 105, 0, 89, 142, 110, 32, 0, 0, 188, 0, 0, 85, 0, 0,
        0, 0, 0, 31, 122, 67, 0, 0, 65, 163, 16, 0, 0, 0, 85, 74,
    },
    { /* image 6 */
        74, 0, 180, 0, 122, 0, 0, 76, 52, 46, 10, 0, 256, 152, 93, 14,
        129, 66, 3, 0, 0, 0, 27, 0, 204, 2, 0, 0, 0, 61, 37, 123,
        0, 4, 0, 90, 66, 63, 0, 53, 205, 0, 18, 0, 0, 13, 141, 0,
        0, 0, 0, 38, 0, 164, 0, 92, 0, 86, 86, 49, 0, 32, 0, 0,
        132, 102, 2, 0, 83, 2, 0, 100, 0, 154, 0, 0, 36, 37, 0, 0,
        256, 0, 94, 0, 0, 0, 0, 0, 0, 34, 0, 0, 62, 0, 0, 95,
        65, 0, 0, 0, 0, 0, 0, 83, 183, 0, 97, 0, 84, 0, 39, 0,
        169, 0, 80, 0, 0, 0, 0, 0, 0, 31, 11, 102, 118, 0, 111, 0,
        75, 79, 0, 12, 0, 0, 173, 0, 0, 10, 88, 0, 149, 68, 0, 0,
        0, 61, 0, 256, 68, 41, 256, 256, 144, 121, 17, 0, 0, 0, 0, 0,
        0, 0, 102, 0, 19, 0, 256, 174, 0, 30, 0, 0, 0, 55, 0, 124,
        144, 256, 142, 231, 81, 0, 0, 206, 29, 81, 0, 0, 0, 205, 106, 36,
        0, 0, 86, 77, 0, 0, 0, 0, 82, 119, 0, 0, 224, 149, 81, 170,
        106, 20, 0, 27, 136, 0, 173, 165, 256, 256, 176, 181, 57, 0, 0, 31,
        0, 0, 140, 0, 196, 144, 0, 140, 254, 256, 147, 0, 75, 0, 11, 0,
        224, 133, 0, 0, 206, 229, 44, 160, 101, 124, 42, 0, 0, 136, 0, 64,
        0, 0, 6, 193, 170, 66, 0, 143, 0, 186, 196, 0, 0, 0, 0, 56,
        256, 107, 50, 0, 0, 114, 37, 0, 72, 209, 0, 9, 25, 256, 0, 256,
        190, 84, 0, 0, 91, 256, 103, 0, 0, 0, 0, 213, 252, 0, 134, 62,
        0, 0, 205, 94, 1, 0, 10, 0, 0, 256, 183, 256, 171, 0, 0, 0,
        256, 0, 0, 0, 174, 133, 80, 256, 94, 69, 92, 256, 256, 0, 208, 49,
        64, 0, 0, 0, 106, 137, 0, 251, 256, 168, 256, 115, 114, 36, 0, 0,
        256, 256, 236, 115, 0, 134, 0, 0, 95, 0, 4, 206, 0, 37, 0, 0,
        78, 0, 77, 242, 256, 256, 256, 256, 127, 256, 256, 118, 256, 256, 218, 100,
        11, 0, 0, 0, 0, 218, 0, 0, 114, 0, 0, 9, 132, 64, 32, 27,
        116, 163, 123, 239, 0, 148, 76, 256, 249, 74, 144, 66, 214, 0, 0, 105,
        0, 0, 0, 0, 88, 0, 0, 0, 19, 13, 56, 108, 50, 58, 0, 6,
        61, 93, 0, 0, 182, 256, 153, 0, 116, 16, 0, 0, 96, 42, 256, 0,
        66, 0, 0, 0, 18, 256, 0, 0, 35, 0, 0, 2, 102, 125, 0, 141,
        156, 0, 40, 0, 0, 0, 70, 231, 0, 0, 0, 2, 28, 0, 0, 47,
        133, 0, 0, 27, 0, 222, 0, 0, 71, 0, 0, 200, 256, 7, 0, 118,
        0, 0, 19, 99, 256, 106, 148, 0, 0, 8, 14, 0, 0, 51, 46, 65,
        37, 0, 0, 0, 228, 2, 130, 136, 256, 0, 0, 53, 77, 123, 231, 65,
        0, 0, 39, 256, 0, 154, 23, 107, 0, 0, 96, 84, 124, 0, 0, 0,
        105, 54, 108, 176, 0, 0, 0, 0, 0, 0, 0, 256, 160, 0, 35, 53,
        152, 0, 140, 0, 0, 93, 165, 256, 0, 89, 0, 100, 0, 0, 156, 243,
        0, 84, 131, 77, 207, 53, 0, 175, 0, 117, 201, 58, 0, 0, 169, 0,
        10, 97, 89, 36, 0, 0, 110, 71, 0, 256, 237, 49, 0, 0, 0, 158,
        0, 24, 0, 0, 0, 0, 0, 69, 29, 0, 139, 27, 25, 0, 0, 28,
        61, 0, 0, 0, 33, 256, 155, 91, 26, 102, 117, 99, 0, 55, 0, 0,
        0, 214, 0, 0, 0, 4, 79, 48, 21, 149, 0, 115, 0, 0, 0, 0,
        0, 223, 256, 136, 230, 0, 204, 0, 0, 203, 0, 0, 0, 0, 55, 95,
        256, 0, 78, 0, 0, 0, 0, 216, 108, 3, 173, 0, 0, 0, 101, 149,
        36, 25, 0, 103, 31, 94, 0, 40, 0, 0, 68, 12, 0, 1, 0, 147,
        0, 143, 0, 0, 0, 112, 0, 83, 0, 0, 0, 0, 4, 0, 119, 0,
        0, 84, 123, 0, 0, 0, 0, 0, 14, 0, 88, 0, 0, 152, 44, 0,
        0, 0, 0, 0, 97, 0, 0, 226, 41, 0, 0, 14, 218, 0, 125, 179,
        0, 0, 0, 0, 0, 84, 140, 0, 0, 0, 38, 32, 0, 16, 194, 49,
        0, 0, 0, 210, 0, 0, 0, 141, 251, 58, 11, 5, 0, 95, 17, 55,
    },
    { /* image 7 */
        0, 0, 0, 131, 0, 256, 55, 0, 0, 0, 0, 205, 90, 68, 21, 0,
        0, 108, 0, 0, 0, 0, 17, 93, 82, 33, 153, 0, 65, 80, 0, 0,
        0, 0, 96, 0, 0, 0, 143, 2, 0, 0, 165, 0, 168, 27, 0, 256,
        0, 0, 0, 122, 216, 214, 157, 0, 0, 0, 256, 60, 0, 170, 0, 52,
        0, 82, 0, 0, 10, 134, 0, 99, 0, 0, 0, 96, 4, 88, 139, 89,
        35, 0, 0, 0, 0, 0, 0, 0, 0, 25, 0, 2, 243, 131, 210, 50,
        149, 0, 0, 0, 152, 197, 0, 0, 0, 49, 144, 0, 52, 0, 15, 59,
        0, 0, 0, 124, 54, 28, 0, 0, 115, 5, 84, 226, 133, 12, 0, 0,
        0, 0, 50, 0, 0, 0, 0, 61, 220, 0, 42, 122, 0, 47, 0, 111,
        19, 38, 0, 91, 256, 0, 0, 30, 101, 0, 0, 174, 97, 0, 0, 201,
        185, 120, 0, 11, 0, 144, 0, 0, 129, 0, 176, 0, 0, 0, 1, 0,
        0, 0, 89, 106, 0, 256, 256, 6, 0, 256, 0, 3, 23, 172, 46, 0,
        0, 0, 0, 6, 0, 0, 161, 0, 0, 0, 9, 0, 42, 0, 256, 256,
        203, 159, 6, 78, 0, 0, 7, 0, 0, 0, 125, 38, 0, 243, 11, 0,
        110, 51, 51, 0, 58, 0, 71, 0, 0, 249, 138, 178, 197, 98, 0, 0,
        17, 0, 0, 6, 131, 0, 0, 0, 74, 181, 0, 13, 43, 0, 3, 0,
        0, 47, 0, 26, 0, 20, 248, 97, 256, 80, 229, 106, 188, 0, 0, 109,
        4, 66, 0, 0, 14, 0, 80, 0, 26, 0, 242, 0, 89, 0, 39, 0,
        89, 196, 256, 256, 28, 166, 256, 256, 214, 100, 0, 249, 0, 12, 0, 0,
        38, 18, 0, 0, 256, 0, 65, 0, 38, 0, 0, 233, 230, 256, 0, 0,
        256, 69, 256, 256, 256, 94, 0, 88, 0, 23, 0, 0, 4, 34, 0, 153,
        0, 0, 0, 4, 21, 174, 0, 0, 0, 256, 104, 0, 0, 185, 26, 178,
        256, 39, 0, 0, 92, 0, 256, 0, 0, 0, 31, 0, 78, 0, 0, 0,
        0, 0, 0, 0, 256, 256, 113, 0, 0, 0, 151, 165, 171, 86, 0, 27,
        46, 0, 163, 0, 0, 49, 0, 41, 0, 178, 86, 0, 0, 214, 0, 0,
        0, 209, 180, 132, 0, 0, 256, 256, 54, 256, 47, 140, 0, 0, 0, 136,
        0, 0, 0, 0, 214, 0, 65, 0, 161, 52, 0, 0, 120, 0, 256, 114,
        256, 256, 256, 47, 0, 144, 239, 21, 151, 52, 0, 0, 13, 0, 214, 57,
        157, 0, 159, 256, 0, 99, 0, 0, 63, 175, 164, 256, 42, 0, 26, 3,
        43, 256, 256, 145, 0, 77, 0, 256, 0, 256, 4, 0, 175, 16, 109, 157,
        43, 0, 125, 0, 88, 0, 125, 77, 256, 92, 31, 62, 0, 256, 256, 212,
        204, 0, 0, 5, 56, 0, 69, 39, 0, 66, 111, 22, 148, 0, 60, 0,
        0, 0, 0, 0, 0, 107, 0, 0, 146, 0, 246, 256, 44, 140, 61, 0,
        256, 25, 0, 123, 32, 51, 256, 0, 0, 15, 137, 0, 0, 0, 0, 0,
        64, 0, 0, 9, 110, 0, 256, 256, 249, 156, 256, 0, 14, 0, 0, 196,
        0, 0, 176, 131, 0, 109, 44, 192, 10, 131, 256, 77, 6, 92, 0, 256,
        23, 0, 0, 256, 256, 0, 74, 0, 24, 58, 219, 0, 0, 0, 0, 171,
        198, 41, 156, 17, 0, 0, 0, 0, 34, 0, 95, 12, 0, 0, 9, 210,
        109, 184, 39, 0, 0, 30, 0, 45, 0, 136, 256, 0, 68, 0, 133, 0,
        62, 0, 0, 0, 105, 0, 71, 0, 0, 19, 0, 48, 256, 155, 196, 192,
        0, 0, 39, 0, 239, 4, 0, 0, 140, 0, 6, 122, 0, 0, 0, 87,
        76, 0, 8, 0, 0, 33, 242, 0, 0, 144, 256, 57, 0, 0, 12, 0,
        18, 112, 0, 0, 202, 0, 145, 0, 0, 56, 0, 17, 0, 0, 43, 0,
        0, 0, 204, 112, 123, 148, 24, 256, 0, 0, 53, 149, 0, 164, 139, 0,
        0, 123, 0, 0, 0, 0, 0, 0, 0, 0, 256, 239, 0, 203, 0, 17,
        0, 0, 256, 94, 0, 0, 0, 0, 2, 0, 0, 175, 154, 0, 0, 241,
        67, 0, 0, 50, 106, 0, 37, 0, 0, 0, 0, 124, 0, 7, 0, 46,
        0, 0, 171, 119, 0, 64, 69, 82, 0, 129, 0, 0, 256, 39, 0, 0,
        178, 0, 0, 0, 181, 99, 0, 39, 0, 18, 9, 124, 124, 63, 0, 95,
    },
    { /* image 8 */
        0, 0, 0, 11, 117, 0, 0, 7, 15, 24, 118, 130, 0, 0, 0, 89,
        185, 0, 0, 188, 65, 56, 0, 87, 0, 0, 0, 0, 0, 0, 123, 144,
        0, 125, 0, 110, 0, 4, 0, 155, 0, 78, 141, 92, 256, 0, 123, 0,
        158, 0, 0, 167, 0, 0, 0, 79, 178, 14, 169, 0, 0, 0, 0, 11,
        88, 0, 18, 0, 0, 0, 0, 0, 4, 10, 0, 163, 0, 0, 256, 0,
        0, 94, 0, 0, 256, 0, 0, 0, 115, 144, 0, 87, 178, 229, 0, 0,
        0, 0, 0, 0, 143, 163, 0, 141, 46, 8, 116, 9, 256, 0, 0, 0,
        56, 162, 0, 0, 108, 97, 0, 0, 0, 0, 0, 104, 15, 0, 113, 0,
        42, 0, 0, 112, 114, 187, 119, 125, 0, 23, 56, 0, 0, 42, 47, 0,
        0, 189, 63, 0, 0, 0, 167, 18, 0, 65, 0, 256, 256, 158, 174, 0,
        64, 44, 256, 212, 82, 0, 65, 68, 0, 0, 0, 115, 100, 0, 0, 0,
        0, 43, 0, 124, 0, 63, 52, 124, 103, 256, 165, 256, 205, 92, 232, 256,
        99, 104, 0, 0, 68, 0, 5, 0, 17, 0, 0, 79, 133, 0, 0, 38,
        152, 0, 141, 211, 256, 256, 225, 74, 256, 256, 184, 55, 256, 85, 0, 49,
        128, 151, 0, 0, 157, 0, 56, 0, 156, 99, 235, 63, 0, 256, 256, 256,
        71, 85, 88, 0, 228, 18, 0, 43, 0, 0, 0, 103, 143, 36, 0, 0,
        3, 0, 74, 70, 256, 256, 0, 105, 0, 121, 0, 0, 38, 0, 0, 0,
        11, 0, 0, 0, 50, 74, 0, 148, 51, 0, 0, 0, 0, 142, 94, 256,
        215, 256, 0, 188, 0, 91, 189, 0, 28, 165, 0, 0, 256, 0, 20, 148,
        0, 0, 32, 0, 0, 31, 0, 0, 204, 25, 256, 221, 121, 50, 0, 0,
        188, 0, 0, 170, 0, 0, 0, 223, 0, 7, 117, 54, 0, 0, 0, 24,
        0, 26, 87, 123, 0, 256, 256, 224, 168, 256, 0, 0, 0, 25, 47, 0,
        0, 0, 48, 186, 0, 56, 0, 59, 0, 0, 0, 0, 49, 0, 0, 0,
        0, 256, 145, 89, 0, 230, 71, 0, 142, 26, 33, 0, 0, 43, 0, 233,
        0, 197, 0, 38, 107, 0, 111, 0, 0, 0, 0, 0, 49, 256, 256, 162,
        175, 65, 120, 99, 4, 0, 0, 0, 0, 34, 92, 0, 2, 18, 0, 0,
        0, 0, 61, 0, 0, 60, 67, 0, 128, 256, 109, 149, 256, 233, 0, 0,
        90, 0, 0, 46, 256, 0, 137, 183, 184, 36, 0, 59, 134, 0, 223, 110,
        73, 139, 43, 0, 0, 256, 151, 225, 120, 256, 256, 141, 256, 167, 256, 256,
        256, 256, 256, 0, 0, 0, 0, 0, 0, 0, 0, 66, 0, 0, 114, 0,
        0, 50, 0, 0, 256, 256, 256, 256, 256, 229, 256, 256, 0, 256, 256, 161,
        211, 0, 0, 4, 0, 0, 0, 105, 112, 41, 105, 0, 154, 1, 7, 0,
        88, 13, 197, 56, 113, 256, 243, 196, 256, 176, 228, 256, 197, 201, 0, 158,
        0, 0, 0, 214, 0, 0, 0, 89, 0, 0, 57, 0, 0, 0, 0, 143,
        3, 60, 152, 0, 256, 256, 143, 247, 96, 0, 0, 0, 0, 0, 57, 0,
        0, 14, 49, 0, 119, 0, 0, 0, 0, 0, 239, 0, 256, 256, 256, 250,
        256, 127, 111, 52, 4, 0, 3, 217, 19, 0, 0, 115, 0, 236, 247, 33,
        0, 132, 140, 0, 0, 0, 52, 94, 0, 196, 82, 139, 256, 157, 137, 0,
        24, 0, 0, 0, 23, 0, 0, 231, 0, 0, 129, 256, 0, 58, 0, 0,
        0, 0, 0, 0, 144, 188, 256, 194, 175, 165, 0, 0, 0, 0, 0, 171,
        0, 149, 137, 0, 0, 256, 224, 0, 33, 0, 55, 0, 0, 0, 3, 0,
        0, 0, 0, 256, 54, 0, 113, 62, 185, 0, 0, 0, 0, 123, 166, 123,
        0, 139, 0, 115, 0, 90, 0, 150, 0, 0, 0, 0, 12, 231, 256, 12,
        143, 30, 64, 0, 25, 69, 0, 0, 0, 106, 0, 0, 245, 149, 173, 3,
        41, 128, 200, 0, 0, 168, 0, 0, 0, 0, 0, 256, 0, 0, 75, 123,
        121, 137, 0, 0, 98, 0, 0, 51, 101, 0, 91, 0, 91, 99, 206, 173,
        172, 185, 37, 4, 112, 94, 0, 52, 0, 0, 165, 7, 256, 0, 0, 4,
        146, 51, 40, 0, 0, 41, 0, 0, 64, 0, 205, 157, 0, 0, 0, 0,
        98, 0, 59, 0, 102, 0, 2, 0, 0, 0, 124, 51, 134, 42, 18, 0,
    },
    { /* image 9 */
        0, 0, 250, 88, 197, 76, 0, 15, 30, 0, 0, 0, 206, 0, 154, 0,
        0, 151, 94, 161, 102, 256, 72, 0, 44, 159, 0, 0, 0, 0, 18, 0,
        7, 111, 0, 215, 0, 152, 86, 0, 256, 0, 0, 0, 0, 0, 13, 0,
        81, 0, 0, 0, 0, 45, 0, 21, 168, 0, 136, 0, 224, 0, 0, 88,
        0, 0, 0, 0, 172, 0, 3, 80, 25, 168, 0, 0, 76, 13, 0, 66,
        0, 0, 0, 173, 0, 51, 4, 0, 40, 61, 75, 0, 175, 0, 88, 95,
        0, 85, 0, 0, 149, 0, 0, 0, 35, 0, 70, 0, 0, 0, 243, 0,
        139, 5, 0, 0, 0, 77, 176, 46, 152, 0, 0, 0, 40, 0, 93, 0,
        6, 88, 0, 256, 0, 0, 20, 4, 0, 127, 96, 38, 58, 0, 227, 0,
        18, 8, 104, 0, 0, 20, 36, 191, 0, 148, 256, 0, 0, 0, 2, 72,
        0, 199, 0, 0, 142, 0, 0, 256, 0, 0, 0, 0, 21, 85, 0, 216,
        31, 93, 0, 165, 0, 36, 0, 0, 88, 0, 0, 0, 89, 0, 0, 2,
        0, 0, 43, 0, 135, 124, 92, 233, 0, 83, 0, 256, 254, 2, 49, 174,
        0, 0, 168, 148, 225, 93, 0, 67, 116, 0, 184, 0, 0, 0, 0, 99,
        0, 175, 252, 0, 160, 0, 138, 134, 111, 0, 0, 0, 72, 110, 256, 201,
        149, 119, 163, 256, 127, 86, 0, 43, 58, 0, 131, 184, 0, 0, 0, 0,
        29, 0, 0, 197, 0, 205, 199, 9, 256, 240, 170, 198, 194, 256, 256, 256,
        54, 165, 256, 93, 256, 179, 31, 39, 0, 0, 2, 155, 0, 53, 109, 0,
        96, 105, 150, 90, 72, 256, 0, 16, 0, 256, 208, 256, 256, 194, 101, 256,
        0, 85, 136, 0, 133, 98, 221, 0, 0, 0, 35, 134, 204, 11, 256, 256,
        70, 78, 73, 51, 119, 256, 3, 0, 223, 256, 215, 61, 56, 107, 164, 10,
        0, 0, 6, 0, 178, 18, 121, 256, 174, 256, 40, 0, 0, 213, 0, 93,
        0, 256, 256, 255, 226, 256, 256, 0, 100, 0, 0, 0, 0, 0, 0, 132,
        0, 69, 33, 91, 256, 25, 115, 0, 238, 60, 112, 248, 153, 224, 61, 256,
        256, 256, 50, 101, 0, 192, 99, 0, 158, 0, 0, 61, 0, 131, 0, 41,
        129, 256, 177, 82, 177, 248, 104, 108, 256, 145, 214, 206, 118, 105, 121, 0,
        0, 163, 0, 221, 0, 25, 246, 0, 0, 38, 0, 0, 0, 56, 256, 236,
        179, 256, 167, 156, 178, 255, 119, 87, 0, 256, 0, 0, 221, 16, 96, 13,
        0, 0, 26, 0, 0, 0, 223, 256, 28, 0, 0, 60, 228, 0, 0, 256,
        256, 39, 122, 61, 0, 0, 130, 0, 0, 0, 161, 79, 11, 0, 0, 0,
        0, 0, 0, 0, 78, 0, 102, 173, 135, 179, 252, 129, 256, 256, 44, 245,
        0, 0, 109, 34, 168, 0, 0, 0, 0, 0, 124, 112, 46, 0, 0, 0,
        151, 0, 0, 4, 18, 256, 161, 76, 0, 3, 0, 0, 152, 85, 0, 175,
        85, 0, 0, 105, 51, 22, 0, 78, 0, 0, 185, 0, 0, 0, 127, 87,
        225, 190, 256, 134, 98, 0, 0, 0, 0, 0, 30, 0, 0, 0, 193, 0,
        21, 191, 0, 50, 0, 0, 0, 0, 256, 108, 141, 194, 49, 256, 256, 0,
        124, 90, 237, 0, 0, 0, 184, 0, 0, 11, 0, 1, 121, 0, 0, 256,
        0, 0, 141, 0, 0, 62, 152, 207, 256, 0, 250, 0, 176, 18, 0, 85,
        114, 82, 0, 0, 0, 0, 96, 0, 43, 0, 0, 0, 0, 0, 0, 0,
        68, 0, 201, 256, 256, 256, 0, 70, 0, 0, 52, 0, 191, 0, 79, 186,
        132, 0, 57, 109, 114, 0, 0, 127, 0, 0, 202, 0, 0, 0, 256, 84,
        223, 109, 166, 85, 0, 151, 0, 0, 0, 184, 21, 2, 210, 0, 0, 0,
        48, 21, 197, 31, 0, 0, 15, 0, 256, 256, 256, 256, 228, 0, 0, 77,
        49, 0, 182, 38, 93, 178, 3, 41, 104, 0, 7, 16, 0, 256, 0, 0,
        168, 91, 0, 78, 188, 224, 256, 13, 114, 149, 114, 0, 0, 57, 104, 77,
        133, 0, 0, 0, 0, 130, 14, 256, 25, 8, 14, 0, 0, 144, 15, 0,
        0, 56, 256, 256, 0, 0, 18, 0, 0, 0, 0, 25, 0, 0, 55, 221,
        210, 0, 74, 0, 20, 0, 15, 19, 0, 0, 0, 30, 77, 109, 0, 36,
        123, 149, 0, 0, 24, 0, 0, 95, 82, 0, 28, 0, 90, 0, 0, 0,
    },
    { /* image 10 */
        0, 0, 84, 0, 204, 188, 0, 9, 0, 0, 256, 0, 46, 69, 0, 0,
        0, 0, 0, 70, 256, 19, 0, 0, 0, 0, 110, 104, 0, 93, 195, 244,
        256, 0, 256, 0, 0, 42, 0, 51, 0, 0, 165, 0, 18, 61, 150, 0,
        75, 0, 21, 136, 0, 0, 0, 0, 170, 0, 0, 0, 0, 0, 50, 0,
        142, 0, 11, 0, 99, 100, 43, 72, 0, 69, 0, 0, 0, 0, 0, 60,
        168, 150, 0, 165, 0, 77, 0, 18, 40, 0, 78, 172, 0, 174, 0, 109,
        0, 256, 191, 0, 0, 37, 0, 57, 53, 0, 143, 103, 125, 1, 0, 125,
        0, 0, 173, 256, 0, 256, 12, 0, 0, 210, 0, 155, 0, 0, 250, 145,
        67, 256, 256, 83, 0, 0, 10, 41, 0, 93, 11, 0, 0, 0, 0, 242,
        30, 0, 28, 0, 42, 88, 256, 243, 256, 256, 164, 256, 256, 148, 256, 256,
        80, 0, 0, 91, 164, 73, 13, 192, 0, 132, 0, 55, 0, 0, 0, 172,
        0, 57, 256, 256, 0, 141, 0, 57, 0, 163, 109, 256, 34, 57, 0, 192,
        181, 101, 0, 254, 0, 0, 0, 256, 0, 0, 0, 121, 165, 256, 174, 136,
        0, 39, 0, 0, 0, 0, 60, 256, 256, 137, 40, 0, 13, 19, 0, 127,
        0, 12, 149, 118, 4, 0, 121, 86, 0, 153, 0, 127, 0, 145, 46, 171,
        0, 146, 0, 234, 64, 256, 0, 0, 56, 0, 0, 108, 0, 0, 5, 256,
        148, 149, 56, 21, 0, 168, 97, 0, 0, 0, 0, 105, 142, 53, 0, 0,
        0, 93, 44, 0, 0, 43, 0, 1, 146, 0, 54, 0, 0, 113, 113, 0,
        171, 256, 68, 75, 36, 235, 0, 0, 0, 77, 0, 44, 70, 161, 29, 0,
        139, 0, 80, 213, 34, 0, 60, 0, 0, 0, 119, 0, 244, 107, 114, 0,
        0, 112, 101, 0, 0, 256, 223, 93, 0, 240, 144, 162, 34, 0, 0, 144,
        205, 196, 97, 0, 0, 38, 0, 144, 256, 2, 71, 81, 87, 121, 77, 0,
        0, 12, 14, 128, 167, 256, 256, 10, 0, 158, 0, 0, 0, 0, 78, 0,
        0, 44, 80, 256, 139, 0, 0, 31, 190, 0, 0, 0, 0, 124, 70, 58,
        202, 194, 158, 256, 0, 94, 1, 0, 0, 0, 135, 101, 117, 0, 207, 91,
        227, 0, 0, 171, 0, 0, 3, 0, 256, 87, 0, 0, 0, 124, 229, 183,
        144, 29, 0, 34, 0, 220, 0, 0, 0, 0, 118, 83, 104, 101, 0, 135,
        0, 0, 0, 48, 256, 100, 0, 145, 44, 256, 256, 0, 0, 121, 19, 0,
        0, 0, 0, 256, 103, 256, 211, 256, 256, 48, 0, 132, 186, 0, 0, 18,
        106, 102, 0, 245, 81, 221, 94, 256, 31, 0, 111, 98, 0, 108, 0, 0,
        0, 0, 256, 256, 208, 213, 0, 0, 7, 0, 0, 146, 19, 91, 132, 101,
        115, 82, 94, 0, 11, 0, 256, 0, 0, 43, 0, 40, 75, 164, 0, 184,
        255, 99, 256, 122, 0, 0, 0, 0, 84, 33, 0, 110, 256, 241, 77, 49,
        208, 30, 0, 0, 32, 0, 0, 0, 0, 0, 170, 256, 213, 39, 12, 159,
        16, 0, 209, 47, 0, 0, 218, 240, 256, 11, 0, 115, 118, 22, 87, 0,
        30, 149, 80, 0, 173, 0, 256, 0, 134, 15, 0, 129, 0, 33, 0, 84,
        144, 215, 185, 190, 100, 121, 0, 0, 79, 0, 106, 0, 0, 0, 0, 0,
        0, 95, 0, 234, 256, 230, 178, 246, 79, 256, 150, 68, 256, 146, 256, 256,
        0, 43, 0, 58, 0, 0, 0, 94, 129, 3, 0, 203, 0, 0, 59, 0,
        256, 206, 256, 256, 100, 183, 245, 256, 169, 159, 182, 0, 20, 0, 256, 0,
        0, 0, 245, 0, 254, 97, 53, 0, 73, 0, 162, 0, 12, 140, 129, 256,
        256, 256, 27, 256, 256, 0, 243, 0, 0, 0, 134, 0, 0, 76, 0, 75,
        30, 61, 0, 30, 0, 165, 0, 144, 0, 26, 0, 0, 0, 0, 0, 27,
        129, 0, 0, 0, 61, 177, 162, 91, 82, 217, 43, 83, 0, 0, 0, 0,
        8, 247, 10, 151, 0, 0, 0, 0, 67, 1, 121, 23, 0, 256, 0, 149,
        0, 91, 119, 27, 0, 2, 157, 68, 57, 0, 0, 53, 53, 155, 0, 52,
        2, 0, 0, 55, 22, 0, 0, 81, 0, 71, 239, 0, 0, 0, 186, 0,
        248, 17, 0, 0, 0, 134, 0, 44, 0, 0, 256, 54, 78, 146, 0, 224,
        0, 0, 0, 74, 28, 0, 0, 0, 0, 93, 89, 203, 0, 89, 0, 152,
    },
    { /* image 11 */
        131, 27, 0, 123, 83, 0, 0, 0, 194, 147, 0, 0, 163, 0, 65, 0,
        207, 0, 146, 24, 32, 0, 0, 0, 32, 0, 0, 72, 72, 0, 100, 0,
        0, 211, 9, 16, 256, 0, 102, 213, 0, 110, 0, 0, 49, 102, 143, 201,
        0, 153, 0, 115, 27, 57, 54, 0, 0, 13, 0, 106, 112, 42, 0, 177,
        256, 19, 65, 26, 68, 0, 0, 116, 256, 0, 0, 0, 204, 0, 0, 82,
        223, 85, 26, 52, 181, 0, 0, 0, 0, 0, 142, 73, 82, 19, 74, 102,
        214, 201, 36, 41, 0, 0, 256, 116, 53, 0, 0, 0, 37, 0, 0, 0,
        27, 0, 189, 0, 0, 195, 17, 113, 256, 0, 138, 218, 3, 86, 113, 69,
        79, 0, 0, 162, 0, 38, 21, 187, 124, 0, 0, 74, 0, 0, 130, 24,
        7, 100, 0, 201, 0, 202, 256, 10, 12, 146, 148, 0, 0, 122, 151, 0,
        0, 29, 81, 0, 87, 0, 0, 0, 8, 0, 0, 0, 0, 115, 161, 152,
        0, 0, 256, 200, 51, 0, 0, 0, 62, 98, 18, 42, 11, 88, 40, 8,
        0, 10, 62, 34, 49, 172, 34, 0, 113, 0, 0, 43, 66, 0, 199, 0,
        0, 121, 90, 0, 0, 0, 182, 76, 0, 92, 0, 0, 56, 0, 0, 16,
        0, 86, 239, 0, 0, 0, 0, 0, 53, 256, 0, 0, 38, 17, 0, 0,
        60, 163, 36, 0, 6, 0, 135, 10, 0, 0, 59, 0, 0, 0, 73, 0,
        0, 0, 126, 0, 256, 256, 240, 0, 0, 0, 0, 68, 0, 0, 0, 256,
        153, 77, 0, 80, 0, 27, 0, 21, 0, 0, 94, 0, 72, 88, 0, 0,
        197, 256, 77, 55, 226, 0, 0, 106, 256, 256, 105, 237, 110, 256, 0, 0,
        0, 16, 0, 23, 3, 0, 80, 0, 0, 256, 61, 0, 256, 256, 0, 44,
        0, 0, 29, 254, 256, 256, 256, 21, 106, 186, 193, 166, 0, 0, 122, 0,
        59, 0, 33, 0, 85, 0, 0, 148, 256, 256, 0, 189, 0, 256, 256, 136,
        256, 128, 108, 0, 0, 256, 240, 162, 0, 213, 0, 0, 195, 0, 205, 114,
        0, 0, 0, 173, 256, 256, 0, 103, 249, 256, 256, 0, 23, 0, 0, 125,
        39, 256, 256, 0, 0, 19, 0, 0, 0, 0, 0, 85, 24, 206, 0, 256,
        256, 202, 0, 175, 256, 167, 150, 0, 63, 0, 0, 51, 4, 256, 256, 5,
        28, 38, 52, 0, 0, 0, 164, 0, 0, 115, 54, 54, 245, 72, 0, 59,
        230, 149, 0, 147, 0, 5, 51, 0, 58, 108, 83, 73, 191, 93, 118, 0,
        0, 191, 256, 197, 0, 0, 0, 0, 239, 256, 0, 211, 256, 137, 256, 255,
        0, 0, 89, 0, 0, 256, 256, 20, 0, 0, 14, 0, 0, 131, 94, 176,
        0, 0, 97, 255, 256, 167, 237, 88, 256, 207, 124, 136, 206, 93, 0, 176,
        0, 63, 143, 2, 78, 8, 73, 0, 73, 127, 156, 256, 31, 35, 0, 155,
        228, 248, 0, 102, 25, 181, 256, 144, 0, 0, 45, 139, 184, 179, 84, 30,
        127, 74, 0, 0, 40, 73, 179, 152, 0, 0, 86, 256, 256, 172, 0, 0,
        35, 44, 0, 41, 110, 7, 256, 197, 256, 0, 0, 0, 0, 0, 0, 43,
        0, 0, 0, 50, 0, 206, 0, 0, 256, 256, 68, 0, 254, 238, 0, 139,
        256, 193, 152, 45, 0, 0, 135, 0, 32, 113, 0, 0, 155, 68, 0, 154,
        154, 34, 0, 0, 62, 193, 256, 57, 62, 256, 190, 173, 27, 159, 12, 84,
        9, 0, 151, 0, 69, 0, 0, 0, 100, 0, 0, 0, 0, 0, 49, 0,
        170, 0, 0, 256, 185, 0, 168, 79, 0, 0, 256, 0, 0, 191, 78, 0,
        0, 86, 0, 0, 229, 0, 191, 164, 0, 132, 0, 0, 0, 51, 0, 0,
        146, 14, 0, 90, 25, 0, 55, 50, 3, 114, 0, 43, 0, 52, 250, 0,
        0, 0, 17, 0, 54, 108, 68, 0, 127, 120, 106, 48, 28, 132, 246, 0,
        138, 0, 0, 0, 0, 0, 0, 0, 0, 0, 12, 0, 0, 46, 0, 138,
        29, 78, 181, 0, 0, 112, 65, 0, 178, 0, 4, 3, 0, 10, 179, 57,
        4, 0, 42, 96, 78, 0, 42, 61, 0, 22, 0, 62, 85, 96, 0, 40,
        182, 181, 0, 18, 142, 0, 0, 171, 125, 47, 0, 0, 0, 42, 0, 0,
        0, 156, 0, 20, 0, 0, 0, 0, 0, 47, 0, 224, 131, 103, 0, 194,
        0, 0, 22, 90, 82, 0, 0, 82, 92, 0, 0, 0, 80, 231, 0, 0,
    },
    { /* image 12 */
        0, 174, 0, 0, 72, 0, 0, 0, 222, 49, 14, 0, 37, 36, 37, 15,
        111, 3, 0, 0, 0, 256, 110, 0, 0, 0, 197, 0, 15, 0, 106, 0,
        0, 0, 0, 10, 184, 0, 0, 0, 0, 95, 0, 53, 0, 29, 100, 0,
        100, 7, 134, 0, 49, 0, 0, 33, 69, 0, 184, 0, 0, 0, 53, 202,
        0, 0, 0, 4, 35, 204, 15, 134, 75, 0, 0, 35, 0, 166, 0, 153,
        0, 34, 27, 0, 0, 50, 0, 0, 159, 93, 8, 213, 0, 169, 22, 0,
        237, 127, 0, 93, 0, 106, 0, 0, 125, 0, 27, 0, 237, 152, 0, 0,
        132, 254, 122, 256, 0, 0, 0, 57, 22, 0, 104, 158, 0, 0, 105, 0,
        0, 130, 0, 0, 42, 0, 100, 0, 180, 0, 86, 95, 0, 0, 46, 9,
        71, 0, 0, 256, 0, 94, 0, 0, 0, 0, 73, 178, 60, 13, 0, 66,
        256, 0, 0, 0, 0, 0, 52, 0, 0, 96, 0, 0, 188, 0, 0, 34,
        147, 0, 52, 74, 0, 102, 112, 0, 160, 145, 13, 0, 0, 0, 73, 0,
        0, 162, 24, 0, 110, 195, 0, 56, 0, 64, 16, 81, 0, 0, 0, 52,
        179, 31, 256, 173, 256, 104, 59, 125, 0, 0, 24, 256, 0, 256, 256, 0,
        0, 0, 0, 0, 0, 192, 0, 0, 0, 48, 39, 76, 201, 216, 256, 250,
        256, 256, 256, 256, 256, 256, 54, 167, 78, 0, 167, 17, 0, 36, 0, 29,
        0, 163, 0, 0, 0, 34, 79, 256, 121, 23, 159, 256, 0, 256, 127, 236,
        197, 0, 126, 0, 0, 127, 0, 0, 0, 38, 62, 0, 256, 0, 0, 0,
        16, 122, 256, 62, 154, 107, 75, 1, 69, 0, 256, 256, 0, 0, 0, 87,
        0, 0, 58, 0, 33, 0, 76, 0, 0, 30, 13, 3, 0, 130, 254, 3,
        0, 50, 0, 148, 163, 0, 256, 235, 117, 0, 118, 52, 0, 0, 0, 24,
        73, 83, 0, 0, 0, 148, 0, 18, 18, 256, 184, 176, 99, 0, 0, 0,
        0, 82, 256, 232, 19, 0, 119, 8, 90, 0, 0, 36, 0, 0, 0, 203,
        51, 21, 107, 47, 149, 256, 89, 41, 0, 26, 25, 220, 0, 176, 256, 107,
        23, 0, 0, 159, 0, 48, 0, 0, 120, 64, 256, 0, 105, 0, 20, 125,
        0, 227, 159, 0, 49, 143, 15, 165, 256, 253, 88, 158, 38, 51, 0, 0,
        0, 0, 0, 0, 67, 0, 0, 0, 0, 0, 256, 135, 256, 256, 122, 51,
        66, 256, 159, 94, 198, 222, 195, 32, 0, 88, 0, 0, 88, 0, 0, 76,
        0, 0, 71, 256, 77, 60, 68, 0, 24, 176, 256, 256, 256, 213, 256, 0,
        129, 256, 97, 0, 243, 0, 0, 219, 6, 0, 0, 57, 70, 0, 0, 0,
        33, 0, 160, 117, 0, 0, 47, 17, 60, 40, 206, 256, 256, 256, 0, 0,
        124, 0, 81, 256, 136, 181, 28, 124, 0, 102, 84, 37, 168, 0, 0, 12,
        0, 29, 0, 134, 6, 0, 0, 224, 256, 233, 0, 0, 84, 0, 8, 16,
        40, 110, 0, 0, 0, 231, 256, 234, 0, 0, 0, 0, 0, 166, 111, 29,
        0, 0, 65, 256, 256, 0, 83, 55, 0, 0, 88, 0, 203, 64, 0, 0,
        8, 0, 0, 90, 108, 77, 194, 0, 214, 0, 0, 0, 0, 0, 225, 256,
        12, 0, 0, 0, 0, 0, 184, 25, 85, 0, 153, 167, 0, 0, 63, 82,
        0, 0, 0, 14, 153, 0, 128, 0, 0, 148, 256, 256, 0, 0, 105, 5,
        0, 59, 0, 230, 198, 77, 174, 8, 98, 189, 31, 0, 0, 0, 105, 121,
        65, 0, 0, 0, 0, 53, 256, 256, 100, 0, 0, 16, 0, 15, 58, 27,
        59, 56, 0, 82, 0, 0, 0, 55, 0, 0, 61, 0, 18, 31, 113, 228,
        0, 108, 218, 256, 28, 0, 0, 0, 126, 59, 117, 0, 0, 0, 46, 0,
        237, 0, 35, 201, 77, 22, 0, 0, 99, 193, 0, 0, 0, 82, 238, 256,
        86, 39, 0, 0, 180, 26, 0, 0, 0, 0, 72, 0, 0, 168, 0, 239,
        0, 11, 0, 16, 57, 56, 0, 0, 256, 104, 256, 0, 0, 0, 61, 0,
        21, 0, 42, 0, 0, 0, 0, 0, 0, 0, 130, 0, 0, 96, 0, 0,
        29, 143, 0, 0, 0, 43, 205, 0, 0, 0, 10, 135, 0, 0, 64, 155,
        0, 0, 36, 0, 0, 64, 194, 15, 0, 0, 227, 116, 82, 46, 0, 0,
        0, 70, 193, 143, 0, 29, 94, 79, 0, 256, 0, 0, 30, 256, 0, 0,
    },
    { /* image 13 */
        138, 0, 0, 72, 35, 132, 165, 39, 37, 27, 63, 7, 0, 153, 194, 0,
        1, 0, 0, 52, 86, 0, 0, 0, 115, 0, 152, 67, 168, 0, 0, 55,
        163, 118, 0, 11, 0, 0, 122, 0, 0, 0, 0, 19, 149, 0, 0, 108,
        216, 0, 0, 66, 208, 0, 0, 81, 102, 1, 0, 127, 68, 0, 6, 0,
        88, 0, 0, 0, 5, 115, 76, 0, 98, 51, 0, 0, 0, 65, 0, 0,
        252, 120, 0, 73, 15, 50, 18, 152, 44, 0, 133, 30, 16, 40, 0, 1,
        0, 0, 0, 0, 0, 0, 13, 0, 0, 202, 139, 57, 244, 0, 242, 0,
        31, 0, 2, 49, 0, 91, 13, 0, 0, 104, 0, 117, 157, 0, 145, 256,
        32, 77, 133, 0, 23, 0, 18, 64, 66, 136, 0, 0, 243, 0, 26, 0,
        0, 208, 0, 0, 0, 0, 0, 0, 96, 0, 252, 256, 256, 142, 157, 0,
        0, 0, 89, 256, 64, 0, 0, 16, 11, 0, 31, 0, 0, 83, 0, 69,
        0, 226, 0, 92, 256, 181, 256, 256, 256, 256, 231, 140, 256, 122, 0, 13,
        0, 0, 0, 0, 232, 74, 0, 156, 139, 0, 92, 0, 0, 192, 74, 14,
        245, 243, 256, 193, 199, 256, 256, 157, 148, 25, 0, 23, 0, 0, 0, 0,
        163, 28, 109, 1, 135, 51, 2, 0, 0, 108, 229, 189, 256, 93, 62, 137,
        176, 247, 256, 256, 0, 0, 207, 0, 0, 0, 0, 0, 62, 25, 99, 0,
        0, 0, 58, 0, 160, 256, 127, 190, 154, 256, 0, 215, 0, 0, 145, 145,
        177, 0, 0, 148, 157, 122, 67, 12, 0, 0, 46, 0, 0, 148, 243, 50,
        235, 223, 85, 256, 188, 9, 0, 123, 0, 0, 7, 256, 117, 67, 0, 0,
        0, 11, 160, 17, 197, 171, 100, 10, 3, 98, 0, 0, 230, 108, 131, 186,
        0, 0, 21, 124, 0, 163, 0, 256, 201, 225, 0, 0, 29, 0, 0, 0,
        145, 4, 197, 0, 0, 104, 0, 0, 256, 103, 21, 256, 0, 24, 9, 0,
        0, 57, 45, 232, 204, 256, 0, 0, 0, 0, 129, 0, 35, 0, 0, 175,
        0, 78, 5, 51, 256, 68, 256, 101, 0, 209, 0, 0, 0, 53, 0, 172,
        230, 163, 75, 0, 0, 256, 0, 0, 0, 0, 106, 41, 51, 0, 0, 75,
        243, 256, 106, 64, 64, 113, 37, 46, 152, 0, 0, 0, 256, 16, 128, 0,
        145, 0, 0, 144, 177, 0, 23, 38, 48, 0, 164, 0, 200, 256, 59, 173,
        153, 0, 166, 0, 119, 232, 156, 130, 214, 58, 109, 0, 0, 0, 0, 0,
        35, 0, 137, 0, 0, 29, 251, 228, 207, 57, 0, 30, 0, 0, 0, 186,
        184, 0, 86, 0, 256, 256, 191, 0, 87, 0, 109, 117, 8, 0, 100, 0,
        0, 0, 0, 119, 256, 256, 0, 103, 0, 12, 0, 100, 0, 0, 0, 83,
        256, 176, 0, 112, 137, 0, 88, 0, 176, 256, 67, 0, 0, 78, 0, 256,
        256, 163, 4, 0, 0, 0, 150, 256, 0, 0, 0, 16, 256, 208, 191, 26,
        0, 0, 3, 9, 82, 0, 0, 0, 0, 0, 0, 91, 167, 184, 33, 0,
        193, 0, 0, 0, 124, 18, 0, 181, 256, 0, 0, 0, 0, 0, 42, 141,
        0, 0, 0, 0, 0, 0, 52, 0, 213, 256, 204, 255, 199, 119, 0, 202,
        102, 256, 256, 256, 256, 173, 255, 28, 0, 0, 50, 10, 0, 0, 0, 103,
        202, 117, 135, 0, 0, 106, 221, 50, 7, 57, 109, 0, 0, 4, 243, 256,
        0, 66, 37, 6, 119, 0, 0, 0, 0, 65, 0, 29, 0, 28, 0, 0,
        12, 58, 222, 256, 8, 0, 0, 86, 0, 199, 205, 173, 0, 0, 184, 36,
        0, 0, 211, 0, 0, 0, 0, 0, 0, 0, 0, 76, 0, 0, 188, 256,
        205, 127, 0, 256, 227, 204, 73, 0, 41, 0, 127, 0, 0, 0, 0, 0,
        0, 188, 23, 0, 0, 76, 166, 36, 88, 78, 182, 0, 140, 256, 82, 24,
        29, 0, 0, 31, 111, 138, 0, 0, 168, 83, 11, 61, 0, 67, 0, 34,
        0, 0, 0, 0, 0, 0, 0, 70, 0, 0, 0, 43, 0, 0, 0, 44,
        0, 70, 0, 0, 0, 0, 0, 0, 208, 0, 217, 0, 5, 0, 0, 0,
        0, 0, 0, 237, 0, 13, 32, 0, 88, 0, 0, 84, 0, 0, 88, 0,
        117, 155, 0, 102, 0, 256, 0, 131, 108, 40, 0, 0, 0, 29, 45, 17,
        0, 0, 0, 37, 37, 0, 81, 0, 78, 61, 48, 0, 234, 63, 0, 32,
    },
    { /* image 14 */
        96, 0, 139, 49, 0, 38, 0, 69, 121, 25, 213, 0, 80, 103, 0, 100,
        0, 0, 0, 31, 42, 151, 101, 0, 0, 55, 142, 97, 139, 0, 0, 0,
        0, 0, 26, 0, 0, 0, 121, 10, 0, 0, 0, 167, 71, 0, 98, 118,
        16, 205, 28, 0, 47, 31, 0, 73, 0, 127, 0, 0, 0, 55, 21, 0,
        0, 0, 0, 138, 0, 110, 186, 0, 0, 256, 185, 0, 50, 0, 106, 0,
        0, 0, 0, 104, 0, 0, 0, 129, 163, 0, 0, 58, 189, 52, 0, 0,
        0, 9, 0, 25, 0, 0, 0, 200, 114, 222, 69, 0, 169, 0, 28, 0,
        0, 205, 63, 42, 0, 21, 0, 79, 0, 24, 72, 0, 47, 2, 132, 222,
        87, 0, 67, 0, 0, 0, 0, 124, 4, 0, 0, 63, 56, 0, 140, 124,
        53, 7, 84, 40, 136, 115, 0, 0, 0, 256, 54, 256, 111, 149, 23, 0,
        0, 0, 0, 0, 0, 188, 0, 172, 152, 115, 0, 44, 0, 117, 0, 0,
        0, 0, 0, 142, 0, 234, 256, 256, 256, 0, 0, 256, 256, 24, 0, 123,
        0, 0, 114, 43, 0, 0, 85, 65, 34, 119, 0, 23, 0, 0, 98, 0,
        0, 123, 256, 256, 106, 0, 0, 0, 0, 0, 0, 109, 0, 227, 62, 0,
        116, 0, 0, 0, 175, 0, 58, 0, 62, 215, 127, 0, 86, 256, 256, 256,
        141, 0, 82, 0, 0, 0, 0, 0, 110, 0, 256, 192, 0, 1, 39, 0,
        25, 0, 0, 23, 0, 5, 21, 16, 0, 256, 211, 256, 256, 0, 27, 0,
        158, 0, 164, 0, 0, 87, 0, 79, 0, 1, 0, 0, 0, 0, 0, 0,
        40, 175, 36, 104, 140, 256, 256, 192, 37, 100, 91, 99, 242, 1, 55, 0,
        256, 0, 0, 0, 0, 0, 0, 0, 0, 249, 94, 119, 151, 235, 0, 0,
        0, 196, 218, 199, 157, 5, 0, 0, 0, 0, 0, 0, 0, 0, 0, 0,
        0, 0, 0, 0, 116, 52, 0, 0, 49, 88, 18, 205, 59, 256, 256, 256,
        27, 0, 45, 44, 65, 141, 0, 0, 29, 0, 256, 66, 0, 0, 0, 4,
        14, 0, 0, 172, 177, 32, 0, 69, 199, 256, 256, 256, 135, 80, 0, 37,
        170, 0, 0, 12, 0, 83, 0, 220, 0, 160, 0, 0, 30, 0, 0, 0,
        0, 125, 75, 7, 61, 253, 73, 74, 0, 0, 109, 97, 77, 0, 0, 53,
        67, 0, 0, 0, 15, 0, 0, 0, 0, 0, 0, 0, 49, 73, 0, 195,
        0, 256, 174, 0, 51, 32, 4, 0, 0, 0, 0, 108, 24, 78, 0, 0,
        0, 0, 0, 0, 0, 72, 0, 45, 0, 0, 0, 0, 0, 256, 256, 256,
        0, 0, 0, 55, 0, 76, 0, 106, 123, 0, 0, 0, 0, 0, 256, 78,
        245, 106, 0, 0, 75, 56, 0, 0, 256, 238, 214, 256, 0, 16, 165, 0,
        0, 0, 0, 182, 150, 14, 0, 0, 2, 43, 0, 0, 0, 0, 0, 0,
        0, 155, 0, 23, 29, 256, 256, 249, 68, 0, 0, 0, 71, 54, 76, 161,
        238, 16, 141, 0, 152, 136, 129, 12, 0, 0, 0, 196, 0, 100, 108, 0,
        168, 0, 99, 139, 24, 43, 37, 50, 76, 0, 0, 51, 0, 0, 124, 179,
        199, 24, 80, 175, 0, 142, 35, 117, 24, 166, 29, 0, 250, 135, 256, 244,
        256, 145, 55, 65, 54, 0, 15, 0, 22, 0, 0, 205, 137, 0, 24, 0,
        73, 0, 127, 0, 0, 3, 0, 42, 123, 256, 256, 164, 112, 59, 0, 59,
        71, 139, 0, 0, 0, 0, 72, 0, 256, 166, 2, 111, 0, 256, 0, 0,
        0, 62, 0, 77, 186, 118, 153, 93, 0, 0, 85, 256, 61, 0, 0, 4,
        0, 116, 28, 116, 0, 170, 0, 0, 256, 0, 0, 0, 256, 231, 191, 22,
        256, 176, 125, 23, 0, 0, 0, 78, 47, 0, 193, 0, 65, 92, 147, 0,
        27, 126, 191, 0, 34, 215, 0, 0, 188, 140, 67, 0, 0, 0, 198, 0,
        13, 0, 108, 0, 0, 0, 0, 1, 0, 256, 0, 0, 2, 0, 0, 0,
        0, 0, 250, 10, 151, 65, 143, 0, 0, 167, 0, 226, 190, 0, 0, 0,
        0, 0, 55, 0, 77, 80, 0, 198, 66, 96, 0, 80, 144, 0, 256, 6,
        146, 38, 75, 0, 47, 0, 0, 223, 0, 0, 0, 0, 184, 0, 68, 174,
        0, 68, 0, 256, 120, 0, 0, 0, 0, 250, 0, 17, 0, 0, 0, 0,
        112, 78, 54, 0, 38, 0, 83, 189, 0, 0, 0, 158, 12, 221, 53, 31,
    },
    { /* image 15 */
        9, 105, 0, 11, 0, 93, 0, 0, 1, 0, 0, 93, 74, 60, 167, 0,
        0, 0, 0, 0, 0, 0, 0, 0, 0, 30, 0, 142, 205, 87, 0, 193,
        202, 2, 169, 0, 0, 0, 221, 0, 0, 4, 0, 0, 9, 0, 0, 28,
        137, 111, 0, 0, 0, 201, 83, 90, 114, 54, 15, 85, 0, 0, 93, 158,
        0, 105, 215, 0, 0, 16, 0, 0, 55, 0, 0, 2, 0, 44, 240, 13,
        77, 0, 98, 0, 9, 0, 132, 0, 0, 0, 60, 19, 158, 56, 0, 0,
        0, 132, 0, 4, 54, 0, 80, 210, 0, 0, 0, 0, 43, 58, 214, 0,
        52, 0, 0, 0, 0, 0, 38, 0, 11, 0, 0, 10, 56, 230, 199, 209,
        232, 163, 158, 256, 0, 0, 0, 0, 0, 36, 0, 133, 81, 0, 0, 0,
        0, 256, 70, 0, 14, 136, 236, 36, 237, 161, 113, 256, 251, 178, 74, 0,
        91, 40, 17, 0, 0, 9, 256, 39, 0, 0, 0, 256, 0, 116, 0, 33,
        256, 181, 163, 256, 256, 204, 183, 59, 256, 6, 74, 0, 0, 0, 163, 0,
        0, 0, 0, 0, 177, 51, 0, 136, 2, 5, 0, 0, 67, 256, 214, 198,
        49, 0, 34, 0, 0, 0, 0, 0, 26, 0, 46, 256, 0, 0, 0, 0,
        82, 92, 10, 114, 256, 219, 0, 0, 0, 103, 256, 0, 0, 107, 0, 0,
        150, 0, 0, 0, 2, 23, 78, 0, 0, 0, 0, 101, 0, 108, 2, 0,
        79, 0, 82, 27, 0, 190, 256, 198, 124, 63, 0, 256, 0, 122, 55, 0,
        0, 0, 167, 0, 0, 0, 222, 0, 42, 0, 0, 104, 214, 32, 84, 42,
        130, 64, 256, 234, 190, 0, 30, 41, 0, 204, 0, 36, 0, 0, 0, 28,
        86, 21, 44, 0, 64, 190, 90, 104, 38, 0, 0, 58, 20, 256, 256, 256,
        256, 256, 151, 165, 0, 199, 101, 67, 158, 0, 75, 0, 0, 0, 85, 29,
        172, 0, 91, 21, 0, 0, 0, 163, 256, 105, 186, 256, 117, 61, 256, 256,
        197, 256, 9, 102, 22, 62, 0, 0, 121, 0, 36, 0, 115, 0, 0, 101,
        150, 0, 251, 101, 120, 219, 0, 56, 0, 10, 0, 147, 0, 51, 256, 256,
        0, 90, 137, 104, 0, 0, 0, 0, 151, 0, 90, 0, 14, 91, 0, 22,
        0, 90, 30, 7, 199, 85, 0, 0, 0, 10, 256, 251, 0, 0, 0, 0,
        0, 0, 0, 49, 0, 39, 0, 0, 66, 246, 52, 0, 0, 0, 58, 137,
        33, 102, 91, 65, 0, 22, 0, 22, 256, 256, 0, 62, 190, 97, 107, 75,
        166, 0, 0, 0, 0, 158, 156, 0, 0, 0, 7, 16, 71, 0, 121, 57,
        0, 171, 0, 0, 186, 111, 256, 182, 0, 0, 0, 0, 256, 0, 129, 0,
        0, 13, 83, 118, 200, 256, 32, 0, 58, 0, 119, 0, 256, 110, 0, 0,
        104, 171, 51, 256, 0, 0, 142, 0, 0, 19, 0, 81, 0, 0, 0, 22,
        0, 0, 25, 131, 0, 34, 35, 0, 256, 0, 84, 98, 0, 78, 185, 73,
        0, 0, 0, 0, 144, 205, 125, 163, 0, 0, 0, 82, 29, 0, 166, 52,
        0, 0, 87, 133, 71, 243, 209, 56, 0, 0, 184, 256, 234, 53, 150, 0,
        80, 105, 0, 0, 122, 35, 0, 0, 67, 83, 0, 18, 65, 86, 0, 0,
        0, 73, 63, 60, 0, 132, 152, 138, 0, 109, 27, 0, 0, 0, 0, 0,
        0, 0, 118, 155, 190, 158, 0, 19, 197, 124, 67, 0, 117, 0, 70, 256,
        256, 256, 119, 0, 69, 0, 0, 8, 22, 0, 58, 99, 0, 256, 0, 36,
        205, 244, 193, 0, 84, 181, 256, 256, 256, 155, 166, 193, 256, 0, 0, 0,
        97, 88, 0, 87, 0, 13, 110, 0, 0, 0, 204, 0, 102, 229, 256, 213,
        185, 235, 256, 130, 9, 0, 0, 121, 0, 0, 0, 11, 0, 0, 173, 197,
        0, 42, 0, 0, 40, 0, 29, 86, 38, 0, 0, 0, 0, 251, 0, 0,
        41, 0, 0, 180, 70, 0, 0, 0, 112, 0, 0, 0, 0, 256, 0, 0,
        33, 0, 0, 54, 195, 98, 189, 0, 41, 20, 45, 176, 0, 0, 68, 0,
        0, 0, 0, 135, 0, 0, 38, 173, 0, 120, 90, 16, 0, 0, 14, 0,
        118, 95, 0, 0, 65, 0, 0, 0, 0, 150, 0, 0, 0, 71, 0, 15,
        0, 107, 0, 0, 62, 256, 114, 0, 0, 0, 0, 0, 0, 84, 0, 171,
        96, 3, 0, 0, 35, 139, 0, 0, 90, 42, 0, 0, 0, 0, 0, 0,
    },
    { /* image 16 */
        0, 0, 0, 21, 0, 148, 65, 0, 67, 78, 0, 0, 1, 0, 0, 0,
        0, 0, 0, 0, 0, 0, 68, 0, 0, 0, 0, 34, 41, 0, 97, 0,
        200, 0, 0, 0, 45, 0, 0, 206, 0, 8, 182, 35, 0, 65, 0, 180,
        0, 256, 188, 0, 3, 96, 100, 57, 160, 0, 0, 0, 110, 47, 37, 102,
        0, 40, 28, 214, 0, 199, 10, 63, 215, 72, 51, 31, 0, 0, 0, 0,
        0, 55, 0, 0, 28, 0, 247, 0, 0, 0, 3, 178, 133, 109, 70, 0,
        0, 0, 0, 134, 40, 206, 153, 0, 0, 177, 174, 0, 193, 49, 21, 207,
        172, 83, 61, 79, 0, 0, 0, 0, 0, 0, 18, 0, 64, 0, 0, 17,
        0, 0, 0, 46, 83, 63, 133, 26, 61, 20, 88, 0, 0, 203, 0, 0,
        150, 0, 0, 17, 0, 4, 0, 142, 182, 0, 0, 0, 0, 65, 0, 0,
        65, 120, 0, 0, 256, 100, 0, 111, 0, 111, 20, 12, 0, 0, 248, 0,
        0, 0, 0, 58, 235, 256, 256, 167, 127, 52, 0, 73, 0, 256, 0, 0,
        0, 0, 256, 120, 0, 193, 153, 0, 39, 0, 252, 0, 19, 0, 15, 256,
        103, 254, 0, 185, 256, 0, 75, 0, 148, 174, 0, 10, 23, 79, 2, 24,
        0, 15, 166, 83, 90, 93, 0, 41, 0, 256, 0, 213, 216, 0, 51, 0,
        160, 256, 27, 0, 0, 126, 57, 224, 215, 0, 256, 3, 0, 0, 0, 206,
        204, 0, 0, 12, 15, 29, 201, 0, 0, 29, 183, 0, 57, 121, 147, 175,
        256, 79, 0, 162, 183, 0, 25, 82, 0, 62, 21, 0, 59, 0, 120, 2,
        231, 256, 76, 0, 0, 0, 51, 46, 0, 0, 256, 231, 256, 6, 232, 0,
        0, 0, 152, 225, 0, 0, 0, 0, 92, 29, 1, 0, 256, 128, 68, 0,
        0, 37, 42, 20, 63, 0, 256, 256, 191, 9, 0, 0, 0, 105, 106, 108,
        39, 0, 0, 22, 17, 0, 47, 171, 256, 0, 126, 0, 0, 0, 0, 127,
        0, 62, 88, 256, 0, 0, 189, 65, 0, 0, 0, 0, 83, 5, 21, 0,
        223, 256, 0, 256, 256, 14, 0, 0, 0, 52, 0, 0, 63, 215, 256, 256,
        0, 0, 0, 0, 121, 0, 145, 0, 124, 92, 0, 169, 12, 50, 0, 256,
        102, 154, 105, 0, 254, 30, 84, 0, 256, 97, 256, 16, 0, 101, 132, 0,
        140, 134, 0, 205, 0, 0, 61, 0, 34, 31, 0, 256, 225, 147, 147, 101,
        101, 0, 92, 6, 90, 245, 138, 148, 104, 0, 0, 0, 0, 58, 0, 0,
        166, 0, 158, 0, 0, 0, 197, 0, 244, 256, 0, 0, 128, 46, 116, 200,
        256, 211, 256, 0, 0, 247, 0, 0, 0, 138, 0, 0, 0, 130, 0, 256,
        17, 136, 103, 0, 3, 244, 256, 181, 256, 256, 256, 177, 256, 173, 247, 171,
        0, 0, 222, 0, 0, 196, 153, 55, 0, 0, 36, 202, 31, 256, 0, 0,
        0, 0, 37, 110, 117, 256, 59, 185, 256, 256, 256, 68, 0, 0, 36, 58,
        89, 59, 1, 0, 51, 237, 131, 68, 132, 0, 0, 0, 0, 0, 155, 0,
        0, 249, 0, 86, 256, 108, 176, 82, 199, 0, 13, 5, 34, 0, 14, 0,
        46, 0, 0, 105, 0, 0, 163, 42, 112, 0, 256, 0, 223, 0, 0, 211,
        256, 119, 0, 0, 45, 0, 135, 0, 0, 120, 0, 156, 56, 0, 0, 62,
        0, 0, 78, 0, 4, 139, 0, 2, 0, 55, 75, 256, 180, 133, 105, 32,
        0, 167, 0, 100, 0, 241, 0, 147, 0, 0, 24, 81, 0, 0, 83, 0,
        0, 256, 0, 147, 0, 65, 150, 256, 228, 256, 0, 30, 31, 0, 0, 21,
        0, 256, 0, 151, 110, 0, 0, 0, 0, 0, 0, 0, 172, 79, 101, 75,
        21, 187, 9, 256, 256, 0, 256, 4, 18, 161, 117, 5, 17, 0, 0, 66,
        57, 156, 0, 0, 135, 184, 115, 0, 134, 256, 15, 0, 0, 80, 0, 256,
        247, 196, 168, 111, 0, 118, 90, 33, 0, 0, 0, 0, 0, 0, 256, 0,
        166, 0, 0, 12, 0, 0, 0, 0, 237, 48, 256, 256, 228, 0, 0, 21,
        148, 144, 0, 98, 0, 4, 0, 0, 172, 12, 17, 0, 0, 0, 0, 3,
        0, 10, 16, 0, 0, 10, 152, 33, 0, 51, 219, 117, 70, 93, 184, 138,
        73, 137, 0, 0, 20, 9, 0, 106, 0, 0, 0, 0, 191, 0, 0, 116,
        83, 0, 87, 37, 256, 52, 0, 0, 0, 0, 176, 2, 72, 194, 0, 164,
    },
    { /* image 17 */
        7, 56, 0, 0, 63, 256, 128, 162, 0, 0, 0, 0, 0, 0, 0, 0,
        17, 46, 0, 0, 0, 0, 0, 60, 116, 120, 97, 0, 0, 0, 0, 127,
        0, 0, 0, 0, 6, 137, 0, 0, 0, 0, 0, 0, 28, 8, 0, 53,
        0, 0, 177, 72, 106, 157, 67, 119, 0, 26, 0, 215, 119, 0, 48, 21,
        58, 0, 46, 0, 36, 0, 0, 150, 0, 0, 0, 0, 0, 13, 0, 0,
        256, 59, 0, 54, 73, 127, 0, 125, 0, 0, 21, 42, 0, 33, 0, 0,
        131, 116, 0, 0, 0, 0, 0, 133, 44, 52, 0, 149, 0, 107, 120, 0,
        163, 0, 8, 43, 256, 172, 90, 0, 18, 0, 105, 18, 0, 10, 0, 19,
        0, 4, 96, 0, 0, 26, 89, 0, 33, 169, 73, 7, 82, 58, 96, 0,
        0, 129, 0, 51, 0, 0, 45, 26, 256, 0, 184, 45, 0, 102, 72, 5,
        34, 0, 0, 97, 0, 0, 36, 34, 0, 165, 16, 0, 55, 30, 98, 69,
        92, 173, 113, 0, 0, 213, 0, 0, 0, 43, 19, 0, 58, 0, 256, 0,
        0, 0, 164, 0, 0, 90, 0, 80, 256, 256, 256, 256, 256, 256, 224, 256,
        23, 124, 0, 13, 0, 51, 0, 142, 50, 144, 0, 133, 256, 98, 101, 22,
        0, 97, 0, 0, 0, 165, 256, 256, 256, 256, 14, 207, 168, 166, 256, 143,
        120, 0, 34, 0, 10, 0, 13, 0, 214, 64, 0, 0, 7, 0, 0, 173,
        97, 166, 58, 160, 15, 141, 75, 256, 0, 256, 256, 192, 256, 256, 256, 256,
        15, 7, 233, 173, 116, 102, 90, 148, 0, 0, 9, 0, 0, 0, 256, 17,
        46, 0, 0, 0, 184, 88, 191, 209, 128, 256, 174, 256, 256, 0, 0, 0,
        149, 0, 0, 48, 0, 0, 215, 14, 0, 0, 0, 0, 164, 0, 3, 0,
        0, 78, 48, 224, 180, 6, 216, 214, 256, 256, 22, 26, 185, 74, 200, 0,
        59, 0, 225, 198, 4, 197, 228, 10, 256, 0, 0, 111, 0, 11, 180, 2,
        0, 47, 0, 256, 256, 222, 116, 140, 0, 103, 252, 0, 230, 0, 0, 38,
        92, 117, 0, 56, 0, 0, 0, 0, 67, 147, 0, 45, 0, 81, 36, 120,
        256, 43, 0, 0, 121, 105, 1, 0, 155, 0, 0, 256, 0, 95, 72, 50,
        36, 48, 35, 0, 193, 0, 131, 105, 89, 177, 232, 16, 232, 0, 0, 0,
        0, 0, 0, 90, 256, 78, 0, 0, 0, 12, 0, 0, 215, 0, 92, 0,
        243, 44, 0, 0, 5, 0, 157, 27, 21, 12, 38, 0, 0, 72, 0, 0,
        0, 0, 0, 22, 256, 0, 0, 0, 0, 141, 0, 0, 105, 0, 0, 56,
        153, 256, 152, 256, 0, 95, 190, 0, 14, 0, 256, 0, 96, 0, 0, 0,
        203, 122, 249, 7, 37, 0, 0, 0, 11, 0, 57, 42, 214, 256, 250, 210,
        256, 167, 148, 0, 29, 0, 64, 35, 3, 131, 0, 209, 115, 0, 0, 62,
        195, 13, 18, 2, 228, 0, 0, 256, 256, 256, 104, 0, 190, 0, 0, 33,
        0, 0, 14, 6, 164, 197, 0, 14, 86, 194, 92, 37, 85, 86, 0, 25,
        187, 0, 105, 223, 0, 247, 84, 0, 0, 0, 98, 252, 177, 0, 109, 0,
        0, 0, 90, 123, 0, 0, 59, 73, 151, 0, 3, 0, 0, 34, 236, 153,
        65, 0, 0, 0, 0, 169, 0, 181, 208, 0, 12, 0, 0, 0, 99, 256,
        116, 41, 0, 215, 256, 0, 0, 0, 185, 238, 256, 26, 51, 0, 27, 0,
        0, 0, 155, 31, 78, 0, 0, 0, 0, 45, 256, 89, 256, 73, 0, 45,
        228, 234, 0, 34, 0, 256, 256, 209, 0, 46, 53, 10, 23, 0, 127, 94,
        0, 0, 0, 94, 19, 0, 33, 0, 113, 43, 0, 30, 168, 0, 52, 49,
        256, 171, 256, 226, 0, 0, 0, 0, 76, 0, 0, 79, 53, 0, 24, 14,
        0, 0, 256, 104, 256, 0, 0, 0, 0, 243, 0, 256, 96, 121, 151, 0,
        118, 58, 0, 0, 0, 0, 0, 132, 0, 207, 0, 0, 95, 190, 143, 64,
        139, 0, 0, 0, 157, 0, 191, 256, 145, 120, 193, 0, 16, 0, 0, 0,
        0, 0, 37, 0, 0, 0, 0, 121, 193, 0, 256, 0, 139, 0, 0, 0,
        0, 74, 125, 110, 67, 0, 0, 0, 0, 35, 256, 0, 0, 72, 0, 86,
        0, 235, 44, 0, 0, 0, 176, 0, 0, 0, 0, 0, 0, 0, 0, 0,
        88, 118, 0, 30, 0, 0, 129, 0, 0, 256, 233, 60, 146, 0, 0, 0,
    },
    { /* image 18 */
        0, 0, 0, 49, 70, 205, 0, 0, 0, 0, 115, 0, 256, 0, 19, 0,
        37, 0, 89, 93, 174, 0, 21, 72, 57, 0, 0, 44, 0, 0, 98, 0,
        0, 0, 0, 256, 93, 24, 0, 0, 149, 0, 74, 0, 248, 95, 159, 0,
        135, 0, 14, 209, 0, 26, 56, 67, 0, 256, 0, 187, 156, 243, 0, 0,
        191, 0, 0, 0, 25, 204, 0, 0, 40, 60, 56, 0, 0, 0, 182, 24,
        0, 143, 0, 0, 18, 0, 13, 0, 0, 23, 0, 21, 176, 0, 0, 0,
        0, 76, 0, 219, 149, 0, 92, 0, 4, 0, 98, 183, 102, 118, 118, 71,
        0, 218, 231, 0, 0, 78, 83, 15, 0, 186, 119, 93, 45, 0, 127, 8,
        0, 0, 0, 0, 88, 43, 195, 0, 62, 101, 256, 19, 0, 109, 239, 0,
        108, 169, 256, 256, 165, 244, 256, 256, 61, 0, 71, 110, 49, 0, 0, 121,
        0, 0, 193, 65, 78, 0, 94, 35, 0, 182, 20, 0, 0, 0, 256, 256,
        229, 256, 77, 178, 121, 35, 9, 55, 0, 0, 216, 256, 18, 0, 189, 0,
        0, 0, 0, 0, 0, 2, 3, 0, 0, 72, 256, 234, 251, 177, 181, 256,
        111, 187, 256, 0, 0, 0, 17, 0, 171, 0, 42, 0, 0, 0, 0, 139,
        0, 0, 0, 153, 187, 256, 256, 205, 0, 0, 0, 0, 256, 165, 256, 256,
        76, 78, 0, 238, 6, 39, 0, 0, 61, 28, 0, 0, 0, 153, 0, 0,
        186, 112, 161, 0, 207, 255, 96, 100, 0, 256, 256, 256, 151, 0, 213, 69,
        186, 33, 0, 0, 13, 0, 0, 154, 0, 18, 38, 0, 186, 45, 256, 64,
        0, 0, 111, 95, 0, 146, 256, 90, 145, 232, 40, 0, 0, 0, 0, 0,
        0, 146, 124, 0, 17, 0, 0, 0, 0, 256, 198, 0, 0, 234, 0, 0,
        256, 119, 172, 256, 256, 33, 0, 0, 161, 74, 144, 155, 0, 0, 0, 0,
        21, 145, 0, 19, 0, 197, 169, 0, 100, 256, 256, 172, 109, 256, 256, 238,
        256, 103, 256, 19, 0, 0, 123, 0, 0, 0, 0, 63, 99, 0, 0, 97,
        0, 0, 0, 57, 75, 153, 255, 256, 129, 4, 256, 240, 163, 256, 256, 0,
        6, 256, 75, 87, 150, 2, 102, 92, 69, 0, 22, 0, 2, 0, 0, 0,
        0, 11, 141, 231, 256, 195, 256, 256, 256, 256, 256, 256, 256, 256, 48, 71,
        172, 0, 0, 2, 115, 117, 0, 0, 32, 0, 0, 0, 42, 174, 5, 30,
        167, 0, 106, 37, 89, 0, 41, 256, 256, 256, 121, 0, 0, 168, 0, 0,
        169, 0, 191, 0, 0, 0, 0, 56, 0, 0, 30, 0, 26, 0, 0, 23,
        0, 32, 87, 0, 202, 0, 256, 145, 0, 40, 150, 0, 0, 21, 0, 0,
        156, 8, 0, 0, 98, 256, 41, 137, 170, 242, 42, 65, 0, 256, 0, 0,
        0, 256, 256, 256, 200, 6, 0, 189, 0, 197, 166, 79, 234, 256, 0, 0,
        0, 256, 198, 256, 0, 197, 0, 0, 0, 0, 76, 0, 80, 16, 167, 179,
        256, 29, 0, 0, 12, 236, 132, 0, 256, 0, 160, 0, 0, 0, 0, 256,
        87, 0, 58, 24, 79, 155, 0, 0, 106, 202, 256, 256, 90, 0, 54, 0,
        63, 0, 0, 242, 0, 0, 150, 0, 0, 88, 256, 256, 126, 235, 0, 0,
        154, 0, 36, 131, 75, 256, 256, 0, 181, 0, 140, 0, 0, 46, 7, 98,
        0, 211, 67, 174, 112, 0, 0, 150, 256, 256, 173, 0, 223, 213, 218, 256,
        256, 256, 256, 0, 0, 256, 48, 47, 46, 53, 0, 0, 0, 164, 6, 0,
        55, 0, 0, 0, 165, 256, 256, 256, 256, 256, 256, 0, 256, 62, 256, 4,
        4, 0, 130, 80, 71, 0, 0, 29, 0, 56, 0, 0, 230, 56, 21, 254,
        0, 0, 0, 147, 251, 0, 254, 37, 192, 0, 0, 0, 135, 0, 0, 65,
        70, 114, 27, 0, 0, 3, 32, 0, 2, 0, 85, 23, 128, 0, 0, 0,
        0, 95, 0, 5, 66, 0, 10, 0, 0, 0, 0, 88, 0, 0, 226, 123,
        0, 0, 31, 41, 0, 148, 106, 62, 174, 58, 57, 199, 141, 0, 81, 0,
        65, 61, 0, 0, 34, 0, 40, 103, 0, 29, 177, 61, 26, 0, 86, 42,
        164, 6, 0, 0, 94, 0, 56, 15, 0, 0, 0, 0, 0, 0, 0, 0,
        118, 0, 131, 197, 109, 68, 42, 111, 11, 126, 79, 0, 115, 12, 0, 0,
        21, 128, 114, 45, 77, 163, 0, 0, 167, 0, 0, 0, 73, 0, 0, 75,
    },
    { /* image 19 */
        92, 0, 0, 0, 0, 34, 0, 0, 0, 145, 65, 101, 165, 0, 0, 0,
        256, 0, 133, 0, 128, 238, 0, 0, 0, 0, 0, 105, 0, 0, 68, 77,
        0, 11, 256, 0, 0, 249, 141, 0, 26, 0, 0, 0, 0, 14, 0, 0,
        0, 220, 11, 0, 97, 0, 239, 0, 90, 0, 64, 35, 0, 0, 0, 36,
        81, 0, 37, 0, 13, 0, 2, 256, 40, 83, 56, 0, 166, 0, 135, 0,
        0, 47, 0, 69, 0, 0, 0, 256, 0, 1, 146, 133, 109, 0, 173, 117,
        27, 31, 0, 0, 158, 168, 0, 0, 0, 0, 8, 121, 0, 0, 158, 0,
        0, 0, 0, 199, 118, 147, 105, 121, 0, 0, 0, 0, 88, 17, 168, 0,
        64, 0, 12, 95, 0, 71, 0, 0, 71, 223, 0, 156, 6, 0, 0, 2,
        0, 0, 0, 0, 25, 0, 0, 26, 133, 50, 0, 119, 0, 0, 143, 0,
        0, 0, 245, 0, 203, 5, 72, 0, 27, 83, 85, 99, 0, 0, 0, 67,
        139, 207, 39, 0, 0, 133, 0, 0, 0, 0, 240, 144, 0, 2, 0, 94,
        0, 0, 0, 0, 152, 25, 44, 151, 0, 97, 88, 0, 189, 0, 117, 0,
        77, 238, 0, 0, 78, 9, 256, 151, 0, 0, 0, 0, 0, 0, 0, 256,
        0, 19, 76, 81, 0, 0, 58, 34, 0, 0, 119, 0, 0, 4, 46, 228,
        0, 150, 256, 247, 74, 0, 0, 40, 0, 0, 0, 21, 193, 0, 76, 0,
        0, 94, 0, 3, 0, 209, 120, 133, 0, 0, 0, 256, 70, 0, 111, 0,
        92, 0, 0, 227, 0, 10, 256, 81, 16, 65, 0, 166, 0, 0, 0, 0,
        0, 127, 256, 145, 34, 0, 0, 0, 14, 256, 225, 0, 59, 0, 216, 158,
        123, 97, 0, 85, 48, 78, 63, 58, 256, 0, 120, 0, 114, 256, 215, 216,
        0, 0, 27, 113, 23, 256, 152, 0, 39, 0, 69, 0, 0, 0, 4, 0,
        0, 0, 110, 25, 256, 21, 0, 256, 108, 256, 190, 80, 69, 0, 47, 0,
        0, 143, 213, 43, 62, 37, 0, 0, 118, 137, 0, 0, 0, 134, 156, 0,
        39, 235, 53, 182, 243, 138, 26, 4, 13, 117, 52, 0, 0, 0, 128, 31,
        36, 0, 86, 92, 0, 0, 0, 229, 218, 72, 0, 114, 0, 0, 0, 20,
        141, 249, 0, 178, 0, 256, 256, 217, 256, 130, 124, 102, 0, 0, 0, 0,
        187, 0, 0, 0, 193, 0, 0, 0, 81, 44, 256, 73, 195, 183, 205, 61,
        217, 256, 101, 76, 256, 72, 0, 0, 0, 49, 0, 0, 148, 0, 99, 193,
        0, 94, 0, 118, 0, 0, 0, 0, 152, 212, 210, 0, 0, 0, 0, 0,
        20, 256, 170, 256, 0, 0, 232, 0, 0, 0, 0, 198, 22, 17, 0, 46,
        148, 147, 86, 0, 54, 104, 0, 0, 114, 112, 0, 129, 256, 256, 0, 120,
        108, 0, 2, 0, 211, 0, 0, 0, 16, 96, 0, 237, 40, 60, 0, 2,
        0, 130, 0, 98, 0, 25, 0, 255, 148, 91, 0, 0, 92, 0, 178, 0,
        22, 0, 54, 0, 0, 152, 0, 75, 0, 14, 0, 0, 0, 232, 13, 212,
        28, 0, 197, 172, 173, 127, 0, 0, 120, 140, 235, 54, 0, 107, 109, 210,
        0, 0, 0, 69, 0, 99, 75, 75, 18, 196, 112, 0, 0, 0, 71, 0,
        256, 231, 0, 0, 2, 113, 206, 0, 0, 0, 0, 0, 55, 0, 0, 256,
        34, 14, 0, 33, 0, 0, 0, 102, 249, 47, 141, 97, 244, 201, 213, 167,
        0, 0, 36, 0, 50, 105, 128, 216, 0, 0, 46, 241, 0, 88, 89, 25,
        1, 0, 0, 0, 0, 140, 0, 108, 142, 184, 174, 136, 78, 0, 0, 249,
        144, 0, 0, 46, 0, 0, 13, 0, 0, 0, 0, 0, 0, 0, 0, 40,
        0, 0, 118, 52, 256, 231, 0, 0, 0, 0, 0, 0, 246, 37, 0, 188,
        0, 0, 0, 231, 43, 84, 39, 73, 10, 35, 14, 0, 0, 35, 14, 0,
        5, 149, 0, 75, 0, 0, 0, 0, 0, 166, 23, 237, 52, 0, 135, 0,
        30, 0, 256, 184, 0, 0, 31, 111, 4, 0, 0, 0, 158, 55, 0, 83,
        0, 114, 256, 0, 103, 0, 0, 4, 0, 256, 0, 75, 0, 55, 146, 0,
        0, 0, 2, 93, 256, 0, 0, 0, 25, 61, 0, 100, 60, 6, 0, 0,
        0, 30, 3, 24, 65, 49, 0, 6, 0, 0, 6, 0, 110, 0, 28, 15,
        96, 115, 89, 0, 153, 195, 0, 30, 0, 0, 0, 0, 0, 0, 0, 0,
    },
    { /* image 20 */
        0, 70, 87, 256, 144, 31, 0, 38, 42, 0, 100, 0, 0, 71, 0, 0,
        0, 0, 150, 0, 41, 53, 0, 9, 0, 178, 0, 0, 0, 0, 204, 69,
        18, 0, 116, 0, 102, 0, 0, 97, 111, 76, 0, 0, 20, 0, 175, 0,
        0, 0, 0, 0, 80, 4, 201, 198, 55, 40, 8, 0, 0, 13, 79, 37,
        0, 120, 190, 120, 127, 0, 138, 19, 65, 47, 0, 0, 0, 126, 0, 114,
        94, 0, 178, 0, 193, 56, 0, 0, 0, 0, 0, 0, 0, 75, 167, 0,
        219, 0, 0, 97, 0, 0, 0, 0, 93, 0, 0, 71, 0, 0, 153, 0,
        0, 80, 0, 0, 0, 30, 0, 189, 0, 57, 82, 0, 0, 130, 0, 0,
        114, 4, 0, 224, 0, 0, 33, 80, 251, 0, 106, 95, 0, 101, 120, 0,
        224, 0, 0, 0, 246, 0, 0, 183, 0, 0, 0, 175, 9, 247, 94, 0,
        7, 0, 0, 256, 130, 110, 0, 201, 141, 241, 235, 0, 0, 0, 0, 41,
        0, 256, 244, 0, 250, 190, 0, 0, 113, 111, 71, 11, 8, 67, 0, 53,
        0, 26, 123, 0, 0, 0, 0, 115, 0, 0, 0, 140, 0, 59, 253, 0,
        142, 252, 256, 239, 256, 90, 129, 0, 256, 0, 0, 0, 72, 18, 139, 86,
        0, 0, 175, 0, 152, 0, 0, 0, 0, 0, 26, 67, 0, 229, 180, 172,
        256, 185, 256, 256, 256, 134, 0, 10, 0, 0, 0, 0, 0, 88, 85, 141,
