0.05647163
-0.18203576
0.35152605
-0.05807449
0.03221823
-0.29419801
0.38676861
0.07261913
-0.05944996
-0.16673179
0.12224881
0.14212132
0.03384518
0.06710410
0.38526201
0.08272994
-0.02202646
-0.08575581
0.42107943
0.34096035
-0.14644738
-0.27357855
0.11489494
0.37151778
-0.07520356
0.12077063
0.12120707
0.14049785
-0.15584196
0.00049143
0.12228950
0.38441709
-0.12571575
-0.24790819
-0.01909211
0.37393811
0.85441804
0.34417081
0.04548222
-0.59393734
-0.13665184
-0.04320044
-0.08747386
-0.75104725
-0.04463633
-0.35138425
0.58310699
0.00292283
0.01257850
-0.09319991
-0.08079986
0.15532359
0.06661461
0.11565410
-0.27864274
-0.02565618
0.05080500
-0.01217535
-0.19535215
0.06228145
-0.03642939
0.12728705
-0.02720736
0.10000774
0.00066708
0.01368305
-0.22010951
0.32130870
-0.01833872
0.29489273
-0.29041108
-0.15482745
-0.26303509
-0.52114224
-0.09234095
0.61351353
0.63720548
-0.42063287
0.70892823
0.10086063
-0.09618270
-0.02892451
-0.15584216
-0.20606065
0.01967238
0.15285800
-0.17128040
0.03661140
-0.04462393
0.03782209
0.10218830
-0.08312475
0.02629120
0.33994263
0.04860333
-0.13119593
0.05600990
0.40895703
-0.00335168
-0.24632226
-0.14606276
0.41491637
-0.40999886
-0.38740563
0.00631952
0.49859589
0.01911645
-0.07304896
0.49914303
-0.02811848
0.25820079
-0.62975705
-0.02894915
-0.43002632
-0.08479148
0.20176032
-0.11473761
0.14954565
-0.05145676
0.38389996
0.40262824
-0.08014359
0.02567501
-0.10421830
0.05843949
0.25045869
-0.01333973
0.15501171
0.26808846
0.04276977
0.14901294
-0.45867294
-0.26084587
0.04912097
-0.11740772
-0.17156224
-0.28214216
-0.27400064
-0.02418664
-0.47266471
0.12965727
0.13540286
-0.43066016
-0.05354752
0.09824117
-0.37455478
-0.12830076
0.16375786
0.07184336
0.32228512
-0.37555572
-0.05143198
-0.01351766
-0.02517144
-0.05631119
0.20015730
-0.06577194
-0.06035140
-0.07195979
-0.11268594
-0.03673032
0.27680579
0.06199938
0.39910585
-0.13707566
-0.15276936
0.06127146
-0.29037750
-0.02030488
-0.02308895
0.02324234
0.01049611
-1.08427930
-0.15509695
-0.23751545
0.16779447
-0.06610427
-0.19545746
0.01928155
0.02994588
-0.00683797
0.80083752
-0.30290693
-0.20886584
-0.56517488
0.83032042
-0.22452845
-0.39047846
0.02270449
-0.31438816
-0.14479825
0.08930571
0.21249560
0.12376119
-0.22705150
-0.07007305
0.60707438
-0.17333914
0.02071656
0.15103133
0.32983831
0.03596649
-0.28124630
-0.02816525
0.17234345
-0.17476131
0.38749018
0.26625180
-0.06282870
-0.23079889
0.15226828
-0.05075119
-0.00698878
0.15773337
-0.18940203
0.25135285
0.43060657
0.01640508
-0.03424812
-0.20293763
0.20251448
0.02760229
-0.21954627
-0.20437716
-0.00481039
-0.11349008
-0.18835308
-0.11151603
-0.01300462
0.30723992
-0.26718938
-0.14979461
0.07867492
0.19753492
-0.11800066
-0.02960445
0.24897067
-0.40372747
-0.39250734
-0.43259683
0.25248128
-0.17348029
0.17361827
0.10705698
-0.05097901
-0.30566698
-0.12673701
0.06105906
0.29584745
-0.07712214
0.04969950
0.16218774
-0.05380729
-0.17382689
0.38114387
-0.02931637
0.27180719
0.09364168
-0.01917011
-0.04746201
-0.19811827
-0.33596739
0.16491635
-0.36508805
0.31408340
0.00978223
0.01949295
-0.04388929
-0.00491944
0.05898622
0.66486967
0.63127542
-0.29072416
0.09949610
-0.17707236
0.21001916
0.02241848
0.22442099
-0.55814093
-0.34255192
0.24628805
0.03985980
0.16540636
0.35142601
0.14163780
-0.06863131
-0.08809248
-0.13268588
0.12169986
-0.13548836
-0.23343159
0.07695316
-0.00380122
-0.18533662
-0.18442303
-0.36197773
0.07903142
-0.00452820
0.07823915
0.00100325
-0.01833958
0.21615048
0.10753755
-0.31813699
-0.18165918
0.07269286
-0.21715730
0.06994575
-0.06988205
0.00329228
-0.38041297
0.00802834
0.07735547
0.00356693
-0.22929865
0.13780791
-0.04382070
-0.04720328
-0.22296749
-0.13676772
0.09404135
0.10374606
0.09053883
-0.04902685
-0.02969624
0.10850683
-0.11872789
0.14056784
0.37298608
-0.34497732
-0.04489310
0.45767888
-0.14451203
0.43961799
-0.32149711
0.94960582
0.25082645
-0.03893315
0.07585420
-0.08326712
-0.04026435
0.07585119
-0.03186677
0.37660033
-0.09059723
0.21786475
-0.16241904
-0.12271037
0.86374956
-0.07263318
-0.10973499
0.05517043
0.18122397
-0.17623438
-0.35437691
-0.22574860
0.49366617
0.11705321
-0.18051951
-0.09488954
0.62129831
-0.47784355
0.10377857
-0.44390786
0.41097763
0.60518408
0.77242607
-1.49601686
0.09549382
0.05845763
0.14930451
0.13325192
-0.11891539
-0.00895312
0.14120914
0.03153639
0.16979465
-0.09455889
0.03974703
-0.07947955
-0.05939002
-0.10643233
0.06436899
0.07633996
0.24160983
-0.40468574
0.21215151
0.01550585
0.12026393
0.23254804
0.23792410
0.29552352
-0.67356813
-0.04547735
0.54548103
0.20028153
0.76323354
1.26930511
0.02291025
-0.74764520
0.30254394
0.01668269
-0.13563371
-0.24770750
0.29773229
-0.16473643
-0.10965278
0.25948545
0.05221570
-0.17342067
0.06341731
-0.18262598
0.29608136
-0.22839502
0.13081580
-0.36955315
-0.21494497
-0.28917152
0.11997996
0.16104180
0.02691808
0.08209172
0.16059884
-0.40249103
-0.81069404
0.76752871
0.25510448
-0.33553100
0.26900449
0.97035503
-0.15397367
0.01806538
0.24271247
0.26606646
0.26728851
-0.00573627
-0.17045593
-0.08179167
-0.06023018
0.01989014
0.20339540
0.13684072
0.15792352
-0.06892411
-0.27162892
0.15813097
0.27706808
-0.42461810
0.20855874
-0.47204337
0.03791464
0.28962818
0.12901022
-0.07506273
-0.08029036
0.12546350
-0.32251781
0.08692332
-0.05136558
-0.48213744
-0.14774367
1.10075593
0.54188859
-1.06831002
-0.20648384
-0.11253161
-0.07614081
0.45952746
-0.23004624
-0.50975192
-0.42664367
-0.03157778
-0.24564539
-0.14471474
0.21003854
0.14844333
-0.23895667
0.23161919
0.20077990
0.45074552
0.08827450
-0.42055839
0.27006233
-0.00466991
-0.15156093
0.19108634
0.25729734
0.47331357
0.20340839
0.06277262
-0.41996363
0.42562306
-0.00337444
1.14916480
-0.05608875
0.14781263
0.05406896
0.25227913
-0.19717543
0.07723884
0.08219455
-0.58818305
-0.39198577
-0.04036711
-0.21228975
-0.18326369
-0.11245660
-0.16146782
0.09050603
-0.07158890
0.05615439
0.06649235
-0.09331188
0.06223806
0.44882479
0.27844468
-0.31199786
0.49960241
0.12710923
0.14824711
0.09629557
-0.25746739
-0.45620984
-0.12539642
0.58143228
0.47635770
-0.21678787
1.00067258
0.33576241
-0.08360572
-0.42880470
-0.25982651
0.08403829
-0.22983804
-0.50206900
-0.08446770
0.12137001
0.24813056
0.16366364
0.14804558
-0.19756635
0.47653291
0.26614389
0.06822129
0.18472700
-0.14712608
0.17983674
0.24287434
0.38458768
-0.23148681
-0.00200961
-0.37753412
-0.11862988
-0.12157645
-0.02075379
-0.13662346
0.25841594
1.31005931
0.34285715
-0.39362743
-0.00490317
0.29878387
-0.08375417
0.21932085
-0.19974154
-0.41455418
-0.45566177
0.04793806
-0.18205586
0.02750837
-0.19256863
-0.11383840
-0.10730572
0.51237512
-0.09590797
-0.05850432
-0.23468919
0.17224018
0.41227442
0.19627114
0.22313014
0.14038539
-0.02930061
0.22164629
0.47808290
-0.12467411
-0.37445706
0.06648891
0.54623890
0.95117742
-0.08118343
0.32689762
0.23688279
0.36202925
-0.11165804
-0.28771868
0.19547142
0.01008727
0.43897232
0.02900294
-0.10944693
-0.11673785
-0.08608954
-0.18709975
0.66192609
0.16143103
0.16206855
-0.24170950
-0.08278277
0.42648908
0.39567372
-0.02365554
0.39013195
0.16521937
-0.04026778
-0.42187852
0.09521535
-0.02980355
0.09493025
-0.23621956
1.56050360
0.23955768
-1.38412952
0.16039450
-0.44788867
0.38315216
0.29158655
0.29217720
0.03675260
-0.19014674
-0.61374521
-0.21579725
0.30574682
-0.68536752
0.10722709
-0.14179735
0.23718913
-0.36946541
0.72353274
0.10533208
0.19539778
-0.81721056
0.25440520
-0.29801723
0.53967595
0.13616203
-0.01444405
-0.40925732
0.47172460
-0.47929335
0.12455422
-0.56432772
0.23879220
-0.39602661
0.89076144
-0.21653587
0.37979361
-0.25666168
0.22174010
-0.68917775
0.02375202
-0.38358179
0.16716447
-0.61179441
-0.43366143
