0.26531288
-0.04804740
-0.10044616
0.04737821
0.20721500
-0.05058778
-0.12723607
0.01309536
0.17433976
-0.08360061
-0.13078128
-0.07901859
0.11457512
-0.15080528
0.10837071
-0.23181328
0.04265961
-0.14853415
0.22520880
-0.24113220
0.28961164
-0.03186911
-0.06751455
0.17249951
0.33743039
-0.12012626
-0.17393944
0.23908016
0.07645991
-0.04186837
-0.19115798
0.20904425
-0.09860612
0.00563643
0.18549709
0.07100238
-0.20465101
-0.15770002
0.38594443
-0.00354945
0.35366783
-0.11660115
-0.21427812
0.20180531
0.32570770
-0.07333923
-0.19664463
0.37270695
-0.10066841
0.00065320
-0.06921070
0.43264288
-0.20978363
-0.22436464
0.39025337
0.31352946
-0.21531874
-0.00934271
0.38330647
0.17838013
0.25204381
-0.16834737
-0.09276802
0.02743460
0.15571918
-0.01788926
-0.00381684
0.15476824
-0.12762989
-0.08859421
0.19747709
0.25291130
-0.16887833
-0.09304427
0.45306110
0.24044284
-0.21117158
-0.01835505
0.22411816
0.12450271
0.21687913
-0.06501570
0.02536133
-0.26911703
0.13299924
-0.12369007
0.16584194
-0.26784697
-0.09528729
-0.12388520
0.25429633
-0.03913921
-0.13023911
-0.05947846
0.27275455
0.02804652
-0.11247962
0.01268597
0.07516357
0.04773739
-0.50835329
0.64573461
-0.92047125
-0.84581655
-0.09749058
-0.12942980
-0.02208611
0.12726820
0.07425846
0.23796806
-0.06194910
-0.04292987
0.06037138
0.23798613
-0.17433085
0.13317838
0.14943631
0.15397672
-0.22922523
0.15621296
0.00078581
0.11255871
0.01179446
0.17603290
0.10361367
-0.05513295
-0.08492775
0.01609753
0.23088305
-0.13368107
0.26677486
-0.05242425
-0.09523253
0.00064507
0.14167894
0.01573554
-0.20728643
0.06346437
-0.08988851
0.08948469
0.04469527
-0.12813088
0.05210376
0.00752535
-0.09520111
-0.04959431
-0.19040518
-0.02292893
0.02899002
0.11014845
-0.07745425
0.21134870
0.07370291
-0.07816880
-0.02575649
0.06177431
0.06138766
-0.02881375
-0.23626460
-0.00456207
0.06714251
-0.09711532
0.09555064
-0.09984306
-0.01647329
-0.11542320
0.11787833
-0.00386975
0.00660891
0.19919655
0.26428258
0.11579861
0.10719935
0.09932805
-0.09398347
-0.11228267
0.01969961
-0.06202893
-0.43732482
-0.13717671
0.14544973
-0.07165217
0.02896652
-0.17811993
-0.16787596
0.23420964
0.10353341
0.08562158
0.10463110
-0.39193571
-0.28546360
-0.11368681
0.11260494
0.04259928
0.17762490
0.05108075
0.00062983
-0.17963219
0.08525731
-0.03695486
0.19868577
0.13422589
0.08189803
0.01763199
0.05003509
-0.07577285
-0.08475824
-0.06026747
-0.03617410
-0.12128627
-0.05169512
-0.06529741
-0.01836212
-0.12242159
0.13076840
-0.36643589
0.03114263
0.13738002
-0.01711811
-0.39581579
0.02221861
-0.03334549
-0.27051261
-0.04357746
-0.10939918
0.04396793
-0.05500390
0.05940529
0.01694180
-0.19742030
-0.35239229
0.13883263
-0.07666204
0.06763577
-0.01196658
-0.03381158
-0.03710640
0.00296038
-0.29174390
-0.49304372
0.16012326
-0.11144288
0.25500327
0.31938079
0.16216154
-0.07689705
0.15880971
-0.01062612
-0.02803472
0.09863091
0.06901607
-0.35483015
0.17463641
0.09454950
0.29512390
0.00443266
-0.00665170
0.23942539
0.11011299
0.05056245
0.03934487
-0.18111312
-0.32922044
0.11454652
0.13937151
0.10148845
-0.14135757
0.00255380
-0.07832149
0.19837716
-0.03859357
0.05095179
0.10954415
0.40064612
-0.13678204
0.09864242
0.18894157
0.18087566
-0.17769298
0.05839176
-0.05744114
-0.37308908
-0.09408681
0.14749812
-0.01851150
-0.11254080
-0.06633219
-0.05036059
-0.15053543
-0.07036620
-0.12090169
-0.05455725
0.04492496
-0.04674834
-0.05177500
-0.05486361
0.14007591
-0.20442531
-0.19297770
-0.03604866
-0.09561876
0.02537973
-0.16680823
0.08894826
-0.12047092
0.22454065
0.06812628
0.14048681
-0.20351975
0.03378751
0.00768780
-0.31238613
0.01399429
-0.57013941
0.00068750
-0.14197643
0.16828902
-0.49067140
0.14637569
-0.00501110
0.08036222
-0.27618030
-0.17448328
-0.17084499
0.06941765
-0.35728544
0.11748343
0.25128588
0.10152800
-0.39556846
0.20279850
-0.24773079
0.03852172
0.02608599
0.10280898
-0.31905103
0.16853933
-0.00009309
-0.24533898
0.13212469
-0.34507242
-0.15770344
-0.09599887
-0.96232361
0.06131843
-0.41736907
0.27661434
-0.19987117
0.11973417
-0.05054265
0.05729564
0.00210024
-0.03149000
-0.25719115
0.06099271
-0.13717997
0.06740905
-0.42427304
-0.03139204
0.36942267
0.33036953
-0.27054894
0.14686801
-0.24101585
-0.10214729
-0.29066890
0.14251962
-0.10495401
-1.09710479
0.29463089
-0.01149486
-0.25502929
-0.09966356
-0.16040654
-0.08014493
-1.27969801
0.06816851
-0.18770634
0.12259538
0.23517957
0.28415525
0.06824238
-0.39422798
-0.19036798
0.14136146
0.06019191
-0.04562974
-0.18062387
0.02532043
-0.24570656
-0.35442278
0.38055488
0.26028675
0.03534356
0.18904574
-0.25238463
-0.07025385
0.15984148
-0.02937687
-0.08670963
-0.01287490
0.09296510
-0.16260971
-0.28636745
-0.02591174
0.02008554
-0.05099581
-0.86173898
-0.21974182
-0.14422044
-0.27235448
0.37399468
0.15473545
0.30503571
0.24928741
-0.38140199
-0.09122998
0.05657025
-0.27361450
0.16720442
0.12198789
-0.24597289
-0.22800991
0.46244571
-0.04147839
-0.18595389
-0.86805981
0.08234102
-0.06326130
0.17096542
-0.05825349
0.11826136
0.04716183
-0.05290223
-0.16833706
0.09325209
0.08459266
-0.05738844
-0.01359544
0.25997430
-0.29622620
-0.25033891
0.02584115
-0.00593746
-0.21283300
-0.12488202
-0.01743288
0.01533777
-0.16148953
0.42992255
-0.38311175
-0.08587229
0.27117649
-0.08745468
0.07334697
-0.13091804
-0.10494807
-0.34460384
-0.00733812
-0.17569745
-0.02367146
-0.05154746
-0.00442273
0.07929219
-0.15456340
-0.23518434
-0.22070166
-0.10657801
-0.27108252
-0.02741937
0.02840754
-0.15393616
0.03978407
-0.26455009
0.25887135
0.02557711
-0.00049507
-0.34574133
0.26287255
-0.04827353
-0.24868973
0.23230481
-0.14632270
-0.09442903
0.30381063
-0.40605992
-0.08162154
-0.09733102
-0.47847635
-0.19617438
0.15709311
-0.50894326
0.03260439
-0.01108722
0.06487056
0.09339052
-0.05105072
-0.02168307
-0.21997677
-0.26720178
-0.15894544
-0.22539808
0.00224954
-0.30221418
0.20580846
-0.26801547
0.08678745
0.28416494
0.21404245
-0.10443024
0.13836381
-0.36163992
-0.00480061
0.08448936
-0.07824798
-0.11204930
0.20097832
-0.17273642
0.01265036
-0.06919782
-0.03347664
-0.28803039
-0.04657137
-0.13245907
0.13454440
0.03191721
0.07999870
-0.06002229
-1.35735536
0.20600832
-0.29078084
-0.63366556
-0.16016661
-0.00612822
-0.16136195
-0.02744971
-0.27664620
-0.10172593
-0.81393534
0.17547348
-0.33515486
0.21640992
-0.13297971
-0.08942649
0.15902439
-0.04301309
-0.29442760
0.03427625
0.05574231
-0.31375802
-0.08107322
-0.04202930
0.03630833
-0.04429062
-0.18636350
0.06720915
0.27405068
0.11746710
-0.48099336
-0.08298812
0.25461072
0.29939017
0.11291284
-0.30679497
-0.02636836
-0.04060134
-0.04947383
0.00984054
-0.11498183
-0.11091148
-0.26856172
-0.21790582
-0.15768167
0.10800832
0.16047357
0.12528472
0.11552212
-0.27371547
-0.35303301
0.08904474
-0.03512391
-0.22579539
-0.21610405
-0.16713077
0.03558487
0.03529899
-0.05377585
-0.04488504
0.01596778
0.03968908
-0.14920351
-0.03902929
-0.07790080
-0.16198654
0.14658469
0.00594263
0.01425507
0.19778316
0.01255877
0.08805817
-0.19985440
-0.03481399
0.10751420
0.19032057
-0.56477481
-0.07267880
0.14452757
0.00950928
-0.19819678
0.41020122
-0.36337826
0.12161861
-0.00941896
-0.12844439
0.21055742
-0.04691508
-0.06988329
-0.08073427
0.29640695
-0.00898153
-0.04780791
-0.07324810
0.05756049
-0.06944958
0.05360341
-0.37463403
-0.75282156
0.07323487
-0.15010029
-0.12384615
-0.01530261
0.06440181
-0.16253188
-0.01191735
0.11580789
0.20965157
-0.50658005
0.03249118
0.00891932
-0.15745890
-0.31905013
0.20018834
-0.09042411
0.10043712
-0.05811326
-0.30099192
-0.00557101
0.00920510
-0.34292156
0.02634071
0.09927575
0.34749514
-0.15403530
-0.03261150
-0.01489487
-0.24868357
-0.25705254
-0.39254788
-0.04336817
-0.92069352
0.02967630
-0.02054108
-0.13139026
0.11985555
0.10106396
-0.02756682
-0.11852202
0.02735656
-0.77312046
0.09628101
-0.01649167
-0.09396817
-0.07227982
0.22766495
0.05846760
0.01086632
-0.12925501
-0.17928262
0.09544312
-0.10668991
-0.24367858
-0.03662845
-0.13986780
0.14703456
-0.05292094
0.23397040
-0.11435403
-0.40173700
-1.18537390
0.17775287
0.24497564
-0.20530844
0.01657234
0.03772031
-0.03244274
0.32697952
-0.20530315
0.08773232
-0.30147865
-0.26838616
-0.38069662
0.10204171
-0.07820443
0.13918059
0.17040440
0.24813610
-0.12423816
0.01182688
-0.41773909
-0.21148993
-0.05769381
-0.10190487
-0.00052423
-0.02791263
-0.30725297
-0.04467587
-0.10651343
0.22328420
-0.28055245
0.11625292
-0.49919066
-0.03972435
-0.18540189
0.19170517
0.15615575
0.19236544
0.04327408
0.19367510
-0.15349391
0.10869519
-0.10059249
0.28741196
-0.08786350
-0.23363294
0.14108469
0.30453163
0.30508044
0.00306865
0.06962321
-0.02818309
-0.34639001
-0.02548993
0.03468301
-0.23737191
-0.24232361
-0.06451822
0.28309450
0.21281521
-0.27815256
0.27418208
0.21288545
-0.02538566
0.10330733
-0.08313258
0.03193715
-0.06912703
0.02779191
0.07642456
-0.14142789
0.05289046
0.01682215
0.04861748
-0.00881070
-0.24121627
-0.14515115
0.12207922
-0.00904921
0.03307251
-0.13653691
0.00621798
-0.09994863
0.20584725
-0.01142696
0.00462591
0.08164139
-0.05209484
-0.17963691
0.01824720
-0.02077536
0.17294106
-0.22160186
-0.20473690
-0.07432327
0.04742293
0.36852300
-0.19587363
-0.84487015
-0.22311801
0.09227545
-0.05647495
0.01539766
0.03855983
-0.09375203
0.07998434
0.14901091
-0.25671324
-0.29221159
0.23157351
-0.00191660
0.15599844
-0.15509750
0.00175232
0.00513721
0.02847192
-0.01331363
-0.11462113
-0.00484363
-0.02385595
-0.17991360
0.10135214
-0.00972746
0.00470884
-0.24565448
0.02288283
-0.06430984
-0.05418398
0.15652330
-0.46843618
0.11814994
-0.61262417
0.03216918
0.17260005
0.05659148
0.09796909
-0.04272652
0.02056523
0.09853341
-0.06746427
-0.02646286
0.10058825
-0.17798233
0.07854378
-0.21977338
0.17771327
-0.03077239
0.10687520
-0.15310772
-0.17275046
-0.07375044
0.00131400
-0.04098955
0.04140251
-0.08356802
-0.16199273
-0.34108007
-0.03553570
-0.22338080
0.19312602
-0.22928339
-0.06175628
0.19104269
-0.23792455
0.08150343
-0.18006264
-0.00486871
0.18596534
0.01640905
-0.11875288
-0.02517802
-0.17883334
0.21106948
0.23292449
0.06066329
-0.00801108
-0.00621706
0.14189485
0.05614886
0.08674907
-0.20353265
-0.00246140
0.22580568
-0.03772571
0.07370836
-0.04649839
0.00308397
-0.13360602
-0.24711581
-0.04029180
-0.10394177
0.15103085
-0.16086572
0.09271766
0.10343607
0.06809226
0.23652160
-0.15983059
0.10756072
0.06654637
-0.18058339
-0.14954789
-0.09894255
-0.06172475
-0.14789045
-0.49406335
0.24861684
-0.02828377
0.20412757
0.14136198
0.09930389
0.12136782
-0.08209872
0.14379548
0.10391963
-0.06457005
0.07770165
-0.02673222
0.03667708
0.07491545
0.18114057
0.03145164
-0.08027039
0.11034704
-0.25746384
-0.24890180
0.22815743
0.32668483
0.04580517
0.13487877
-0.21161169
-0.20040880
-0.21237336
-0.11549455
-0.06822311
-0.25838783
-0.29533714
-0.04466863
0.15249479
0.10734131
0.23910220
-0.14567345
-0.11345358
-0.13181607
-0.52969992
-0.11855678
-0.08295776
0.36050183
0.04935097
-0.45968369
-0.28610340
-0.25176585
0.24697550
-0.15103479
-0.24811783
0.03772156
0.03233761
-0.22844855
-0.16053145
0.15753680
0.20873918
0.31230772
0.07029434
-0.00873563
-0.09944096
-0.34339929
-0.37550947
-0.01426818
0.09927640
0.11826926
-0.19117866
0.30458325
-0.08720572
-0.20559771
-0.02881092
-0.10707404
-0.10562059
0.07260842
0.10195152
0.46979198
-0.09268862
-0.20062567
0.15386882
0.34376583
-0.00849257
0.00019805
0.10280541
0.03035939
-0.02861002
-0.26022762
0.34425059
-0.10014238
-0.81964999
-0.22127770
-0.12681557
0.03340806
-0.18645689
0.00366154
-0.07756288
-0.01994918
-0.76527238
-0.20461020
-0.23827189
0.20791008
0.50503558
0.09723012
0.13833348
-0.18540163
-0.51007682
0.28097388
0.36034489
0.02587312
-0.09492926
-0.21822362
-0.20888038
-0.35867673
0.55570108
-0.35424870
-0.09397770
0.19750430
0.36436388
0.32345605
-0.34775060
0.12479658
-0.24363241
-0.13968539
0.00166595
-0.23374312
0.01358194
-0.07130357
0.18830869
0.09213232
-0.21336982
-0.05976946
0.01193252
0.01925516
0.11670718
-0.26105642
-0.15311186
-0.07135149
0.19118170
-0.13892063
-0.10556992
-0.27077299
-0.10473490
0.01393886
0.01899586
-0.16225615
0.09480288
0.30523318
-0.01841898
0.09733033
0.31924114
0.00413661
-0.14748728
0.13530417
-0.02298440
0.18846597
0.56684226
-0.24288493
0.02775163
-0.01027172
-0.08229036
-0.81438851
0.46448547
0.10445323
0.13515534
-0.45483857
-0.46251455
0.14584984
-0.04815620
-0.06487082
0.61844003
-0.02721239
-0.43616182
0.09688853
0.34086436
-0.01511469
0.28021529
0.35402942
-0.48986417
-0.66503251
0.02656544
-0.04516711
0.09639218
0.04682463
0.02857406
-0.04473420
-0.13438651
0.07772402
0.03800473
0.00984406
0.01599361
-0.15031128
-0.04311869
0.05354474
-0.41246271
-0.13529061
-0.02195598
0.24264090
0.37477079
-0.10895426
0.09221247
-0.45491940
-0.10695269
0.20406014
0.11909205
-0.00955276
-0.04703887
-0.10170849
-0.11171106
-0.63294572
0.17728543
0.07769539
-0.04076747
-0.01739905
-0.33901459
-0.05449464
0.05142797
-0.14529905
0.19848712
0.03275608
0.05527705
0.20179865
-0.12741917
0.09334596
-0.13154200
0.07907160
-0.04094255
-0.14161536
-0.09276986
0.00186381
-0.13765460
0.08588485
-0.22073540
0.16740313
-0.03672308
-0.07730444
0.02336324
0.19796525
0.10801262
-0.19311294
-0.09661659
0.06505467
-0.00963437
-0.19964349
0.03027289
0.00530761
0.16138881
-0.11388723
-0.64733011
0.09233548
-0.25408736
0.03431191
0.42284954
-0.52496362
0.04577048
0.00813111
-0.07136953
-0.19121240
0.39146262
0.22275601
0.08214368
-0.39670977
-0.47638714
0.08931787
-0.01410907
-0.35756645
0.46303013
-0.02987901
-0.31478557
-0.12531398
0.26029763
0.05914821
0.19721572
0.35417336
-0.27508014
-0.28593493
0.05522105
-0.10628620
-0.16214019
-0.05630640
0.10619220
0.37183505
0.12804037
-0.24840569
0.02507548
-0.26358351
-0.03381926
0.09608480
0.08387984
-0.31659079
0.01495258
0.14361161
0.16118258
-0.10474614
-0.07863338
-0.30017474
-0.03916344
0.24124841
-0.07628350
-0.15309484
-0.37220904
0.18822487
0.39941004
-0.41853440
-0.33098605
-0.12272574
-0.21123822
-0.14999340
-0.01852095
0.13526075
0.16710593
-0.05037497
0.01106136
0.06480704
0.18357871
0.15072361
0.17301497
-0.27331021
-0.29872787
-0.18487142
-0.14693466
-0.16747332
0.05543043
0.14271306
0.03972538
0.15031555
-0.09024481
-0.03863002
-0.05589438
-0.53642082
-0.09238226
0.02813980
-0.21461332
0.17776836
0.13101187
0.07591585
0.30993178
0.33757642
-0.24404688
0.03863524
0.02179464
-0.02905528
-0.05844267
-0.21594027
0.30713248
-0.00057248
-0.06369732
-0.15070608
0.04124734
0.27603564
0.04904529
-0.01270353
-0.19034950
-0.14412215
-0.38075429
0.03543090
0.00816305
-0.01198652
0.19420198
0.20264184
0.20228299
0.34775752
-0.31351992
0.18685357
-0.05130529
0.11035866
-0.30494630
-0.13745074
-0.24203223
-0.43629304
0.14302336
-0.12209325
-0.07866563
0.12288984
0.17085423
0.15345630
-0.28713265
0.06464899
-0.07266670
-0.10246412
0.01093295
-0.07562221
0.08329452
-0.03638158
0.04980470
0.04539901
-0.11132621
-0.13148403
0.06891195
0.10209651
0.11686797
-0.03175578
-0.04665048
-0.52695709
0.09447546
-0.00401991
0.00136642
-0.23722139
-0.13687389
0.06135675
0.00225465
-0.11351172
0.09471991
0.28558829
0.04486600
-0.04638768
0.11124729
0.29079014
-0.02204944
-0.06797425
0.01743372
0.02839712
0.33649382
-0.24404715
0.00368187
0.05065218
-0.10605109
-0.15606067
0.16962749
0.12659447
-0.12503821
0.13907968
-0.31297976
-0.00260991
0.15508649
-0.16186692
0.13416612
0.18862829
-0.24861710
0.03240370
-0.02807470
0.02499316
0.13231210
0.18192756
-0.34343818
-0.36173889
0.16444738
0.01185685
-0.09799326
-0.03817455
0.20055926
0.03950620
0.15017904
0.10922677
0.06670029
0.16544195
0.13077070
-0.09002794
0.00415501
0.01067890
-0.42109877
-0.07762608
-0.03417466
0.13324602
0.11611686
0.05357625
0.03883695
0.11631738
-0.24969997
0.16338043
0.13397653
0.12277793
-0.20265187
-0.16310710
-0.07488170
-0.56964600
0.12658350
-0.05279705
0.13860950
0.11573754
-0.00458732
-0.23188925
-0.17952573
-0.21991879
0.16806602
0.32845828
-0.06931710
0.12099099
-0.07794829
-0.05094345
-0.11419717
0.11371128
0.00457665
0.08080930
-0.23827516
-0.23986967
-0.05526238
-0.03623878
-0.02085583
0.26286632
0.08309747
-0.07555513
0.06333082
0.32893354
0.12804098
-0.11597578
-0.09651364
0.16813827
0.04667756
-0.11430779
0.22926171
-0.09938155
0.26497024
0.32087019
-0.59424472
0.17373174
-0.21080554
-0.13876356
0.17178991
-0.44009003
0.01752589
0.10521635
0.21537711
-0.18008962
0.20847121
0.06344540
0.07464622
0.00171385
-0.02022115
0.04259461
-0.18031344
-0.28771839
0.35362419
-0.04786335
-0.39464784
-0.75853646
0.04344112
0.17628706
0.14057852
0.20023380
-0.12945679
0.43459669
-0.05154603
-0.09714749
-0.02191519
0.24382244
-0.76819181
0.04753929
-0.26175943
-0.14193639
0.31586036
0.07339762
0.27909270
-0.07508870
-0.24831264
0.08941824
0.31904051
0.08097528
0.03945017
-0.19423784
-0.57387912
-0.50222003
0.16351235
0.00422077
0.18711704
0.24076974
-0.06756623
-0.00002409
0.48537233
-0.22771455
-0.24501033
0.02636172
-0.29921633
-0.09563665
-0.12531877
0.09361962
0.26356119
0.00866720
0.01121316
0.00246587
0.06063027
-0.00527271
0.04635436
-0.17702502
-0.13511214
-0.10635839
-0.07111526
0.08569343
0.02494430
0.03927263
-0.06311755
0.17961961
-0.02127948
0.10445888
-0.03937740
-0.01160815
0.20630984
0.05648000
-0.20178062
-0.10607808
-0.20870036
0.12107088
0.24883741
0.01846089
-0.19891953
0.15194984
0.03629498
-0.06441540
-0.36131370
-0.41595677
0.33222699
-0.19781150
0.09167123
-0.03802814
0.10712364
0.20154540
-0.09906039
0.20450579
-0.14391869
-0.27199551
0.11634284
0.19287930
0.02858868
-0.34096739
0.06275911
0.34117743
0.22165877
0.00335165
-0.01905472
0.12682070
0.14809179
0.05008281
0.15541689
-0.02123069
-0.54216307
0.30827793
0.09121850
-0.32004413
-0.03101976
0.24832229
0.06129061
0.08823256
-0.07365387
0.00899304
0.09377210
0.07834516
0.02028959
0.06325071
0.05967159
-0.05519879
0.06338928
-0.03291845
-0.05515565
-0.10400942
0.05652765
-0.01452999
0.12127008
0.06671261
-0.05875671
-0.10273551
0.00592759
-0.12755731
0.02533772
-0.09175665
-0.18612625
0.10776933
0.06429257
0.05112864
0.07791143
0.14992003
0.05183483
-0.21842454
0.01773624
-0.22286995
0.43692911
-0.00811032
-0.00191167
-0.20303106
-0.06630281
0.20611320
0.13406771
0.05738849
-0.00960253
-0.31410331
-0.22240217
0.14999241
0.05129111
0.32331467
0.29705447
0.23123562
0.27219397
0.14172611
-0.69252098
-0.03359089
-0.18273477
-0.15469663
-0.91713810
0.05250496
0.11758631
-0.28984585
-0.31918094
-0.21466058
0.03580701
0.04385280
-0.19080782
-0.50730848
0.42016819
-0.25393459
0.20185919
0.19688295
-0.03892218
0.18608558
0.22243533
-0.09254048
-0.63818461
0.16679890
-0.53953451
0.03238169
-0.41427356
-0.57747167
0.35125881
0.18959610
0.29172963
0.18998615
-0.56956410
0.15145427
0.29656014
0.34113035
0.08372983
-0.42594168
-0.43262437
-0.15957226
0.25122461
-0.44206735
0.25172049
0.11906994
-0.19673733
-0.30010501
-0.16918160
0.05534497
0.04864164
0.26819119
0.18109740
-0.02784979
-0.19699547
0.07491504
-0.14702836
-0.01566343
0.17307435
-0.05428777
-0.01657510
-0.33062583
-0.15197603
-0.16939418
-0.20042041
-0.07109539
0.08228457
-0.13254157
0.00579326
0.11850627
0.32032105
-0.05915272
-0.14912805
0.35170832
-0.03483401
-0.01720538
0.08073980
-0.00405028
0.46490106
0.39075339
-0.13395245
0.01822229
-0.02700014
-0.21437328
-0.11563773
-0.16991788
-0.06490962
0.05350386
0.11073900
-0.10162292
0.03740590
-0.03447764
0.23655947
0.12870392
0.06324793
0.05995395
-0.02673421
-0.55403757
0.11206677
-0.03944063
-0.36915651
-1.25735247
-0.06895248
0.14318657
0.19656485
0.02905305
0.05065680
0.35930753
-0.07590510
-0.00976937
0.14807935
0.52331406
-1.23060751
0.20871386
-0.26371461
0.02844511
0.44396329
0.15164763
0.29008409
-0.36899158
-0.70277941
0.09101432
0.18353130
0.00545996
-0.06170209
-0.15893331
-0.31882644
-0.46590438
-0.03629988
0.12200011
0.10262685
0.42338243
0.01931803
-0.15758613
0.20275518
-0.36323512
-0.07164053
0.06518184
0.14645410
0.20951883
-0.13646021
-0.29699224
0.22892471
0.29018739
-0.04772170
-0.09295464
0.05209665
-0.02887546
0.03880136
0.19596884
-0.11992057
-0.07972454
-0.02652336
-0.00557374
-0.05805625
-0.08170352
-0.15155500
0.01833711
-0.05095770
-0.02387879
0.02786014
-0.13754688
0.18870635
0.07756199
0.12810324
-0.08577980
-0.19330949
0.12034245
0.10874572
-0.00405140
0.04835116
0.20706494
0.07255913
-0.06788017
-0.15069726
-0.13598698
-0.08404139
0.10022849
-0.09883667
0.11882669
-0.03811810
0.05971130
-0.01312575
-0.02791682
-0.13430758
0.11303400
0.12356782
-0.01199674
0.17867516
-0.83920330
-0.05884678
-0.01167535
0.05148619
0.02294883
0.03920731
0.04423060
0.00172425
0.22793616
0.44044849
-0.08124653
-0.48733220
0.17789109
0.11608867
-0.13339670
-0.04603984
0.13553423
-0.13034078
-0.16217841
0.18345842
0.25228935
0.23554307
0.11920534
-0.05547993
-0.14966162
-0.20075282
-0.13244659
0.07617345
-0.23646796
-0.22797559
-0.09586050
0.16446106
0.12220796
0.19922152
0.19318730
-0.19450977
-0.19548869
-0.50498480
-0.36599055
-0.18478227
0.28646722
-0.06030980
-0.01186838
-0.00357935
-0.04193789
-0.00671292
0.02185434
-0.18995096
-0.29825541
-0.10234105
-0.53581524
0.40664729
-0.10163743
0.03861169
-0.43684530
-0.29144308
0.00742514
-0.21773221
0.22114836
0.20549205
-0.33083695
-0.45675367
-0.09422688
0.36905897
0.27560323
0.47300434
0.26536566
0.39872283
0.05092817
-0.89415246
-0.16032429
-0.08132757
-0.30246162
-0.70488089
0.30551410
0.32421672
-0.32176989
-0.05367217
-0.37305796
-0.14679286
0.00338774
-0.38406813
-0.91007179
0.11430845
0.11599651
-0.07086511
0.19678481
-0.23075584
0.05421637
-0.29848540
0.11560615
-0.45754147
0.21524927
0.16284366
0.15363818
-0.42514440
-0.57870823
-0.14655635
-0.00394643
0.11655091
0.19298945
0.07395201
0.13107102
0.15021768
0.33572713
0.51147783
-0.50930655
-0.72951686
0.20334081
0.26016054
-0.56459403
0.18476483
0.11669895
-0.09965891
0.04332433
-0.34025133
0.17051546
0.03305122
0.10348219
0.06660203
-0.06262437
0.03088370
-0.11084989
0.00761684
-0.23075397
0.08955738
0.08187696
0.16151844
-0.36368689
-0.07535841
-0.11293171
-0.19363318
0.11310018
0.17727312
-0.13784121
-0.30993682
0.11965325
0.38658884
0.04602122
-0.21126483
0.22668809
0.07183633
0.00181000
-0.11897782
-0.06426473
0.22441329
-0.12673362
0.22195633
0.13030103
0.17009893
-0.58355385
-0.24086584
-0.03736157
0.20220241
-0.02778515
0.10015094
-0.07949159
-0.25310251
-0.16661939
0.33757606
0.18388106
0.17385685
0.02423929
-0.06566348
-0.26517448
-0.80875325
-0.07106753
-0.30490437
-0.67414731
-0.46387935
-0.12794395
0.27133855
-0.86455292
-0.03918899
-0.11468799
-0.15988909
-0.25121778
0.05736749
0.05248276
-0.02532588
0.10780545
-0.26294687
0.05226737
-0.10573498
0.00564909
-0.33125073
0.10256131
0.28504568
0.02891668
-0.48348731
-0.26448879
0.02376412
0.10618473
0.46096429
-0.08016910
-0.09109225
-0.72739357
-0.09929729
-0.34384617
-0.04864562
-0.10846066
-0.07089692
-0.08467457
-0.03498375
-0.37186009
0.24535869
0.11425955
-0.11859462
-0.04635141
0.08068988
-0.06197020
-0.13098305
0.09419454
0.11593324
0.07940897
-0.13499056
-0.28411204
0.22388701
-0.23335840
-0.59824479
-0.16576526
0.27341127
0.15684338
0.09845415
-0.16837646
-0.62488168
-0.16113396
0.26691231
-0.03634518
-0.06290747
0.25630105
-0.32673618
0.06741220
0.20264335
-0.20564240
-0.03378838
0.11660475
-0.41091126
-0.42123282
-0.13620791
-0.05152649
-0.08490390
0.05565010
0.03455739
-0.23816781
0.01542368
0.09607934
0.20547423
0.08096006
-0.27394840
-0.12963702
-0.20655324
0.23371291
-0.95385587
-0.32176638
-0.68797803
0.20178875
0.05845939
0.20204927
-0.09384467
-0.34266183
-0.19871190
0.09752557
0.50690645
0.26359773
-0.14780146
0.14566574
-0.06126157
-0.65560013
0.22226085
0.14644727
0.28750485
0.13534346
-0.04446584
0.05411352
-0.11895686
-0.49329844
0.11311282
0.06603190
0.06030976
-0.02726766
0.11949195
0.06038860
-0.01384424
0.17105345
0.06423476
-0.14872812
-0.13639280
-0.08838137
-0.13290218
0.00474373
0.25035155
-0.27575245
0.04740781
0.20670842
0.18136959
-0.03893881
0.13040473
-0.01264608
-0.00377388
-0.02726547
0.01646479
0.03363384
0.12398061
-0.26641408
0.23139416
-0.15863375
0.18943129
0.36339277
0.01795629
0.12875012
0.03477409
-0.68855083
0.16992700
0.02065382
-0.09214862
-0.29678640
0.19163132
0.41531941
0.12564492
-0.03317160
-0.26517412
-0.17669529
-0.19394153
-0.05372917
0.12994356
-0.10485549
-0.90845209
0.26087409
0.07299766
-0.04278760
0.19294441
0.15974918
-0.53979450
-0.23362884
-0.09787645
0.13685057
0.03687630
0.01087288
-0.05514630
-0.33251765
0.00403928
0.08715355
0.11975579
-0.00719140
0.03620126
-0.01226749
-0.08651896
0.16545412
-0.22527391
-0.04950799
-0.02702872
0.15587910
0.00550145
0.03704368
0.19333309
-0.19939415
-0.16531858
0.24630582
0.17725983
0.09819213
-0.11463486
0.03455962
0.03493580
-0.23446067
0.15070641
0.01200545
0.04547328
-0.07457644
-0.21756266
-0.00089972
0.01302728
0.21085441
-0.08856440
0.05879756
0.24704067
0.06367747
-0.04470377
-0.01148527
-0.02345779
-0.07381923
-0.04881897
-0.00445591
0.06346555
-0.02993473
-0.02367455
-0.22774704
0.01857280
-0.00740211
-0.14421636
-0.14128552
0.00805782
0.16215624
0.21272674
-0.39181080
-0.18717940
-0.30226794
0.17656384
-0.06157500
-0.04465312
-0.00926344
0.35241416
0.19931240
-0.14026988
0.47001860
0.08675910
0.02950572
0.05686276
-0.25645912
-0.06239687
-0.01679185
-0.03073931
-0.46652710
0.04331209
0.15713118
0.11158850
-0.12888725
-0.35656023
-0.32171577
-0.28544506
0.01997120
0.16687113
-0.09138334
-0.70706969
0.07343898
0.15148099
0.11172150
0.13374545
0.25626355
-0.36097720
0.27665240
0.03756147
-0.05531072
-0.00448375
0.00680395
0.09426526
0.14752677
0.02469786
-0.29600647
-0.20952787
-0.16361797
-0.38349754
0.14954630
0.20130029
0.02665294
-0.02553648
-0.03857349
0.08989116
-0.04728862
0.07815050
0.01543225
-0.29304749
0.14696996
0.06630342
-0.34551579
-0.15136607
-0.02830520
-0.04392162
-0.01673593
-0.15042807
-0.00490137
0.07919098
0.17919153
0.02264665
0.08370531
0.15580292
0.13680342
-0.09013313
0.40708172
-0.08524942
0.08007366
-0.38574487
-0.20219579
0.19613284
-0.24376568
0.04411602
-0.13907413
0.06888595
0.32260016
0.15580414
-0.02395153
0.11572733
-0.28866699
-0.01926530
-0.05193765
-0.10783424
0.00984706
-0.21918449
0.10529536
0.03105519
-0.22055782
-0.12154301
-0.05675281
-0.11553273
0.20180240
-0.13313052
-0.04719093
-0.10017192
-0.08755628
0.06124729
-0.31128240
0.27028117
-0.08168988
0.06737915
0.01268821
-0.08130293
0.03359668
-0.14459178
-0.02780288
-0.14877707
-0.12311904
0.09630699
0.19483513
-0.07683053
0.18807168
0.00202388
-0.12054327
-0.26797080
0.16357747
0.07721688
0.01719750
-0.02246070
0.05909421
0.15947297
0.16513516
-0.13287328
0.01995091
-0.09446114
0.04782301
-0.16029155
-0.08623736
-0.01292995
-0.21086089
0.13124339
-0.05775323
-0.02224733
0.01346723
0.01258021
0.15538427
-0.00367316
0.00782119
0.10919239
-0.18482991
0.04381407
-0.21391080
-0.05833323
0.08116675
-0.08655284
-0.09605253
0.10986152
0.00115693
0.06884380
-0.08430776
0.09799854
0.11325338
0.00789037
0.28299871
-0.10108487
-0.08296049
-0.08527350
-0.07098826
0.05025274
-0.08094735
-0.07298259
-0.06943075
0.07644986
0.14910030
-0.02896739
-0.03833952
0.13898140
0.08706016
-0.06096735
-0.10356511
0.08952793
0.11008577
-0.06031598
0.03894652
-0.30550957
0.07642999
-0.15734434
-0.01258027
0.05421778
0.04516733
-0.19298966
0.18061227
-0.05883294
0.07678035
0.24407804
0.14658472
-0.92785263
-0.17704687
0.08452117
-0.04571692
-0.10268948
-0.21335174
0.28126249
-0.00703494
0.13415822
-0.01509542
0.22289293
0.11427262
0.05298469
0.05005575
-0.03657371
-0.24594760
0.04264399
0.14220694
-0.01442304
-0.30252588
-0.10641339
0.33320412
-0.10652765
-0.03984266
0.01654947
0.10750878
-0.02664822
0.03741376
-0.13250072
0.09532678
0.22484027
0.07124476
-0.09437352
-0.20524250
-0.03909873
0.10487589
-0.11751806
-0.00466010
-0.06333619
-0.11939678
-0.03730547
0.19101250
0.06992996
-0.23156096
0.18720405
-0.05308229
-0.46439520
0.27782664
0.11125692
0.04965312
-0.34232083
-0.14717527
-0.13981363
-0.05358034
0.35342893
-0.27515593
-0.28575078
0.22942704
0.38223210
0.24487211
0.30028230
-0.11485258
-0.18916050
-0.24201955
0.18120269
-0.20810439
-0.00326893
-0.21008456
0.26363561
0.18863241
-0.13656485
0.18687342
0.06928387
0.04382534
0.05790634
-0.30191451
-0.02654939
0.03105054
-0.00746631
-0.07114807
0.16848247
0.02550043
0.07111228
0.16334541
-0.19936556
-0.05128952
-0.07261983
-0.18978053
0.29506308
-0.08467902
-0.20633258
-0.00017080
-0.29154527
0.08048779
0.22239621
0.12388716
-0.14134529
0.35758761
0.04462769
-0.14639618
0.15418956
0.06429054
-0.49300247
0.10342489
0.05457775
0.17839248
0.16440611
0.09757036
0.08558541
-0.01427266
-0.10253060
0.25272352
-0.01717122
0.18972300
-0.23333739
0.08971502
-0.39683300
-0.14626703
0.05962221
-0.22328842
-0.03460039
0.01812753
0.06985079
0.06131569
-0.28200606
0.04184467
0.26186022
-0.01082455
-0.30338556
0.11435436
0.09565561
-0.23586771
0.15845737
-0.13484778
0.14062704
0.17305714
-0.23431233
0.03724124
-1.06730425
-0.13038318
0.24642354
-0.08849573
-0.01290933
-0.10872353
0.03189308
-0.02386802
0.27707425
0.16490938
0.25568461
0.00946904
0.21457812
0.15395610
-0.28039244
-0.01584942
-0.05292028
0.13024008
-0.01583835
-0.18757813
-0.09654277
-0.20454498
-0.00328547
-0.23705266
-0.13101023
-0.07218092
0.10135072
-0.00661868
0.07832435
0.08772159
0.08144335
0.08436795
-0.04992296
0.10692897
0.05345026
0.03155842
0.05398247
-0.14484230
0.17336373
0.10805937
0.02431615
-0.56749403
0.00290011
0.04143439
-0.18275116
0.01616194
0.42538646
-0.10793573
-0.11158847
-0.01731297
-0.01421150
0.16395131
0.05193289
0.18030958
-0.03081624
-0.02260457
-0.01027492
0.10887915
0.11802635
0.11400051
0.15304136
0.04205439
-0.34005913
-0.09435938
-0.46335176
0.04398393
-0.17211074
0.05030205
0.20134729
0.02794827
0.13369574
-0.20992905
0.20186590
-0.42700133
0.24468413
0.09772797
0.09646326
-0.13110077
0.18192749
-0.04803772
0.09425516
-0.26362953
0.06703251
0.09014601
-0.14784017
0.11600213
0.29572839
0.02172887
-0.06876347
0.34168762
-0.30076841
0.05212103
-0.01920569
-0.16881754
0.14179935
0.03277671
-0.07012255
0.11986107
0.01752652
0.11891896
-0.06014618
-0.08592425
0.07191704
-0.20505543
0.04101934
0.06680071
0.03649116
0.10283628
-0.54380167
0.14732385
0.01071623
-0.11906662
-0.07194997
0.02881458
0.00780725
0.11829875
0.15475701
0.12862325
-0.27278590
-0.03339255
0.01893889
-0.06773952
0.02413012
-0.06730524
0.05455803
0.08926324
0.08593696
0.05480399
0.01168474
-0.04202725
-0.09122694
-0.15588844
-0.44674167
0.06322305
0.04989629
0.28768685
-0.07055067
-0.07558130
-0.04839256
-0.07662646
0.23323266
0.05184260
0.03732178
0.17704551
0.23302124
0.20732692
0.13374256
0.01868349
-0.07898454
-0.16449270
0.12578085
-0.07857782
0.09855466
0.05748923
0.21338549
0.00240459
-0.16626430
-0.21178140
-0.18756725
-0.02992573
-0.04839459
-0.03146681
0.23670886
-0.09139326
0.19853954
0.07513949
0.16138135
0.12237995
0.11598048
-0.31081626
-0.06307366
-0.18395740
-0.06502051
0.06519943
0.31737149
0.20011261
-0.07443259
-0.00731852
0.20022063
0.10620649
-0.02989371
0.22108755
-0.02272978
0.06101454
0.04715510
-0.12589483
0.27537689
0.05422806
0.06295036
0.04865238
0.31517395
0.00876999
0.07581367
-0.00512202
-0.00010902
-0.08376948
0.01286406
-0.13542604
-0.10339643
0.04625793
0.07191700
0.22226410
-0.01730806
0.12705021
-0.12623532
-0.65385228
-0.22150795
-0.01333227
-0.15119378
0.01315955
-0.59191477
0.12002847
0.18763603
-0.06688970
-0.12112176
0.19284424
0.04650882
-0.43357888
0.00311115
0.42237714
-0.62033910
-0.02694740
0.00332471
0.05669371
0.10088532
0.27523601
0.06748851
-0.38571802
-0.35293689
0.19660477
-0.12321769
-0.20493481
-0.56543487
0.15896456
-0.21602143
-0.01295053
-0.21829061
-0.25403813
-0.14663978
0.31864965
0.52776891
-0.04612822
-0.21898013
-0.13836321
0.21952604
-0.20452437
0.13376905
0.51365840
0.15051869
-0.60951489
0.11211877
-0.68706185
0.24706450
-0.17490502
-0.06959217
-0.10655038
-0.51001340
0.20877580
-0.67362761
0.03845781
0.00203179
-0.34701198
-0.00360902
-0.10898193
0.24984378
0.02077770
0.13942838
0.36715722
0.34842977
-0.06431039
-0.12407872
0.12699476
0.01334403
0.04664585
-0.12462348
0.16228323
0.24708059
0.15704104
-0.03478463
-0.38755584
-0.04987011
0.28834867
0.05654360
0.21728702
-0.98370093
0.13188343
0.03740136
0.14523473
0.09661567
-0.09886718
0.06661282
-0.03361577
-0.00632321
0.03257472
0.10384429
0.07228011
0.05767545
-0.22236155
-0.12792525
-0.52805173
-0.03713392
0.06695293
0.30217254
-0.07304365
0.02579890
0.12281494
0.19562846
-0.04142498
-0.09221521
0.10794756
0.04500163
0.07976304
0.00982368
-0.18301138
0.16142172
0.04056718
-0.02170332
0.25518689
-0.65237665
-0.01393930
-0.54884851
0.14156634
-0.13459051
-0.18328346
0.05043226
-0.00640137
0.09671010
-0.26237133
0.08381219
-0.58196080
0.25730535
-0.05160166
-0.03805258
-0.67727047
-0.10455099
-0.06905255
0.03024910
-0.07977153
0.01575655
-0.06862157
-0.38406268
0.06233361
0.46013656
0.19211705
-0.04829198
0.24224193
-0.08320767
-0.07099046
0.35065183
0.25475872
0.28512761
-0.05191029
-0.17735271
-0.25154918
-0.12208010
-0.02227186
0.45153290
-0.22675225
-0.12141703
-0.05639406
0.61644346
0.06346638
0.29411998
0.00500027
-0.43891051
0.08237994
-0.03225155
-0.41988412
-0.49950743
-0.20313624
0.09641948
0.20765632
0.08894300
-0.06477078
-0.02778780
0.10287860
-0.25211552
0.13390209
-0.23453538
0.00425221
0.01997561
0.12002420
0.32767990
-0.14578992
0.00061721
0.13745506
0.36779979
0.03089166
-0.26737121
-0.02511812
0.07614832
0.33102787
-0.44918081
-0.12020283
-0.32102913
-0.35161328
-0.07741915
0.00122203
0.16687749
0.18751682
-0.08202224
0.10717299
-0.16701983
-0.32232451
-0.14639890
-0.29842213
-0.13593353
-0.07078803
0.16940060
0.12509568
0.30543205
0.41832310
-0.33123270
-0.02220334
-0.16313024
-0.07055598
-0.07836704
-0.16385031
-0.03022307
0.09783591
0.01294353
0.04524135
-0.01220408
-0.07911181
0.09990806
0.07726146
0.01199824
-0.21009159
0.14048140
-0.02500321
0.35198599
0.11566805
0.00510695
-0.23291934
0.03608729
0.13024151
0.04378214
0.04332428
0.01793589
0.31049559
0.01945219
0.05339665
-0.14615324
-0.18668006
0.22787471
0.02273523
0.71180326
-0.19319752
0.02331275
0.04097984
0.31035873
0.03909248
0.32086942
-0.67558759
-0.38187438
-0.20125765
0.16445918
0.44952545
0.39525202
0.28536186
-0.33687723
-0.19107494
-0.66366887
-0.02733051
-0.24025963
-0.30982941
-0.47041541
0.01172656
0.21569827
-0.38765857
-0.03500370
0.17620683
-0.24649741
-0.12412320
-0.03132909
-0.03793902
0.03048828
-0.22609511
-0.27258179
-0.06954704
0.00594391
0.05007597
-0.37746152
0.01210949
-0.04117927
0.01931481
-0.45124984
-0.30214465
-0.13802651
0.09320642
0.20353240
0.04341344
0.06657396
-0.64458215
-0.14480081
0.07152395
0.21097553
-0.11200029
-0.09127248
0.06674829
-0.03726712
-0.26290342
0.30020767
0.11879899
0.02280353
-0.03891784
-0.00162635
-0.20157717
0.17493553
-0.12179015
0.02744742
-0.04975379
-0.06547143
-0.73887277
-0.07459280
0.44136521
0.36709413
-0.09301490
0.09604190
0.12514982
0.44816101
-0.00446463
-0.00955678
0.29576412
-0.11246385
0.13071528
0.08037429
-0.43396255
-0.76590240
-0.14591540
0.08197512
0.08478089
0.25261566
0.18464912
-0.54447407
-0.28534275
-0.06923293
-0.24685790
-0.23814380
0.11888532
-0.15910523
-0.45841652
0.55846578
0.09841123
-0.01362005
0.07920208
0.06756527
-0.83056813
-0.47171393
-0.01258373
-0.51171964
-0.99119741
-0.28794184
0.31957409
-0.07266228
-0.17694239
-0.08158909
-0.05197811
-0.61960495
0.19454417
0.19402070
0.44402951
0.04229716
-0.30893934
0.08681663
-0.41102475
0.01003791
0.27940553
0.02822241
-0.07031864
0.22784877
0.15822940
-0.29241970
0.40669054
-0.12925120
-0.09180597
-0.10554076
-0.22123881
0.20406935
-0.37767062
-0.04893390
-0.36722547
0.12925328
0.20328031
0.57882702
-0.38003644
-0.02672849
-0.22311291
0.09853747
0.10969737
0.13392518
0.16822147
-0.37333351
-0.04592654
0.48740992
-0.39435160
-0.01629051
-0.11255126
-0.22737566
0.00925927
-0.32359165
0.10663177
-0.00378360
-0.25289005
0.03380191
-0.32289588
0.11525826
0.27109891
-0.01279296
-0.68586743
-0.46292040
0.29452565
0.09805489
0.09608693
-0.04510278
0.14957909
-0.22747713
0.16167864
-0.05243837
0.00226805
0.07233844
-0.10643695
0.01341412
-0.34834969
-0.08550347
0.19192804
0.00515523
0.10563209
0.05916192
0.01233970
-0.22958481
-0.10609704
0.15335210
-0.19363067
-0.12896383
0.12043774
-0.24321860
0.08157326
0.09243394
0.02840476
0.11352101
0.01856537
0.08537477
-0.31814608
-0.03233059
-0.39433408
-0.08670465
-0.01017697
0.19473149
-0.07159302
0.01912622
-0.14635031
-0.14558259
0.00234644
-0.17594482
0.19221833
0.01579271
-0.06776370
0.23273183
-0.21534780
-0.21788472
-0.24334000
0.12083355
0.18030307
-0.15039116
0.03245428
-0.11671051
-0.21437342
0.30355620
0.12119989
0.14307107
-0.06659163
-0.03767848
0.13996738
-0.09374996
0.10516356
0.03388456
-0.33438453
0.05365273
-0.02328803
-0.16074157
-0.16835456
0.08129814
0.24436752
-0.03310803
0.07927509
-0.04421311
-0.21288338
0.03520213
0.20655471
-0.23110062
0.06595054
-0.13248631
-0.00449041
0.04640584
-0.19229792
0.13517100
0.04764787
-0.00438836
-0.13068272
-0.07681785
0.05321928
-0.19611394
0.18336698
-0.47769734
-0.68283498
0.09020305
0.06556604
0.15319534
0.09351222
-0.06145457
-0.29308003
-0.01708923
-0.03576126
0.22727376
-0.24938133
0.13127960
-0.09454675
-0.11291932
-0.41848034
-0.13524461
0.08650681
0.06566387
-0.13888715
-0.00380508
-0.19178770
0.11560663
-0.06633113
0.11060940
-0.22489731
-0.19962510
-0.10806131
0.11016084
0.03461716
0.10042964
-0.27159533
-0.08684308
-0.02982055
-0.56785804
0.10489863
0.05248932
-0.09737039
0.17420129
-0.11238985
0.10373048
-0.11455330
0.04028966
-0.04689692
-0.28400311
0.13251768
0.10317323
-0.14607008
-0.00317918
-0.02850266
0.11643779
-0.02052407
-0.17910030
0.12706712
0.06927358
0.02445047
-0.09216979
0.06338599
-0.08872303
0.04686190
-0.06050543
-0.14163396
-0.27120584
-0.00427781
-0.04663837
-0.34026814
0.05263766
0.14828305
0.25152054
0.14806519
0.02288860
-0.00463763
-0.13035490
0.05064515
-0.06079109
0.18784612
-0.01037305
0.10791204
0.16154200
-0.21417035
-0.18984273
-0.22336480
0.04081228
0.07412905
0.11648627
0.06908625
-0.15952663
-0.21495929
0.03484288
-0.17337497
-0.22550583
0.06598528
-0.07718495
0.07188452
0.13023475
0.00130342
0.00405114
0.01355189
0.17085099
-0.36389914
0.06314976
-0.35552183
-0.20962159
0.11944967
0.12172106
0.05760347
0.06867805
-0.26162747
-0.50333166
0.08316558
-0.04495426
-0.04564171
-0.00835494
-0.13589145
0.06330482
-0.38896957
-0.15120316
-0.43928796
0.02873545
0.02744189
-0.28891319
0.08803590
0.18415619
0.12808859
0.10466946
0.29869625
-0.15141490
-0.05352051
-0.11810172
0.08001153
0.00461596
-0.24064246
-0.05595301
-0.01289876
-0.04757929
0.07585948
0.23204266
-0.50315541
0.12023650
-0.02660923
0.04197272
-0.17933367
0.06523088
0.11757451
0.04868124
-0.27407992
0.13352983
-0.02460303
-0.03022399
-0.05595613
0.12964204
0.13547446
-0.13403934
0.22248915
0.00792356
-0.04777278
-0.18169744
-0.64228374
-0.17755221
0.00610082
-0.16718629
-0.53331864
-0.40182185
0.42511469
0.21278256
0.20473503
0.08514540
-0.03494287
-0.15105668
0.10770422
0.02828764
-0.03978187
0.26536170
-0.17184690
0.06045767
-0.08835871
0.09770964
-0.02171418
-0.06696109
0.14565499
0.08223102
0.07214677
-0.19191585
-0.01102533
0.12425765
-0.51704615
0.03281749
-0.12485538
0.36046574
0.15093690
0.07169497
-0.00602965
0.07209395
0.14816940
0.10117733
-0.20277761
-0.34584901
-0.23773512
0.13644637
0.01087134
-0.25533542
0.15183467
-0.31076854
-0.10858219
-0.16310708
-0.00681744
0.23684968
0.08019920
-0.35584098
0.10276948
-0.12074720
-0.03731437
-0.07226727
-0.03139403
-0.26952705
-0.06088569
-0.09486359
0.12909895
-0.00897765
-0.06401923
-0.08049031
-0.16599821
0.00177984
0.28495440
0.23655087
0.13140252
0.05648261
-0.28164846
-0.46241495
0.11335087
-0.04912506
0.42132899
-0.63022363
0.17036298
-0.31843662
0.09937473
0.25987479
-0.19118980
-0.17258230
0.21759598
0.37186581
0.31728685
-0.29605553
-0.08322400
0.08639286
-0.10000627
-0.10807270
-0.08646592
0.13691753
-0.05851066
-0.08978630
0.01879221
-0.02919911
-0.36190742
-0.30475757
0.03129412
-0.42668727
-0.24284592
-0.02893327
0.21476048
0.00135911
0.22600372
0.11678624
-0.53426749
-0.05801350
-0.03214791
0.06715882
0.09414733
0.34132972
-0.44450307
0.08815072
-0.11670851
0.08029287
-0.04831725
0.02817486
0.22892110
0.10250133
0.07049584
-0.03042720
-0.21146241
0.10950382
-0.36896470
-0.13359857
-0.18881106
0.05448589
-0.05120602
-0.00795570
-0.00848561
-0.06522425
-0.28905034
-0.56841016
0.12980135
0.05670132
0.06537288
-0.00560004
-0.23543781
-0.11555086
-0.03713395
-0.02146106
-0.04531477
-0.23744757
-0.13575196
-0.01253661
-0.32119945
-0.06287013
0.09204049
0.00261872
0.17413197
-0.08203291
0.08924799
-0.11166006
0.07233804
0.00986310
-0.36798564
0.00360015
-0.11129697
0.16313395
-0.19235040
-0.31459698
-0.11911215
-0.21585447
-0.15418456
0.12258593
0.08750448
0.03281187
0.01537605
0.23123109
0.05127849
0.41911051
0.19019048
0.04893553
0.20768760
0.29347154
-0.39852279
-0.14751112
0.15304257
-0.08203060
-0.06878232
0.12933144
-0.08360955
-0.00759219
0.06989466
-0.15889892
-0.41627106
-0.17272277
-0.17689310
0.03866226
0.01979277
-0.06770555
0.03582665
0.04365911
0.09975249
0.01957315
-0.10529888
0.08756255
0.06859564
-0.00228030
0.09672403
-0.01246179
-0.00443939
-0.07364921
-0.06501240
0.11121832
-0.41251269
-0.01635997
0.03330644
0.17669463
-0.12357602
-0.29015037
-0.00124389
-0.00099052
0.10544731
0.05783480
-0.14602049
-0.00701724
-0.00049367
0.13582446
0.06583361
0.03062814
0.04764477
-0.08227067
0.04023331
-0.09900448
-0.13606960
0.13648148
0.05369257
-0.04215141
-0.00134964
-0.24705987
-0.02506124
0.00828738
-0.08829001
-0.03008888
-0.25440592
-0.05201557
0.13056765
-0.10499968
-0.69530499
-0.07973073
0.11566684
0.17795010
-0.02710152
-0.08744901
0.00099985
-0.01462472
-0.01832337
0.18260953
0.05422002
-0.03654208
0.00124934
-0.00322876
-0.06450488
-0.45158330
-0.04607261
-0.16191715
-0.01369875
-0.24160713
-0.21457510
-0.03772243
0.16426356
-0.00403087
0.14100647
0.00667439
0.25264642
-0.26648104
-0.12720540
-0.06032512
-0.23205529
-0.02739510
0.27314904
0.11695472
-0.29798856
-0.02906859
-0.03711232
-0.02694891
0.02422391
-0.02306670
0.14729095
-0.04822281
-0.03858785
0.00361586
-0.11752310
0.23860519
0.12140989
-0.13809058
-0.07895632
0.17884380
0.02558157
-0.09006058
0.02619925
0.15476176
-0.31520146
-0.26372254
-0.12195958
0.02687883
0.19975755
-0.20909216
0.07297952
-0.42254123
-0.05002675
-0.15200569
0.09591076
-0.34487596
0.22946769
0.15119939
0.18730140
-0.41931292
-0.06143534
0.55549186
0.02434541
-0.30352303
0.08354914
0.13597019
-0.09533070
-0.00575363
0.00655339
-0.08650933
-0.36111552
-0.15724528
-0.12794016
0.15132320
-0.07067413
0.31773272
-0.09108090
-0.18570916
0.30016410
0.07934181
0.18080005
-0.17349255
0.15871558
0.00643144
0.10728482
0.17653118
-0.06412676
-0.03325736
0.20301089
0.07675461
-0.10720068
-0.09171211
-0.08185781
0.10115784
-0.37346575
-0.30787495
-0.26085874
-0.23523867
-0.17080820
-0.07743003
-0.33175009
0.23578584
-0.02959957
-0.46806777
-0.00089627
-0.29722416
0.12407005
-0.70218384
0.03695965
-0.01779526
-0.14353910
0.11012612
-0.42654577
0.23297346
0.02437468
0.13024877
0.23512441
-0.07526271
-0.56984049
0.00238606
-0.19343257
-0.07148302
0.02810297
0.10601567
0.02440322
-0.07173667
0.17518523
0.00900368
-0.17476998
-0.13163786
0.00434048
-0.33921367
-0.14707117
0.03942693
-0.37589923
0.10581435
-0.04300719
-0.05989497
0.26477394
-0.25624335
0.13212471
0.12927303
-0.03763007
-0.10990906
-0.96095210
0.14531535
0.07344766
0.01119179
0.17738029
-0.25572008
0.03855794
-0.23321195
-0.03345040
0.04480898
-0.06320897
0.00542382
-0.08048407
0.09261429
0.02486376
0.09293480
0.04216473
0.09421061
-0.42662978
-0.21635617
-0.27846223
0.05626384
0.04819045
-0.38656673
-0.17197572
-0.18324371
0.13662511
-0.04628102
-0.07921626
0.08277258
-0.38793397
0.11786591
-0.04809820
0.43634319
0.02336143
0.11381573
0.10916940
0.05140278
-0.24464929
0.09392200
0.03116127
-0.04257423
-0.12208930
0.20199342
-0.02715967
-0.11552547
0.20545143
-0.00383053
-0.13302967
-0.45436168
0.00147423
0.10631736
0.09631430
-0.17434737
-0.17916624
0.04331876
-0.00548593
0.10052236
0.04728313
0.04839830
0.00192741
-0.09843451
0.01186920
0.00434001
-0.00647017
-0.11427949
0.01622462
-0.18861140
-0.00005833
-0.02784707
-0.69701904
-0.04184993
0.12836003
0.08457579
0.03418246
-0.16063930
0.06157199
0.08868247
-0.00968978
-0.11088353
-0.00471430
0.03366436
-0.25391027
-0.08521888
-0.00488817
-0.23713107
-0.06794293
-0.31877515
0.05183028
-0.03208401
0.09898325
0.03980739
-0.16112383
-0.51875508
-0.04249800
-0.05684327
0.25926960
-0.44319341
-0.10730406
-0.10829337
-0.12217952
-0.29662547
-0.27981150
0.04253273
0.29395881
0.36059368
0.06121526
0.06254355
-0.43372521
-0.13536496
0.03723247
0.09809074
-0.39913046
0.05115727
0.21779393
-0.03242893
0.02908012
-0.47654700
0.27740276
0.03345778
0.21533595
0.07441776
-0.01765522
0.08185394
-0.28036603
-0.36703998
0.04867360
0.04211305
0.13203318
-0.44771546
-0.28158888
-0.07403792
-0.25000325
-0.00555441
0.02760863
-0.23957261
0.06194777
0.04636706
0.15096195
-0.03357423
-0.10984690
-0.03608378
0.14219533
0.10310809
-0.02384217
0.01140377
-0.16101356
-0.20355509
0.11960308
0.13988920
-0.03396706
0.22448093
-0.28985733
0.15449516
0.07184765
0.23882149
0.18087251
0.01574506
0.09729318
-0.11268685
0.03280736
-0.02790718
0.20423061
-0.04266858
0.02488076
-0.21319930
0.01266837
0.25645781
0.19923861
-0.30995449
0.06984560
-0.01727632
-0.05494348
0.10856058
-0.26329115
-0.01083576
0.13247907
0.21667866
0.25356790
0.12024014
-0.01737849
0.22473978
-0.18887454
-0.13601704
-0.08081959
-0.01118714
0.01241775
-0.05019389
0.00337613
-0.01363417
0.10158436
0.24073376
0.06114954
0.10810232
0.10554907
-0.17815404
0.13726453
0.13341637
-0.08762406
-0.15998432
0.13674843
-0.03118991
-0.03024963
-0.09647281
0.14249825
0.12256091
0.06070096
-0.16790821
-0.10383159
-0.03418526
0.06465830
-0.06785052
-0.31940734
0.02307902
0.31170899
-0.17848948
0.10481019
-0.09416909
0.08725268
-0.46969867
-0.16570173
-0.06452662
-0.26517165
-0.02926929
0.23933041
0.24373193
0.14002325
0.07025884
0.14520289
0.19470668
-0.01358212
-0.49605706
0.11168704
0.06461622
0.13495553
0.02580618
-0.81227916
0.01076482
0.04861411
-0.07896417
-0.26977605
-0.16054626
-0.05072493
-0.18998998
0.11534040
-0.02385239
0.10576961
-0.13607974
-0.41327900
0.08695456
0.09169164
0.06421714
-0.16787483
-0.04648900
-0.24021749
-0.13010789
-0.16946021
0.24574390
-0.03389950
0.08871007
0.06220775
-0.03864724
0.03831087
-0.18549232
0.16749217
0.07496233
-0.38525492
0.06591424
-0.35460168
-0.13721207
-0.24147068
0.18866669
0.15271108
-0.40274552
0.12525980
-0.34402680
-0.06273512
0.21508704
-0.44995394
-0.01418134
-0.04951558
-0.10862947
-0.33466223
-0.26178980
0.63122201
0.30716324
0.09578698
0.13921763
-0.21423459
-0.01307859
0.02307247
-0.24975793
0.35282290
-0.16877550
0.09780847
0.16787380
-0.64792830
-0.07386582
0.12789485
0.14159200
0.46536994
0.23142211
0.26803750
-0.52545249
-0.34923768
-0.10181066
-0.49022043
-0.23679149
-0.02163385
-0.89093709
0.34328461
0.44163686
0.16644049
0.18450992
-0.04276554
0.23340955
-1.09440958
-0.20161784
0.08831374
-0.26953301
0.40015703
-0.20870619
-0.17333610
0.02864183
-0.73756349
0.09156092
0.43357003
0.01060670
-0.12870522
-0.06150613
0.01307940
0.21205249
-0.81200039
-0.38455334
-0.66585875
0.14769518
0.06115504
-0.10426984
-0.18537183
0.27834457
0.11777955
-0.01144011
0.28778997
-0.02250449
0.05099567
0.12874000
-0.10785425
0.01092036
0.02912975
0.09596759
-0.13902259
0.12326471
0.10530923
0.14048661
-0.23307723
-0.06850038
-0.07424290
-0.24397306
0.01299939
0.08807838
-0.03288284
-0.54504281
-0.16295989
0.26240316
-0.10411950
-0.10708218
0.08179691
-0.12778351
0.05659948
-0.31957254
0.15502539
-0.00711244
-0.07172585
0.11203445
-0.27470106
0.03852740
-0.08326419
-0.34197712
-0.06973251
0.04184906
-0.00618130
-0.13066402
0.12386946
0.13849050
0.00804130
0.00275872
0.03333830
-0.06008732
0.08221830
0.22598067
0.05617456
-0.03735704
0.15443061
0.05036411
0.06849385
0.03028410
0.06649429
0.11524160
-0.23466095
-0.13089582
-0.16656396
0.05381926
0.01062301
0.28085315
0.17692737
-0.33475626
0.15127046
0.04122581
0.29323006
0.03093660
0.09784962
0.06198023
-0.20244993
0.07114917
0.13999633
-0.21996413
0.09718902
-0.16513386
-0.20296383
0.21054147
-0.45250699
-0.22554360
0.06048880
0.31775361
-0.16804047
-0.14520299
-0.02396742
0.11954559
0.00234837
-0.06135133
-0.15177587
0.09385988
0.18143845
0.21789171
0.18682232
-0.00305041
-0.06501658
0.07053871
0.06154187
0.19093803
-0.00697436
0.07789739
0.12279372
-0.03818616
0.19443418
0.06157148
-0.22012067
-0.00699372
-0.12776193
0.04246111
0.23530358
-0.01566896
0.31011787
-0.16774258
-0.02863704
0.08550216
-0.20047055
-0.07108792
0.02397932
-0.04324540
-0.01585883
0.01830936
0.07056494
-0.01534647
-0.16410130
-0.03433641
-0.01306592
-0.06668212
-0.07250810
0.04998332
-0.14076816
-0.42230433
0.07295267
-0.68329233
-0.39959449
-0.14731827
0.05618833
0.06715244
0.23228736
-0.03927618
-0.03506383
-0.35328141
-0.06483484
-0.00997049
-0.01156935
0.27584553
-0.12291598
-0.04557445
-0.02787638
0.18526524
0.00274230
-0.11807203
0.21121213
0.11488222
0.04944519
0.03653774
-0.05956263
0.22155826
-0.24917908
-0.03287291
-0.10402477
0.01630265
0.16026415
0.01843822
0.04362185
0.06543546
0.16938503
-0.24507722
-0.16061108
-0.18027872
-0.10551754
-0.25540629
0.09760445
-0.13249834
-0.12712985
0.07607114
-0.05967247
-0.23126218
0.14325494
0.10969331
0.00990685
0.11615425
0.11077127
-0.04353840
-0.29922965
-0.19197300
0.00218782
0.16494568
-0.11624592
0.06170766
0.05895215
-0.95767725
-0.12187037
0.21909854
-0.51153892
0.05296186
-0.52550101
0.07504735
0.08452797
0.06523165
0.26429889
0.19443230
0.01889415
0.00541527
-0.33485126
-0.03644231
0.12598175
-0.13787577
0.28468573
-0.12592877
-0.45278236
-0.00014830
-0.15986016
-0.09581756
-0.42553324
-0.05381100
0.25159341
0.15735829
0.25779784
-0.29993540
-0.11469956
-0.48977971
-0.59753394
-0.02235657
-0.18602489
-0.02766712
-0.14408173
-0.00645916
0.29065272
-0.01298450
-0.07013828
0.02108582
-0.26290625
-0.00597979
0.18357658
-0.16815434
0.24224798
-0.32403064
0.05268029
0.01574169
-0.28219706
0.12134683
0.01216775
0.04092087
-0.29547861
-0.13246380
0.29413655
-0.06420100
0.19596821
0.12995055
-0.04451352
-0.02378205
-0.11919554
0.41412872
-0.06289800
-0.11701401
0.19724524
0.04200711
-0.06407971
0.05429489
-0.43180409
0.16995932
0.15504584
0.07577351
0.12550363
0.22023596
-0.20465600
0.11029208
-0.07582320
0.12883195
-0.01671772
-0.16431355
0.09114291
-0.17844373
-0.18680656
0.02483395
0.01419844
-0.07956827
-0.46251687
0.00668741
0.03457886
0.19543546
0.19710514
-0.23896648
0.03352738
-0.40343416
-0.13407561
-0.00458860
-0.05838703
0.12594575
-0.23138309
-0.05947347
-0.24370800
-0.14670032
0.06544448
0.08345431
0.06113822
-0.08263106
-0.05459456
0.03241934
-0.02592243
0.11507726
-0.08428061
-0.06260758
0.06051911
0.18569705
-0.08883556
-0.05546171
0.14557612
0.09916130
-0.10221939
-0.03804474
0.00707206
0.10111254
-0.19594888
-0.10463490
-0.19847535
-0.11976971
0.08179129
0.11161631
0.06788334
-0.17728138
-0.38592878
0.01095013
0.25599530
0.03450398
-0.12002554
-0.02227260
0.13566136
-0.00634795
0.19335192
0.02265528
0.19577305
-0.65846682
0.20988429
-0.12570424
-0.14604771
0.05419461
0.05239414
0.41863829
-0.71666217
-0.04633043
0.09051357
-0.08996595
0.31031185
0.20716925
0.10523642
-0.17174724
0.09753584
0.28094923
-0.19494210
0.02141824
-0.03992282
-0.04599081
-0.33703238
0.14878224
0.07565930
-0.08565398
0.09551322
-0.00567210
-0.03238035
0.20285423
0.01951244
-0.24283826
-0.13339713
-0.12860382
0.22911705
-0.05179090
-0.02572384
-0.14039409
0.18451478
-0.05316603
-0.03952256
0.03231407
-0.00658829
-0.36658767
0.17732096
0.35655734
-0.23805170
-0.02595298
0.26507127
0.22404626
-0.27668747
-0.01051230
-0.07259567
-0.06813036
0.00391908
-0.57507372
0.13015178
-0.94159877
-0.35678640
-0.10985846
0.22397093
0.06393386
0.11294631
0.03376698
-0.06084921
-0.07478236
-0.16190712
0.04319397
-0.05628695
0.18552494
-0.38250270
-0.02139078
0.00198841
0.09125072
0.08552945
0.10255251
0.09439038
0.05369702
0.17056906
-0.00885117
-0.07090519
0.12232348
-0.19677112
0.08970156
0.03593582
-0.02095015
-0.02088162
0.08065288
0.19841336
-0.15383825
-0.57510519
0.07333475
0.09431839
-0.10719612
0.21988957
0.01623504
-0.05187631
-0.18982942
-0.06257526
-0.06764539
-0.41496074
0.33664000
0.39650610
0.24531800
0.08357428
0.15021241
0.18723629
0.09542038
0.01621817
-0.04286497
-0.01676294
-0.12863357
-0.01587100
0.25026187
0.02581735
-0.60770458
0.06540008
0.01518067
-0.20653667
-0.40477642
-0.63149160
0.15016428
0.06692053
0.07411661
0.09028820
-0.11345071
-0.23055416
0.00822320
0.00454353
0.08515535
0.06111624
-0.10958694
0.17909604
-0.30678061
-0.23045509
-0.04489304
0.08959486
0.10476071
-0.52042967
-0.07128831
-0.08285873
0.13899443
0.02388947
-0.17010808
-0.00668541
-0.80918860
-0.03793579
-0.05438423
0.01255284
-0.05558933
-0.03170130
-0.00867105
0.21870941
0.04211584
-0.04051257
-0.10715786
0.22667544
0.00669330
0.11413807
0.05439526
-0.03386648
-0.19818023
0.03801828
-0.05127410
-0.13736820
0.06709550
0.05583457
0.03196369
-0.28537729
0.17354582
0.11016944
-0.02140635
0.10256662
0.14321749
0.22104806
0.00822549
-0.00073000
0.18510304
-0.22266367
-0.66839510
0.09563012
0.06442715
-0.05295581
-0.27634516
-0.95260870
0.07090184
0.09944484
0.08528832
0.06015707
0.16159365
-0.63656741
0.04023991
-0.16363715
0.36072096
0.09446478
-0.06404831
0.12224699
-0.28938764
-0.46607995
0.04822483
0.00475801
-0.00802658
-0.68800110
0.11362708
-0.09828041
0.00177539
0.06417969
-0.06789307
0.15514019
-0.89966995
0.03500487
-0.09513296
-0.03611350
0.21648361
-0.24544805
0.10186011
-0.18420413
0.00963880
0.12988584
0.04552703
-0.01590293
-0.15814731
-0.15213478
0.09956302
0.04835951
-0.06375121
-0.02834467
-0.05034602
0.16817769
0.10225051
-0.04448263
-0.01716573
0.11264697
0.07963073
-0.14717783
-0.02196781
-0.00933474
-0.02076893
-0.03323928
-0.06709130
-0.16907264
-0.16846493
0.08619403
-0.15217707
-0.18001091
0.12445741
-0.32610583
0.38459626
0.09248862
0.19331110
0.12896742
0.25496817
0.22699180
0.17980292
0.09666330
0.04468903
-0.04303452
-0.28193149
0.14472491
-0.22275010
0.06524179
-0.31905991
0.63615000
-0.09834234
-0.21986604
-0.14615692
0.13696355
-0.04243428
0.26560181
0.35889360
0.16457327
-0.24473806
0.14754820
-0.04101772
-0.61022508
-0.14895926
0.11639014
0.23975822
-0.04771895
-0.02892581
-0.49593484
-0.19237554
0.00202838
-0.39863807
0.07021793
0.37629765
-0.12574917
0.01277935
-0.29084519
0.35377380
0.14590305
0.17699416
0.18751238
0.02045382
0.02116723
-0.13248906
-0.19379990
-0.13644749
-0.30708387
-0.02967525
-0.02249019
0.12844890
0.07934247
0.14865524
0.24237984
-0.29119527
0.23659645
-0.11106569
-0.05171225
-0.10123295
0.07721984
-0.45975658
-0.04788686
-0.18804999
-0.09057513
-0.04661424
-0.06122121
0.08636990
-0.13726731
0.12196237
0.08471571
0.10615119
0.06432254
-0.10641770
0.00011078
0.01653020
-0.41765571
0.04750649
0.13162604
-0.07791704
0.04930234
0.21652210
-0.14617944
0.02242866
0.12496768
-0.08546025
-0.24281612
-0.16840573
0.04645234
0.18896462
-0.00066604
-0.46965671
-0.02453377
-0.54056698
-0.05635526
-0.48854181
-0.67654043
0.07404436
0.05795356
0.09642061
0.23914407
-0.04834837
-0.25174880
0.17156360
-0.18633106
-0.20646924
-0.55333990
0.59728312
-0.43112931
0.20372377
0.30040482
-0.10458476
-0.10236999
0.15166061
0.01727910
-0.14874198
-0.43959659
-0.26169145
0.00266992
0.11573823
-0.26087338
0.01289899
-0.00928760
0.03191126
0.21778904
-0.33195660
-1.03434229
0.24753411
-0.36239466
0.52947336
-0.07354049
-0.10255083
-0.53486907
0.35986432
0.34257495
0.25559419
-0.09434139
-0.07412618
-0.19362649
-0.26115778
-0.05427093
-0.08158458
0.13356115
-0.49157745
-0.06659889
0.23845273
-1.17169559
-0.34691834
-0.45646313
-0.41755074
-0.61162591
-0.74158335
0.48814204
-0.13117114
-0.04795744
-0.08948194
-0.13659440
-0.04724557
0.03946436
0.13711627
0.11444821
-0.29161924
0.10321438
0.16284072
0.10854675
0.00725063
-0.65284306
-0.08591453
0.08551906
0.00378048
-0.03111465
-0.03091705
-0.35543656
0.03119997
-0.02538814
0.15243530
0.01479519
0.07313117
0.08205415
0.00772606
0.15745497
0.05875051
0.09640668
0.09357385
-0.36882833
-0.49537030
0.02542967
-0.22042300
-0.25206941
-0.74083322
-0.97811162
0.25651598
-0.16504270
0.38874969
0.08294506
0.05452719
-0.48151633
-0.05514483
0.32587838
0.27819705
0.00283186
-0.11035636
0.12651390
-0.77177358
-0.35928300
-0.08371259
0.09716688
-0.21273889
-0.54221517
0.06349161
-0.79460275
-0.07000712
-0.05646598
-0.26215035
-0.09702841
-1.10857463
0.23129666
-0.16097721
0.04409222
0.12258460
-0.30386087
-0.06834050
-0.08450894
0.13036041
0.19161770
0.15894648
-0.03627418
-0.19061080
-0.19662930
0.13822450
0.24744201
-0.10785522
0.03509637
-0.14928330
0.17064942
0.09684410
-0.22329710
0.09308019
0.19647491
0.08017797
-0.08856932
-0.00453618
-0.13803330
0.04584958
0.07477956
-0.12713104
-0.11132294
-0.20333919
0.15181518
-0.08860420
-0.08261690
0.01129599
0.27114901
0.11540724
0.14533332
0.03993097
0.23045109
-0.55555159
0.18633839
0.09018469
0.10551488
-0.45213330
-0.12808233
0.00812589
0.07841039
0.11941052
-0.08925881
-0.11303829
0.06138817
-0.08188219
-0.80932319
-0.17198543
0.14936900
0.01510154
0.05730668
-0.03318677
0.17423460
0.18818593
0.12337569
0.19823538
-0.10673127
-0.37826821
-0.17978460
0.20093434
-0.03056453
-0.07023605
-0.46676460
-0.11858086
-0.01987856
-0.29854962
0.08417869
0.17990926
-0.23248211
0.19183074
-0.46325028
0.48434916
-0.09760787
0.09963035
0.21278925
-0.29665849
0.07826998
0.11076555
-0.10750962
-0.11612743
-0.29170227
0.14235163
0.05511950
-0.12106247
0.00775086
0.16417708
0.08309206
-0.36352560
0.17265867
0.07648624
-0.16740766
-0.35962254
0.43172705
-0.22811326
0.23040970
0.00047315
-0.43299460
0.30670559
-0.58512348
-0.40906101
-0.12484928
0.33471811
0.61167800
-0.07284809
0.00239519
-0.24623047
-0.30864605
0.51487577
0.00959263
0.11038604
0.36650109
-0.09507588
0.30736125
0.23857689
-0.87773472
-0.03925807
-0.13467771
-0.19467457
-0.76188940
-0.10079630
-0.06425460
0.03669209
0.23827077
0.18960151
0.34176850
0.20481415
0.11562038
0.04859254
0.49741048
0.02733510
-0.21927942
0.19195387
0.21773438
-0.24272105
-0.00396381
0.04206551
0.09219900
0.32020742
0.08127452
0.18355010
0.45342803
-0.03411263
0.22343591
0.34398007
0.17080854
0.11257330
-0.01024414
-0.13170166
-0.18911612
0.62726599
0.47154739
0.30109045
0.31433591
0.10318679
-0.32961425
0.26915458
0.40825433
0.15269464
0.12333263
0.30898494
0.21469010
0.13361908
0.54679823
0.22845533
-0.41562343
-0.65509874
-0.12302247
0.01089540
0.03773696
0.23086926
-0.14843930
0.19816414
0.18084428
0.36665857
-0.24864237
-0.09213625
0.33592620
0.26870891
0.23035651
0.28320065
-0.27507156
-0.65461189
-0.09288876
0.23353294
0.36028829
0.29724416
0.52030045
-0.05543385
0.24566913
0.17716011
0.14064048
0.40417382
-0.41491348
-0.20946783
-0.02766084
0.19390112
0.19580355
0.74325299
0.03013730
-0.15518433
0.38959497
0.49684808
-0.03155388
-0.13845691
0.59344441
0.18633902
0.12219948
0.21255691
-0.11288416
0.14215715
0.14958586
0.64477366
0.09974004
-0.13732386
-0.07085901
-0.41514295
-0.20035769
-0.04821879
0.43940330
0.09456787
0.38054842
0.15748350
0.47581270
0.13282853
-0.34699509
0.29251367
-0.48264590
0.07992386
-0.28787529
0.18736447
-0.17608194
0.61509943
-0.10054282
-0.02874415
-0.21809779
0.19828813
0.61789834
-0.01648688
0.18858542
-0.46168199
0.15939599
0.72312289
-0.15537073
0.21620189
0.33125317
0.16534644
-0.25827587
0.11559483
-0.04789848
0.11505938
-0.13502581
0.20190594
-0.22086804
0.68397671
-0.37725869
-0.14700565
-0.49389684
0.04830356
-0.16695067
0.65141124
-0.26853031
-0.20127708
0.04911486
0.42370191
0.33963567
0.25905931
0.64134288
-0.52468902
-0.27907506
0.41137743
-0.29269513
0.06539612
-0.25814742
-0.15955855
-0.12062916
-0.15152457
0.27565435
0.46293336
0.00202621
0.49758670
0.21424831
0.23888190
-0.23357782
-0.33659533
-0.09768422
0.42597184
0.66209078
-0.38913453
-0.37398273
0.01099077
0.24691285
0.14854813
0.00930946
0.00584625
0.17962591
0.46325603
0.24631503
-0.41626778
-0.28767139
-0.18170954
0.20056616
0.05794315
0.42575231
0.30137965
0.28904298
0.33416110
-0.47219265
-0.06673271
0.02955094
0.38622338
0.21409658
-0.24203570
0.22053336
0.20794837
0.03492177
0.04792122
0.42005181
-0.00292550
0.24406977
0.52739179
0.52955413
0.01781621
-0.34438658
-0.02586626
-0.11771529
0.14763384
-0.01073749
-0.11660951
0.60524279
-0.40375170
-0.07593753
0.20188975
0.48133805
-0.02459754
0.01122254
-0.27840668
0.35618964
0.54803300
0.50550663
-0.18516137
0.39606860
-0.10864425
-0.22167937
0.01231220
-0.00923043
0.03453750
-0.38935882
-0.35464549
0.15465970
0.10550646
0.20851047
0.12148874
0.10214785
-0.24363147
0.17765966
0.88379234
-0.02932310
-0.02322826
0.43207783
-0.01353753
-0.25781476
-0.02767826
-0.60391766
-0.09431592
-0.03139129
0.01085521
0.13736905
-0.20030050
-0.41111523
0.19714683
0.51339346
0.57899493
0.16838577
0.20848909
-0.09746332
0.05113686
-0.51134312
0.57845300
0.17469546
0.02531767
-0.11687785
0.02178411
0.12465343
0.57316917
-0.12124214
-0.11302623
0.25337234
0.18592545
-0.00472825
0.02548794
-0.00820953
-0.07919165
0.48173389
-0.27361727
0.27698886
0.71705043
0.25756001
-0.02036419
0.26695132
0.05934180
-0.38133004
-0.09298243
0.18677220
-0.11139277
-0.47795096
-0.13296238
-0.01297101
0.39297676
0.30670637
0.38177627
0.37592334
0.32324323
0.43368304
-0.06374040
0.13065162
0.23927921
0.13729905
0.02038846
0.18519756
-0.38358036
0.10878049
0.36153036
-0.29840586
-0.11559068
0.22450556
-0.10312338
0.40158939
0.24293254
-0.30276513
0.06935425
-0.20204309
0.42645860
-0.16486198
-0.19838585
0.05314513
0.15443069
0.04337900
0.23633744
0.01483337
0.27034566
0.71364129
-0.05530277
0.08844563
0.26020381
0.01122603
-0.18607847
0.29992294
0.09922618
-0.02678209
0.18423206
0.79996943
0.06827193
0.33758944
0.05453141
-0.16937527
-0.56658620
0.34327978
0.48896274
-0.24765831
-0.51488870
0.39829773
0.54668087
0.26562777
0.08943428
-0.39632335
0.05743791
-0.47478896
-0.39089176
-0.13504282
0.60264874
-0.04122642
0.15403797
-0.40385458
0.06781781
-0.37065193
-0.15566470
0.41544476
0.67279428
-0.04425414
0.27766073
0.23415165
0.48232180
0.33974808
0.28875151
-0.07449558
-0.00113865
0.12428945
-0.11791974
0.08234613
-0.13507794
0.39665660
0.24739778
-0.33989146
0.28423539
0.20877536
-0.05552930
0.41159841
0.01160909
0.68248141
0.00446666
0.35043952
0.06421131
-0.02736912
-0.14145766
0.14897528
-0.26678103
0.73000944
0.48242900
-0.16174933
0.01975203
-0.13422689
-0.08397251
0.33199054
0.26371792
0.60081065
-0.27806985
0.32437152
-0.04251320
-0.12284496
0.20554796
-0.02371624
-0.16865906
-0.33865190
0.56413257
0.49459165
0.09069254
-0.36898538
-0.54566956
-0.11994492
0.10422660
0.19170830
0.39343271
0.44252500
0.48082766
-0.18966152
-0.06106679
-0.35769260
0.40750614
-0.01555932
-0.48112550
0.11683921
0.12844585
-0.01983773
0.29200175
0.38235089
0.26484814
0.21657613
0.51620573
0.72560608
0.08432006
0.09484815
-0.00200310
-0.06786492
-0.47855067
-0.03202409
0.34607375
0.47031853
-0.17661753
0.12885660
0.35892743
0.13381159
0.52687532
0.09316386
0.36391938
-0.17259380
0.12697536
0.15597983
0.09328737
0.38226759
-0.10046332
0.41341889
0.43004107
0.10031137
0.10973200
0.39091361
0.10464593
-0.01780708
0.30929422
0.23884836
0.48138300
-0.38811883
-0.23255295
0.11708309
-0.02862204
0.35923308
-0.25960407
-0.23378810
0.10715540
-0.20453663
-0.18045181
-0.11859800
0.41768664
-0.12825398
0.38104960
0.00425555
0.83239913
-0.09645046
-0.22686392
-1.49288237
-0.19483911
-0.13797736
0.27368641
0.40554014
0.39572904
0.16236867
0.45012596
-0.09771533
0.06265946
0.47630197
0.08191401
0.02357669
-0.52641249
0.26038113
0.39948782
-0.58800298
0.09950022
0.05514873
0.11468138
0.42775688
0.00230669
0.47727376
0.10833084
-0.08282396
0.08105369
0.32275099
0.14437567
0.14417802
0.17725059
-0.48499343
-0.37953135
-0.07786573
0.32295904
0.28591534
-0.34003872
-0.45060769
0.23437680
0.58038056
0.24206506
-0.28336337
-0.43632752
0.20205297
0.67131150
-0.20183821
0.16041248
0.08263985
0.45283201
-0.19084941
-0.10289482
-0.08900169
0.61213928
0.10787281
-0.27186739
0.01958878
0.41892374
-0.23460956
0.30936995
-0.42991796
-0.26698315
0.59575945
0.08931203
0.12360683
0.38770929
0.04993298
-0.29032573
-0.16128896
0.70911127
0.76619130
0.07290525
0.38841209
0.29800457
0.22581239
0.39559793
0.61248958
0.20156074
0.03752717
0.00436505
0.48689285
0.53265613
0.28689730
0.37182140
0.38508192
-0.14263950
0.25397936
0.35053170
-0.28392547
-0.38427526
-0.13193126
0.10133853
-0.32313806
0.78870088
-0.54285318
0.58645284
-0.53425032
-0.46277967
-0.17705557
-0.04042480
0.31033415
0.56375468
-0.06264320
0.11229412
-0.03717612
-0.15052989
-0.78118873
-0.28892654
-0.47334802
-0.06053952
0.03895801
0.14630197
0.17136638
-0.20733075
0.17088434
-0.70867467
0.10022023
-0.46427912
-0.33839107
0.13655774
-0.10295238
-0.75763172
0.46454567
0.27197245
0.32019943
0.41889152
0.59684163
0.25918385
-0.20342985
-0.45047554
-0.68297207
-0.12700289
-0.02415862
0.08262607
-0.12847981
0.26800293
0.30777425
0.31108630
-0.35112000
0.14993297
0.51205045
-0.20953006
0.03011634
-0.34754395
0.00270093
-0.93816078
-0.20396785
-0.38852021
0.50152975
-0.44562823
0.29111674
0.08819129
-0.39256862
0.37048557
-0.29191485
-0.06537630
-0.81717741
-0.22647518
0.18696788
0.35923949
-0.39813146
-0.45972458
-0.48019320
0.10805994
0.41837272
-0.54165632
-0.13262822
-0.30391008
-0.04950973
0.14876719
-0.34470785
-0.96519721
0.24145731
-0.21915084
0.36333787
-0.17657124
-0.84575975
0.47741142
-0.44210401
-0.10703880
-0.48982030
0.01352429
-0.12824267
-0.46592033
-0.08174553
-0.29566476
0.05457350
0.22536752
0.42955956
-0.53655064
-0.27794063
-0.54166412
0.29131418
-0.44142598
-0.67733371
-0.24132651
0.23396166
0.07223468
-0.21238558
0.68217963
-0.38137156
0.42962086
-0.25644791
-0.09182502
-0.48339996
-0.78345734
0.86382127
-0.54309601
-0.22773641
0.23386648
0.21790367
0.45856762
-0.49679518
-0.47222573
-0.23570141
-0.38653675
-0.33374584
0.10305671
0.76123881
-0.52914643
-0.12030667
-0.59571290
-0.18260135
-0.75412291
-0.51941842
0.59043205
-0.00592376
-0.23559693
-0.45316738
-0.30748358
-0.31416899
-0.06610367
0.18344021
-0.25755170
-0.71154511
0.51647156
-0.61523926
0.00705269
0.40483755
-0.47111312
0.50232524
-0.11482146
-0.51687533
-0.19785674
0.19304429
0.33011487
0.01408885
-0.08361171
-0.15929917
0.15396225
0.27505168
-0.24789020
-0.53943485
0.31430697
-0.06673411
